0, 135, 180, 225, 270, 315, 45, 90
// W_0_161_0db.mat
// re
0.250000, 0.245871, 0.241822, 0.238017, 0.234461,
0.231223, 0.228357, 0.226016, 0.224311, 0.223468,
0.223796, 0.225763, 0.230058, 0.237752, 0.250404,
0.269750, 0.296332, 0.327509, 0.358671, 0.386762,
0.410901, 0.431304, 0.448495, 0.463009, 0.475326,
0.485812, 0.494773, 0.502447, 0.509030, 0.514680,
0.519524, 0.523664, 0.527185, 0.530160, 0.532645,
0.534692, 0.513466, 0.493779, 0.475815, 0.459413,
0.444429, 0.430734, 0.418228, 0.406815, 0.396413,
0.386950, 0.378366, 0.370602, 0.363614, 0.357362,
0.351812, 0.346938, 0.342717, 0.339132, 0.336171,
0.333828, 0.332102, 0.330997, 0.330524, 0.330698,
0.331542, 0.333087, 0.335370, 0.338441, 0.342356,
0.347186, 0.353018, 0.359953, 0.368112, 0.377640,
0.388707, 0.401522, 0.416320, 0.433382, 0.453029,
0.475626, 0.501569, 0.531266, 0.565096, 0.598010,
0.600691, 0.603311, 0.605871, 0.608374, 0.610821,
0.613215, 0.615557, 0.617850, 0.620096, 0.622300,
0.624462, 0.626588, 0.563236, 0.497730, 0.441090,
0.393677, 0.354825, 0.323468, 0.298431, 0.278616,
0.263069, 0.250991, 0.241726, 0.234739, 0.229596,
0.225943, 0.223489, 0.221994, 0.221254, 0.221098,
0.221376, 0.221961, 0.222734, 0.223598, 0.224465,
0.225261, 0.225922, 0.226399, 0.226652, 0.226654,
0.226395, 0.225870, 0.225089, 0.224069, 0.222835,
0.221422, 0.219862, 0.218200, 0.216475, 0.214727,
0.212994, 0.211314, 0.209720, 0.208243, 0.206908,
0.205740, 0.204757, 0.203975, 0.203408, 0.203071,
0.202965, 0.203099, 0.203475, 0.204105, 0.204988,
0.206126, 0.207520, 0.209172, 0.211083, 0.213255,
0.215689, 0.218388, 0.221352, 0.224584, 0.228087,
0.231865, 0.235921, 0.240259, 0.244885, 0.249802,
0.255017,
0.250000, 0.237209, 0.224159, 0.210691, 0.196809,
0.182456, 0.167583, 0.152052, 0.135761, 0.118502,
0.099992, 0.079807, 0.057334, 0.031660, 0.001554,
-0.034085, -0.074833, -0.117290, -0.156979, -0.191587,
-0.220958, -0.245798, -0.266940, -0.285107, -0.300888,
-0.314735, -0.327004, -0.337974, -0.347867, -0.356858,
-0.365089, -0.372678, -0.379719, -0.386291, -0.392459,
-0.398272, -0.374742, -0.352514, -0.331865, -0.312624,
-0.294639, -0.277765, -0.261893, -0.246914, -0.232731,
-0.219255, -0.206411, -0.194115, -0.182305, -0.170915,
-0.159887, -0.149162, -0.138685, -0.128401, -0.118256,
-0.108198, -0.098170, -0.088118, -0.077983, -0.067702,
-0.057211, -0.046437, -0.035301, -0.023718, -0.011589,
0.001195, 0.014758, 0.029241, 0.044806, 0.061641,
0.079957, 0.100011, 0.122086, 0.146507, 0.173640,
0.203887, 0.237672, 0.275394, 0.317394, 0.356082,
0.349900, 0.343707, 0.337509, 0.331310, 0.325115,
0.318928, 0.312754, 0.306597, 0.300461, 0.294350,
0.288269, 0.282221, 0.199310, 0.115778, 0.044188,
-0.015545, -0.064618, -0.104596, -0.137073, -0.163476,
-0.185005, -0.202631, -0.217132, -0.229117, -0.239055,
-0.247313, -0.254168, -0.259832, -0.264463, -0.268179,
-0.271067, -0.273187, -0.274591, -0.275312, -0.275378,
-0.274814, -0.273646, -0.271903, -0.269617, -0.266830,
-0.263582, -0.259926, -0.255919, -0.251619, -0.247089,
-0.242389, -0.237583, -0.232727, -0.227878, -0.223086,
-0.218395, -0.213845, -0.209468, -0.205293, -0.201341,
-0.197631, -0.194174, -0.190982, -0.188059, -0.185411,
-0.183038, -0.180940, -0.179117, -0.177569, -0.176293,
-0.175288, -0.174551, -0.174082, -0.173880, -0.173944,
-0.174275, -0.174875, -0.175744, -0.176887, -0.178306,
-0.180005, -0.181989, -0.184264, -0.186835, -0.189706,
-0.192884,
0.250000, 0.245871, 0.241822, 0.238017, 0.234461,
0.231223, 0.228357, 0.226016, 0.224311, 0.223468,
0.223796, 0.225763, 0.230058, 0.237752, 0.250404,
0.269750, 0.296332, 0.327509, 0.358671, 0.386762,
0.410901, 0.431304, 0.448495, 0.463009, 0.475326,
0.485812, 0.494773, 0.502447, 0.509030, 0.514680,
0.519524, 0.523664, 0.527185, 0.530160, 0.532645,
0.534692, 0.513466, 0.493779, 0.475815, 0.459413,
0.444429, 0.430734, 0.418228, 0.406815, 0.396413,
0.386950, 0.378366, 0.370602, 0.363614, 0.357362,
0.351812, 0.346938, 0.342717, 0.339132, 0.336171,
0.333828, 0.332102, 0.330997, 0.330524, 0.330698,
0.331542, 0.333087, 0.335370, 0.338441, 0.342356,
0.347186, 0.353018, 0.359953, 0.368112, 0.377640,
0.388707, 0.401522, 0.416320, 0.433382, 0.453029,
0.475626, 0.501569, 0.531266, 0.565096, 0.598010,
0.600691, 0.603311, 0.605871, 0.608374, 0.610821,
0.613215, 0.615557, 0.617850, 0.620096, 0.622300,
0.624462, 0.626588, 0.563236, 0.497730, 0.441090,
0.393677, 0.354825, 0.323468, 0.298431, 0.278616,
0.263069, 0.250991, 0.241726, 0.234739, 0.229596,
0.225943, 0.223489, 0.221994, 0.221254, 0.221098,
0.221376, 0.221961, 0.222734, 0.223598, 0.224465,
0.225261, 0.225922, 0.226399, 0.226652, 0.226654,
0.226395, 0.225870, 0.225089, 0.224069, 0.222835,
0.221422, 0.219862, 0.218200, 0.216475, 0.214727,
0.212994, 0.211314, 0.209720, 0.208243, 0.206908,
0.205740, 0.204757, 0.203975, 0.203408, 0.203071,
0.202965, 0.203099, 0.203475, 0.204105, 0.204988,
0.206126, 0.207520, 0.209172, 0.211083, 0.213255,
0.215689, 0.218388, 0.221352, 0.224584, 0.228087,
0.231865, 0.235921, 0.240259, 0.244885, 0.249802,
0.255017,
0.250000, 0.237209, 0.224159, 0.210691, 0.196809,
0.182456, 0.167583, 0.152052, 0.135761, 0.118502,
0.099992, 0.079807, 0.057334, 0.031660, 0.001554,
-0.034085, -0.074833, -0.117290, -0.156979, -0.191587,
-0.220958, -0.245798, -0.266940, -0.285107, -0.300888,
-0.314735, -0.327004, -0.337974, -0.347867, -0.356858,
-0.365089, -0.372678, -0.379719, -0.386291, -0.392459,
-0.398272, -0.374742, -0.352514, -0.331865, -0.312624,
-0.294639, -0.277765, -0.261893, -0.246914, -0.232731,
-0.219255, -0.206411, -0.194115, -0.182305, -0.170915,
-0.159887, -0.149162, -0.138685, -0.128401, -0.118256,
-0.108198, -0.098170, -0.088118, -0.077983, -0.067702,
-0.057211, -0.046437, -0.035301, -0.023718, -0.011589,
0.001195, 0.014758, 0.029241, 0.044806, 0.061641,
0.079957, 0.100011, 0.122086, 0.146507, 0.173640,
0.203887, 0.237672, 0.275394, 0.317394, 0.356082,
0.349900, 0.343707, 0.337509, 0.331310, 0.325115,
0.318928, 0.312754, 0.306597, 0.300461, 0.294350,
0.288269, 0.282221, 0.199310, 0.115778, 0.044188,
-0.015545, -0.064618, -0.104596, -0.137073, -0.163476,
-0.185005, -0.202631, -0.217132, -0.229117, -0.239055,
-0.247313, -0.254168, -0.259832, -0.264463, -0.268179,
-0.271067, -0.273187, -0.274591, -0.275312, -0.275378,
-0.274814, -0.273646, -0.271903, -0.269617, -0.266830,
-0.263582, -0.259926, -0.255919, -0.251619, -0.247089,
-0.242389, -0.237583, -0.232727, -0.227878, -0.223086,
-0.218395, -0.213845, -0.209468, -0.205293, -0.201341,
-0.197631, -0.194174, -0.190982, -0.188059, -0.185411,
-0.183038, -0.180940, -0.179117, -0.177569, -0.176293,
-0.175288, -0.174551, -0.174082, -0.173880, -0.173944,
-0.174275, -0.174875, -0.175744, -0.176887, -0.178306,
-0.180005, -0.181989, -0.184264, -0.186835, -0.189706,
-0.192884,

// im
-0.000000, -0.001353, -0.001404, -0.001464, -0.001530,
-0.001603, -0.001686, -0.001781, -0.001888, -0.002008,
-0.002144, -0.002297, -0.002470, -0.002661, -0.002866,
-0.003068, -0.003235, -0.003337, -0.003371, -0.003357,
-0.003315, -0.003260, -0.003200, -0.003140, -0.003081,
-0.003026, -0.002975, -0.002929, -0.002888, -0.002851,
-0.002819, -0.002793, -0.002770, -0.002753, -0.002739,
-0.002730, -0.002689, -0.002650, -0.002614, -0.002582,
-0.002552, -0.002526, -0.002502, -0.002481, -0.002463,
-0.002446, -0.002432, -0.002420, -0.002410, -0.002403,
-0.002397, -0.002393, -0.002391, -0.002391, -0.002392,
-0.002396, -0.002401, -0.002408, -0.002416, -0.002427,
-0.002439, -0.002452, -0.002468, -0.002485, -0.002505,
-0.002526, -0.002548, -0.002573, -0.002600, -0.002628,
-0.002659, -0.002691, -0.002726, -0.002762, -0.002801,
-0.002842, -0.002886, -0.002931, -0.002979, -0.003025,
-0.003048, -0.003079, -0.003116, -0.003162, -0.003216,
-0.003278, -0.003348, -0.003428, -0.003517, -0.003617,
-0.003728, -0.003851, -0.003946, -0.004038, -0.004134,
-0.004234, -0.004337, -0.004443, -0.004553, -0.004666,
-0.004782, -0.004901, -0.005023, -0.005148, -0.005275,
-0.005405, -0.005537, -0.005670, -0.005804, -0.005939,
-0.006074, -0.006208, -0.006342, -0.006473, -0.006602,
-0.006728, -0.006850, -0.006967, -0.007078, -0.007184,
-0.007281, -0.007371, -0.007452, -0.007525, -0.007587,
-0.007640, -0.007682, -0.007714, -0.007734, -0.007744,
-0.007743, -0.007731, -0.007710, -0.007678, -0.007637,
-0.007587, -0.007529, -0.007464, -0.007392, -0.007313,
-0.007229, -0.007141, -0.007049, -0.006954, -0.006856,
-0.006756, -0.006654, -0.006552, -0.006450, -0.006347,
-0.006245, -0.006145, -0.006045, -0.005947, -0.005850,
-0.005756, -0.005664, -0.005574, -0.005486, -0.005401,
-0.005319,
0.000000, -0.619094, -0.625518, -0.631629, -0.637410,
-0.642840, -0.647893, -0.652529, -0.656696, -0.660315,
-0.663259, -0.665325, -0.666168, -0.665180, -0.661277,
-0.652736, -0.637634, -0.615605, -0.588813, -0.560088,
-0.531344, -0.503537, -0.477059, -0.452026, -0.428395,
-0.406102, -0.385044, -0.365118, -0.346220, -0.328251,
-0.311122, -0.294753, -0.279073, -0.264013, -0.249514,
-0.235519, -0.230265, -0.225452, -0.220931, -0.216680,
-0.212679, -0.208912, -0.205358, -0.202003, -0.198833,
-0.195833, -0.192992, -0.190300, -0.187745, -0.185317,
-0.183007, -0.180805, -0.178704, -0.176694, -0.174767,
-0.172916, -0.171133, -0.169408, -0.167735, -0.166104,
-0.164507, -0.162934, -0.161376, -0.159823, -0.158263,
-0.156685, -0.155074, -0.153419, -0.151702, -0.149906,
-0.148015, -0.146005, -0.143858, -0.141551, -0.139065,
-0.136380, -0.133486, -0.130383, -0.127095, -0.124825,
-0.129350, -0.133686, -0.137833, -0.141791, -0.145559,
-0.149137, -0.152524, -0.155719, -0.158718, -0.161518,
-0.164116, -0.166505, -0.173144, -0.178455, -0.181814,
-0.183423, -0.183513, -0.182295, -0.179935, -0.176553,
-0.172227, -0.167005, -0.160906, -0.153929, -0.146075,
-0.137324, -0.127662, -0.117075, -0.105559, -0.093120,
-0.079778, -0.065569, -0.050554, -0.034811, -0.018437,
-0.001555, 0.015698, 0.033168, 0.050687, 0.068088,
0.085195, 0.101844, 0.117880, 0.133166, 0.147583,
0.161036, 0.173460, 0.184795, 0.195022, 0.204138,
0.212160, 0.219119, 0.225059, 0.230033, 0.234104,
0.237336, 0.239795, 0.241549, 0.242664, 0.243196,
0.243219, 0.242784, 0.241948, 0.240746, 0.239227,
0.237434, 0.235400, 0.233158, 0.230735, 0.228159,
0.225450, 0.222630, 0.219716, 0.216725, 0.213670,
0.210565, 0.207421, 0.204251, 0.201064, 0.197871,
0.194682,
0.000000, 0.001353, 0.001404, 0.001464, 0.001530,
0.001603, 0.001686, 0.001781, 0.001888, 0.002008,
0.002144, 0.002297, 0.002470, 0.002661, 0.002866,
0.003068, 0.003235, 0.003337, 0.003371, 0.003357,
0.003315, 0.003260, 0.003200, 0.003140, 0.003081,
0.003026, 0.002975, 0.002929, 0.002888, 0.002851,
0.002819, 0.002793, 0.002770, 0.002753, 0.002739,
0.002730, 0.002689, 0.002650, 0.002614, 0.002582,
0.002552, 0.002526, 0.002502, 0.002481, 0.002463,
0.002446, 0.002432, 0.002420, 0.002410, 0.002403,
0.002397, 0.002393, 0.002391, 0.002391, 0.002392,
0.002396, 0.002401, 0.002408, 0.002416, 0.002427,
0.002439, 0.002452, 0.002468, 0.002485, 0.002505,
0.002526, 0.002548, 0.002573, 0.002600, 0.002628,
0.002659, 0.002691, 0.002726, 0.002762, 0.002801,
0.002842, 0.002886, 0.002931, 0.002979, 0.003025,
0.003048, 0.003079, 0.003116, 0.003162, 0.003216,
0.003278, 0.003348, 0.003428, 0.003517, 0.003617,
0.003728, 0.003851, 0.003946, 0.004038, 0.004134,
0.004234, 0.004337, 0.004443, 0.004553, 0.004666,
0.004782, 0.004901, 0.005023, 0.005148, 0.005275,
0.005405, 0.005537, 0.005670, 0.005804, 0.005939,
0.006074, 0.006208, 0.006342, 0.006473, 0.006602,
0.006728, 0.006850, 0.006967, 0.007078, 0.007184,
0.007281, 0.007371, 0.007452, 0.007525, 0.007587,
0.007640, 0.007682, 0.007714, 0.007734, 0.007744,
0.007743, 0.007731, 0.007710, 0.007678, 0.007637,
0.007587, 0.007529, 0.007464, 0.007392, 0.007313,
0.007229, 0.007141, 0.007049, 0.006954, 0.006856,
0.006756, 0.006654, 0.006552, 0.006450, 0.006347,
0.006245, 0.006145, 0.006045, 0.005947, 0.005850,
0.005756, 0.005664, 0.005574, 0.005486, 0.005401,
0.005319,
0.000000, 0.619094, 0.625518, 0.631629, 0.637410,
0.642840, 0.647893, 0.652529, 0.656696, 0.660315,
0.663259, 0.665325, 0.666168, 0.665180, 0.661277,
0.652736, 0.637634, 0.615605, 0.588813, 0.560088,
0.531344, 0.503537, 0.477059, 0.452026, 0.428395,
0.406102, 0.385044, 0.365118, 0.346220, 0.328251,
0.311122, 0.294753, 0.279073, 0.264013, 0.249514,
0.235519, 0.230265, 0.225452, 0.220931, 0.216680,
0.212679, 0.208912, 0.205358, 0.202003, 0.198833,
0.195833, 0.192992, 0.190300, 0.187745, 0.185317,
0.183007, 0.180805, 0.178704, 0.176694, 0.174767,
0.172916, 0.171133, 0.169408, 0.167735, 0.166104,
0.164507, 0.162934, 0.161376, 0.159823, 0.158263,
0.156685, 0.155074, 0.153419, 0.151702, 0.149906,
0.148015, 0.146005, 0.143858, 0.141551, 0.139065,
0.136380, 0.133486, 0.130383, 0.127095, 0.124825,
0.129350, 0.133686, 0.137833, 0.141791, 0.145559,
0.149137, 0.152524, 0.155719, 0.158718, 0.161518,
0.164116, 0.166505, 0.173144, 0.178455, 0.181814,
0.183423, 0.183513, 0.182295, 0.179935, 0.176553,
0.172227, 0.167005, 0.160906, 0.153929, 0.146075,
0.137324, 0.127662, 0.117075, 0.105559, 0.093120,
0.079778, 0.065569, 0.050554, 0.034811, 0.018437,
0.001555, -0.015698, -0.033168, -0.050687, -0.068088,
-0.085195, -0.101844, -0.117880, -0.133166, -0.147583,
-0.161036, -0.173460, -0.184795, -0.195022, -0.204138,
-0.212160, -0.219119, -0.225059, -0.230033, -0.234104,
-0.237336, -0.239795, -0.241549, -0.242664, -0.243196,
-0.243219, -0.242784, -0.241948, -0.240746, -0.239227,
-0.237434, -0.235400, -0.233158, -0.230735, -0.228159,
-0.225450, -0.222630, -0.219716, -0.216725, -0.213670,
-0.210565, -0.207421, -0.204251, -0.201064, -0.197871,
-0.194682,

// W_135_161_0db.mat
// re
0.250000, 0.241509, 0.232929, 0.224257, 0.215498,
0.206653, 0.197726, 0.188718, 0.179631, 0.170466,
0.161222, 0.151896, 0.142483, 0.132966, 0.123312,
0.113440, 0.103092, 0.090993, 0.058548, 0.062004,
0.065085, 0.067843, 0.070344, 0.072613, 0.074749,
0.076746, 0.078636, 0.080442, 0.082183, 0.083875,
0.085533, 0.087169, 0.088792, 0.090414, 0.092042,
0.093684, 0.095348, 0.097041, 0.098769, 0.100539,
0.102358, 0.104230, 0.106167, 0.108167, 0.110242,
0.112397, 0.114641, 0.116980, 0.119422, 0.121976,
0.124651, 0.127457, 0.130403, 0.133501, 0.136762,
0.140200, 0.143827, 0.147658, 0.151709, 0.155997,
0.160537, 0.165348, 0.170448, 0.175853, 0.181581,
0.187643, 0.194047, 0.200790, 0.207852, 0.215196,
0.222738, 0.230339, 0.237763, 0.244627, 0.250320,
0.253867, 0.253716, 0.247486, 0.231508, 0.200419,
0.146998, 0.063135, -0.056558, -0.207797, -0.370328,
-0.453089, -0.457200, -0.461141, -0.464910, -0.468505,
-0.471926, -0.475171, -0.478238, -0.471761, -0.437014,
-0.405876, -0.378175, -0.353606, -0.331824, -0.312503,
-0.295331, -0.280043, -0.266406, -0.254223, -0.243326,
-0.233562, -0.224812, -0.216970, -0.209948, -0.203670,
-0.198069, -0.193091, -0.188686, -0.184815, -0.181441,
-0.178534, -0.176068, -0.174021, -0.172371, -0.171103,
-0.170200, -0.169649, -0.169437, -0.169552, -0.169984,
-0.170720, -0.171750, -0.173061, -0.174643, -0.176481,
-0.178560, -0.180867, -0.183382, -0.186089, -0.188966,
-0.191993, -0.195146, -0.198401, -0.201733, -0.205116,
-0.208525, -0.211932, -0.215310, -0.218632, -0.221878,
-0.225023, -0.228046, -0.230926, -0.233649, -0.236198,
-0.238563, -0.240732, -0.242700, -0.244462, -0.246016,
-0.247361, -0.248499, -0.249434, -0.250168, -0.250707,
-0.251057,
0.250000, 0.241572, 0.233049, 0.224443, 0.215755,
0.206990, 0.198150, 0.189243, 0.180271, 0.171242,
0.162163, 0.153043, 0.143897, 0.134746, 0.125631,
0.116641, 0.108043, 0.101129, 0.117837, 0.115388,
0.113378, 0.111763, 0.110473, 0.109480, 0.108701,
0.108134, 0.107754, 0.107539, 0.107473, 0.107544,
0.107740, 0.108054, 0.108478, 0.109009, 0.109641,
0.110373, 0.111201, 0.112126, 0.113147, 0.114263,
0.115477, 0.116790, 0.118205, 0.119723, 0.121347,
0.123082, 0.124933, 0.126905, 0.129004, 0.131236,
0.133609, 0.136130, 0.138809, 0.141655, 0.144679,
0.147893, 0.151309, 0.154940, 0.158802, 0.162910,
0.167281, 0.171931, 0.176878, 0.182138, 0.187727,
0.193657, 0.199934, 0.206555, 0.213500, 0.220730,
0.228161, 0.235653, 0.242967, 0.249721, 0.255299,
0.258724, 0.258441, 0.252061, 0.235909, 0.204614,
0.150946, 0.066791, -0.053227, -0.204792, -0.367593,
-0.450425, -0.454469, -0.458339, -0.462035, -0.465553,
-0.468894, -0.472055, -0.475037, -0.468474, -0.433662,
-0.402470, -0.374724, -0.350117, -0.328303, -0.308953,
-0.291755, -0.276444, -0.262786, -0.250582, -0.239666,
-0.229882, -0.221111, -0.213249, -0.206206, -0.199906,
-0.194283, -0.189280, -0.184851, -0.180953, -0.177552,
-0.174617, -0.172121, -0.170042, -0.168361, -0.167059,
-0.166121, -0.165534, -0.165285, -0.165362, -0.165755,
-0.166452, -0.167443, -0.168715, -0.170256, -0.172055,
-0.174096, -0.176365, -0.178844, -0.181516, -0.184361,
-0.187358, -0.190484, -0.193715, -0.197028, -0.200395,
-0.203793, -0.207195, -0.210574, -0.213902, -0.217161,
-0.220326, -0.223377, -0.226294, -0.229062, -0.231666,
-0.234098, -0.236345, -0.238402, -0.240267, -0.241938,
-0.243416, -0.244706, -0.245811, -0.246739, -0.247497,
-0.248094,
0.250000, 0.241509, 0.232929, 0.224257, 0.215498,
0.206653, 0.197726, 0.188718, 0.179631, 0.170466,
0.161222, 0.151896, 0.142483, 0.132966, 0.123312,
0.113440, 0.103092, 0.090993, 0.058548, 0.062004,
0.065085, 0.067843, 0.070344, 0.072613, 0.074749,
0.076746, 0.078636, 0.080442, 0.082183, 0.083875,
0.085533, 0.087169, 0.088792, 0.090414, 0.092042,
0.093684, 0.095348, 0.097041, 0.098769, 0.100539,
0.102358, 0.104230, 0.106167, 0.108167, 0.110242,
0.112397, 0.114641, 0.116980, 0.119422, 0.121976,
0.124651, 0.127457, 0.130403, 0.133501, 0.136762,
0.140200, 0.143827, 0.147658, 0.151709, 0.155997,
0.160537, 0.165348, 0.170448, 0.175853, 0.181581,
0.187643, 0.194047, 0.200790, 0.207852, 0.215196,
0.222738, 0.230339, 0.237763, 0.244627, 0.250320,
0.253867, 0.253716, 0.247486, 0.231508, 0.200419,
0.146998, 0.063135, -0.056558, -0.207797, -0.370328,
-0.453089, -0.457200, -0.461141, -0.464910, -0.468505,
-0.471926, -0.475171, -0.478238, -0.471761, -0.437014,
-0.405876, -0.378175, -0.353606, -0.331824, -0.312503,
-0.295331, -0.280043, -0.266406, -0.254223, -0.243326,
-0.233562, -0.224812, -0.216970, -0.209948, -0.203670,
-0.198069, -0.193091, -0.188686, -0.184815, -0.181441,
-0.178534, -0.176068, -0.174021, -0.172371, -0.171103,
-0.170200, -0.169649, -0.169437, -0.169552, -0.169984,
-0.170720, -0.171750, -0.173061, -0.174643, -0.176481,
-0.178560, -0.180867, -0.183382, -0.186089, -0.188966,
-0.191993, -0.195146, -0.198401, -0.201733, -0.205116,
-0.208525, -0.211932, -0.215310, -0.218632, -0.221878,
-0.225023, -0.228046, -0.230926, -0.233649, -0.236198,
-0.238563, -0.240732, -0.242700, -0.244462, -0.246016,
-0.247361, -0.248499, -0.249434, -0.250168, -0.250707,
-0.251057,
0.250000, 0.241572, 0.233049, 0.224443, 0.215755,
0.206990, 0.198150, 0.189243, 0.180271, 0.171242,
0.162163, 0.153043, 0.143897, 0.134746, 0.125631,
0.116641, 0.108043, 0.101129, 0.117837, 0.115388,
0.113378, 0.111763, 0.110473, 0.109480, 0.108701,
0.108134, 0.107754, 0.107539, 0.107473, 0.107544,
0.107740, 0.108054, 0.108478, 0.109009, 0.109641,
0.110373, 0.111201, 0.112126, 0.113147, 0.114263,
0.115477, 0.116790, 0.118205, 0.119723, 0.121347,
0.123082, 0.124933, 0.126905, 0.129004, 0.131236,
0.133609, 0.136130, 0.138809, 0.141655, 0.144679,
0.147893, 0.151309, 0.154940, 0.158802, 0.162910,
0.167281, 0.171931, 0.176878, 0.182138, 0.187727,
0.193657, 0.199934, 0.206555, 0.213500, 0.220730,
0.228161, 0.235653, 0.242967, 0.249721, 0.255299,
0.258724, 0.258441, 0.252061, 0.235909, 0.204614,
0.150946, 0.066791, -0.053227, -0.204792, -0.367593,
-0.450425, -0.454469, -0.458339, -0.462035, -0.465553,
-0.468894, -0.472055, -0.475037, -0.468474, -0.433662,
-0.402470, -0.374724, -0.350117, -0.328303, -0.308953,
-0.291755, -0.276444, -0.262786, -0.250582, -0.239666,
-0.229882, -0.221111, -0.213249, -0.206206, -0.199906,
-0.194283, -0.189280, -0.184851, -0.180953, -0.177552,
-0.174617, -0.172121, -0.170042, -0.168361, -0.167059,
-0.166121, -0.165534, -0.165285, -0.165362, -0.165755,
-0.166452, -0.167443, -0.168715, -0.170256, -0.172055,
-0.174096, -0.176365, -0.178844, -0.181516, -0.184361,
-0.187358, -0.190484, -0.193715, -0.197028, -0.200395,
-0.203793, -0.207195, -0.210574, -0.213902, -0.217161,
-0.220326, -0.223377, -0.226294, -0.229062, -0.231666,
-0.234098, -0.236345, -0.238402, -0.240267, -0.241938,
-0.243416, -0.244706, -0.245811, -0.246739, -0.247497,
-0.248094,

// im
-0.000000, 0.437914, 0.442579, 0.447088, 0.451434,
0.455617, 0.459638, 0.463496, 0.467192, 0.470727,
0.474102, 0.477320, 0.480384, 0.483299, 0.486072,
0.488711, 0.491229, 0.493632, 0.491255, 0.466857,
0.444981, 0.425264, 0.407420, 0.391208, 0.376414,
0.362878, 0.350454, 0.339021, 0.328473, 0.318722,
0.309688, 0.301305, 0.293512, 0.286258, 0.279498,
0.273190, 0.267300, 0.261795, 0.256648, 0.251833,
0.247327, 0.243111, 0.239164, 0.235475, 0.232027,
0.228808, 0.225805, 0.223008, 0.220409, 0.217999,
0.215771, 0.213720, 0.211841, 0.210128, 0.208581,
0.207195, 0.205970, 0.204905, 0.204002, 0.203262,
0.202689, 0.202286, 0.202061, 0.202021, 0.202176,
0.202539, 0.203125, 0.203952, 0.205045, 0.206427,
0.208133, 0.210198, 0.212667, 0.215587, 0.219007,
0.222970, 0.227497, 0.232553, 0.237990, 0.243436,
0.248134, 0.250762, 0.249423, 0.242194, 0.228453,
0.214852, 0.205952, 0.196976, 0.187926, 0.178805,
0.169616, 0.160361, 0.151044, 0.143920, 0.144465,
0.145453, 0.146725, 0.148177, 0.149742, 0.151376,
0.153050, 0.154745, 0.156448, 0.158151, 0.159844,
0.161527, 0.163195, 0.164842, 0.166465, 0.168060,
0.169621, 0.171144, 0.172622, 0.174048, 0.175415,
0.176714, 0.177936, 0.179070, 0.180104, 0.181025,
0.181820, 0.182475, 0.182973, 0.183298, 0.183433,
0.183360, 0.183059, 0.182514, 0.181705, 0.180614,
0.179224, 0.177518, 0.175482, 0.173102, 0.170368,
0.167271, 0.163808, 0.159975, 0.155776, 0.151218,
0.146308, 0.141057, 0.135490, 0.129631, 0.123493,
0.117106, 0.110502, 0.103710, 0.096762, 0.089690,
0.082521, 0.075298, 0.068044, 0.060789, 0.053559,
0.046377, 0.039264, 0.032241, 0.025321, 0.018519,
0.011845,
0.000000, 0.437662, 0.442217, 0.446594, 0.450797,
0.454822, 0.458665, 0.462324, 0.465797, 0.469078,
0.472163, 0.475048, 0.477728, 0.480193, 0.482437,
0.484446, 0.486202, 0.487669, 0.484369, 0.460329,
0.438777, 0.419353, 0.401774, 0.385805, 0.371234,
0.357902, 0.345668, 0.334410, 0.324026, 0.314426,
0.305535, 0.297284, 0.289617, 0.282481, 0.275831,
0.269629, 0.263838, 0.258428, 0.253371, 0.248642,
0.244218, 0.240081, 0.236209, 0.232593, 0.229215,
0.226063, 0.223125, 0.220391, 0.217854, 0.215503,
0.213334, 0.211340, 0.209516, 0.207858, 0.206364,
0.205031, 0.203858, 0.202845, 0.201993, 0.201304,
0.200781, 0.200429, 0.200254, 0.200264, 0.200469,
0.200882, 0.201519, 0.202397, 0.203539, 0.204973,
0.206728, 0.208844, 0.211363, 0.214330, 0.217796,
0.221800, 0.226364, 0.231449, 0.236904, 0.242353,
0.247036, 0.249629, 0.248241, 0.240966, 0.227208,
0.213698, 0.204963, 0.196149, 0.187261, 0.178302,
0.169277, 0.160189, 0.151043, 0.144096, 0.144821,
0.145989, 0.147442, 0.149079, 0.150831, 0.152656,
0.154527, 0.156424, 0.158335, 0.160252, 0.162166,
0.164076, 0.165978, 0.167866, 0.169736, 0.171584,
0.173404, 0.175190, 0.176937, 0.178636, 0.180279,
0.181856, 0.183357, 0.184769, 0.186081, 0.187278,
0.188346, 0.189268, 0.190027, 0.190606, 0.190986,
0.191149, 0.191074, 0.190743, 0.190137, 0.189236,
0.188024, 0.186482, 0.184598, 0.182357, 0.179750,
0.176768, 0.173408, 0.169669, 0.165553, 0.161068,
0.156224, 0.151030, 0.145514, 0.139702, 0.133603,
0.127252, 0.120679, 0.113914, 0.106990, 0.099940,
0.092787, 0.085580, 0.078340, 0.071098, 0.063878,
0.056705, 0.049600, 0.042583, 0.035668, 0.028870,
0.022198,
0.000000, -0.437914, -0.442579, -0.447088, -0.451434,
-0.455617, -0.459638, -0.463496, -0.467192, -0.470727,
-0.474102, -0.477320, -0.480384, -0.483299, -0.486072,
-0.488711, -0.491229, -0.493632, -0.491255, -0.466857,
-0.444981, -0.425264, -0.407420, -0.391208, -0.376414,
-0.362878, -0.350454, -0.339021, -0.328473, -0.318722,
-0.309688, -0.301305, -0.293512, -0.286258, -0.279498,
-0.273190, -0.267300, -0.261795, -0.256648, -0.251833,
-0.247327, -0.243111, -0.239164, -0.235475, -0.232027,
-0.228808, -0.225805, -0.223008, -0.220409, -0.217999,
-0.215771, -0.213720, -0.211841, -0.210128, -0.208581,
-0.207195, -0.205970, -0.204905, -0.204002, -0.203262,
-0.202689, -0.202286, -0.202061, -0.202021, -0.202176,
-0.202539, -0.203125, -0.203952, -0.205045, -0.206427,
-0.208133, -0.210198, -0.212667, -0.215587, -0.219007,
-0.222970, -0.227497, -0.232553, -0.237990, -0.243436,
-0.248134, -0.250762, -0.249423, -0.242194, -0.228453,
-0.214852, -0.205952, -0.196976, -0.187926, -0.178805,
-0.169616, -0.160361, -0.151044, -0.143920, -0.144465,
-0.145453, -0.146725, -0.148177, -0.149742, -0.151376,
-0.153050, -0.154745, -0.156448, -0.158151, -0.159844,
-0.161527, -0.163195, -0.164842, -0.166465, -0.168060,
-0.169621, -0.171144, -0.172622, -0.174048, -0.175415,
-0.176714, -0.177936, -0.179070, -0.180104, -0.181025,
-0.181820, -0.182475, -0.182973, -0.183298, -0.183433,
-0.183360, -0.183059, -0.182514, -0.181705, -0.180614,
-0.179224, -0.177518, -0.175482, -0.173102, -0.170368,
-0.167271, -0.163808, -0.159975, -0.155776, -0.151218,
-0.146308, -0.141057, -0.135490, -0.129631, -0.123493,
-0.117106, -0.110502, -0.103710, -0.096762, -0.089690,
-0.082521, -0.075298, -0.068044, -0.060789, -0.053559,
-0.046377, -0.039264, -0.032241, -0.025321, -0.018519,
-0.011845,
0.000000, -0.437662, -0.442217, -0.446594, -0.450797,
-0.454822, -0.458665, -0.462324, -0.465797, -0.469078,
-0.472163, -0.475048, -0.477728, -0.480193, -0.482437,
-0.484446, -0.486202, -0.487669, -0.484369, -0.460329,
-0.438777, -0.419353, -0.401774, -0.385805, -0.371234,
-0.357902, -0.345668, -0.334410, -0.324026, -0.314426,
-0.305535, -0.297284, -0.289617, -0.282481, -0.275831,
-0.269629, -0.263838, -0.258428, -0.253371, -0.248642,
-0.244218, -0.240081, -0.236209, -0.232593, -0.229215,
-0.226063, -0.223125, -0.220391, -0.217854, -0.215503,
-0.213334, -0.211340, -0.209516, -0.207858, -0.206364,
-0.205031, -0.203858, -0.202845, -0.201993, -0.201304,
-0.200781, -0.200429, -0.200254, -0.200264, -0.200469,
-0.200882, -0.201519, -0.202397, -0.203539, -0.204973,
-0.206728, -0.208844, -0.211363, -0.214330, -0.217796,
-0.221800, -0.226364, -0.231449, -0.236904, -0.242353,
-0.247036, -0.249629, -0.248241, -0.240966, -0.227208,
-0.213698, -0.204963, -0.196149, -0.187261, -0.178302,
-0.169277, -0.160189, -0.151043, -0.144096, -0.144821,
-0.145989, -0.147442, -0.149079, -0.150831, -0.152656,
-0.154527, -0.156424, -0.158335, -0.160252, -0.162166,
-0.164076, -0.165978, -0.167866, -0.169736, -0.171584,
-0.173404, -0.175190, -0.176937, -0.178636, -0.180279,
-0.181856, -0.183357, -0.184769, -0.186081, -0.187278,
-0.188346, -0.189268, -0.190027, -0.190606, -0.190986,
-0.191149, -0.191074, -0.190743, -0.190137, -0.189236,
-0.188024, -0.186482, -0.184598, -0.182357, -0.179750,
-0.176768, -0.173408, -0.169669, -0.165553, -0.161068,
-0.156224, -0.151030, -0.145514, -0.139702, -0.133603,
-0.127252, -0.120679, -0.113914, -0.106990, -0.099940,
-0.092787, -0.085580, -0.078340, -0.071098, -0.063878,
-0.056705, -0.049600, -0.042583, -0.035668, -0.028870,
-0.022198,

// W_180_161_0db.mat
// re
0.250000, 0.245846, 0.241776, 0.237948, 0.234369,
0.231108, 0.228221, 0.225859, 0.224136, 0.223279,
0.223598, 0.225567, 0.229880, 0.237628, 0.250385,
0.269911, 0.296683, 0.327996, 0.359184, 0.387233,
0.411302, 0.431631, 0.448749, 0.463198, 0.475453,
0.485884, 0.494793, 0.502419, 0.508957, 0.514563,
0.519364, 0.523462, 0.526942, 0.529875, 0.532319,
0.533797, 0.512249, 0.492603, 0.474675, 0.458305,
0.443352, 0.429681, 0.417199, 0.405808, 0.395424,
0.385978, 0.377410, 0.369658, 0.362680, 0.356438,
0.350895, 0.346027, 0.341810, 0.338227, 0.335266,
0.332922, 0.331194, 0.330084, 0.329604, 0.329770,
0.330604, 0.332136, 0.334404, 0.337456, 0.341351,
0.346158, 0.351963, 0.358866, 0.366990, 0.376478,
0.387499, 0.400262, 0.415001, 0.431995, 0.451565,
0.474073, 0.499916, 0.529498, 0.563200, 0.597317,
0.600030, 0.602678, 0.605263, 0.607787, 0.610252,
0.612660, 0.615015, 0.617318, 0.619574, 0.621784,
0.623952, 0.626081, 0.562010, 0.496700, 0.440218,
0.392933, 0.354185, 0.322914, 0.297948, 0.278194,
0.262699, 0.250668, 0.241445, 0.234495, 0.229387,
0.225767, 0.223344, 0.221878, 0.221164, 0.221032,
0.221331, 0.221933, 0.222720, 0.223593, 0.224465,
0.225260, 0.225915, 0.226379, 0.226615, 0.226595,
0.226309, 0.225754, 0.224939, 0.223883, 0.222614,
0.221164, 0.219570, 0.217874, 0.216118, 0.214342,
0.212585, 0.210884, 0.209272, 0.207781, 0.206435,
0.205258, 0.204269, 0.203483, 0.202919, 0.202577,
0.202471, 0.202603, 0.202985, 0.203616, 0.204500,
0.205638, 0.207032, 0.208682, 0.210591, 0.212759,
0.215187, 0.217877, 0.220831, 0.224051, 0.227540,
0.231301, 0.235338, 0.239654, 0.244255, 0.249145,
0.254330,
0.250000, 0.237235, 0.224205, 0.210760, 0.196902,
0.182571, 0.167719, 0.152208, 0.135934, 0.118690,
0.100188, 0.079998, 0.057506, 0.031778, 0.001572,
-0.034228, -0.075128, -0.117668, -0.157341, -0.191884,
-0.221181, -0.245956, -0.267043, -0.285170, -0.300922,
-0.314749, -0.327007, -0.337973, -0.347868, -0.356867,
-0.365113, -0.372720, -0.379784, -0.386384, -0.392584,
-0.397781, -0.373837, -0.351658, -0.331052, -0.311853,
-0.293908, -0.277069, -0.261232, -0.246285, -0.232132,
-0.218686, -0.205871, -0.193602, -0.181818, -0.170454,
-0.159451, -0.148751, -0.138299, -0.128039, -0.117919,
-0.107884, -0.097882, -0.087855, -0.077746, -0.067493,
-0.057029, -0.046285, -0.035180, -0.023630, -0.011536,
0.001210, 0.014731, 0.029169, 0.044685, 0.061465,
0.079721, 0.099708, 0.121708, 0.146044, 0.173081,
0.203221, 0.236883, 0.274468, 0.316313, 0.356780,
0.350553, 0.344320, 0.338086, 0.331854, 0.325629,
0.319414, 0.313214, 0.307032, 0.300873, 0.294740,
0.288637, 0.282568, 0.198761, 0.115424, 0.043985,
-0.015631, -0.064616, -0.104528, -0.136959, -0.163330,
-0.184839, -0.202456, -0.216957, -0.228948, -0.238897,
-0.247170, -0.254043, -0.259727, -0.264379, -0.268116,
-0.271023, -0.273160, -0.274577, -0.275307, -0.275377,
-0.274812, -0.273638, -0.271883, -0.269581, -0.266771,
-0.263498, -0.259814, -0.255777, -0.251445, -0.246883,
-0.242154, -0.237318, -0.232437, -0.227565, -0.222753,
-0.218046, -0.213483, -0.209097, -0.204915, -0.200960,
-0.197248, -0.193792, -0.190602, -0.187684, -0.185040,
-0.182671, -0.180578, -0.178762, -0.177219, -0.175948,
-0.174947, -0.174213, -0.173746, -0.173545, -0.173609,
-0.173939, -0.174535, -0.175400, -0.176536, -0.177947,
-0.179636, -0.181609, -0.183870, -0.186425, -0.189279,
-0.192436,
0.250000, 0.245846, 0.241776, 0.237948, 0.234369,
0.231108, 0.228221, 0.225859, 0.224136, 0.223279,
0.223598, 0.225567, 0.229880, 0.237628, 0.250385,
0.269911, 0.296683, 0.327996, 0.359184, 0.387233,
0.411302, 0.431631, 0.448749, 0.463198, 0.475453,
0.485884, 0.494793, 0.502419, 0.508957, 0.514563,
0.519364, 0.523462, 0.526942, 0.529875, 0.532319,
0.533797, 0.512249, 0.492603, 0.474675, 0.458305,
0.443352, 0.429681, 0.417199, 0.405808, 0.395424,
0.385978, 0.377410, 0.369658, 0.362680, 0.356438,
0.350895, 0.346027, 0.341810, 0.338227, 0.335266,
0.332922, 0.331194, 0.330084, 0.329604, 0.329770,
0.330604, 0.332136, 0.334404, 0.337456, 0.341351,
0.346158, 0.351963, 0.358866, 0.366990, 0.376478,
0.387499, 0.400262, 0.415001, 0.431995, 0.451565,
0.474073, 0.499916, 0.529498, 0.563200, 0.597317,
0.600030, 0.602678, 0.605263, 0.607787, 0.610252,
0.612660, 0.615015, 0.617318, 0.619574, 0.621784,
0.623952, 0.626081, 0.562010, 0.496700, 0.440218,
0.392933, 0.354185, 0.322914, 0.297948, 0.278194,
0.262699, 0.250668, 0.241445, 0.234495, 0.229387,
0.225767, 0.223344, 0.221878, 0.221164, 0.221032,
0.221331, 0.221933, 0.222720, 0.223593, 0.224465,
0.225260, 0.225915, 0.226379, 0.226615, 0.226595,
0.226309, 0.225754, 0.224939, 0.223883, 0.222614,
0.221164, 0.219570, 0.217874, 0.216118, 0.214342,
0.212585, 0.210884, 0.209272, 0.207781, 0.206435,
0.205258, 0.204269, 0.203483, 0.202919, 0.202577,
0.202471, 0.202603, 0.202985, 0.203616, 0.204500,
0.205638, 0.207032, 0.208682, 0.210591, 0.212759,
0.215187, 0.217877, 0.220831, 0.224051, 0.227540,
0.231301, 0.235338, 0.239654, 0.244255, 0.249145,
0.254330,
0.250000, 0.237235, 0.224205, 0.210760, 0.196902,
0.182571, 0.167719, 0.152208, 0.135934, 0.118690,
0.100188, 0.079998, 0.057506, 0.031778, 0.001572,
-0.034228, -0.075128, -0.117668, -0.157341, -0.191884,
-0.221181, -0.245956, -0.267043, -0.285170, -0.300922,
-0.314749, -0.327007, -0.337973, -0.347868, -0.356867,
-0.365113, -0.372720, -0.379784, -0.386384, -0.392584,
-0.397781, -0.373837, -0.351658, -0.331052, -0.311853,
-0.293908, -0.277069, -0.261232, -0.246285, -0.232132,
-0.218686, -0.205871, -0.193602, -0.181818, -0.170454,
-0.159451, -0.148751, -0.138299, -0.128039, -0.117919,
-0.107884, -0.097882, -0.087855, -0.077746, -0.067493,
-0.057029, -0.046285, -0.035180, -0.023630, -0.011536,
0.001210, 0.014731, 0.029169, 0.044685, 0.061465,
0.079721, 0.099708, 0.121708, 0.146044, 0.173081,
0.203221, 0.236883, 0.274468, 0.316313, 0.356780,
0.350553, 0.344320, 0.338086, 0.331854, 0.325629,
0.319414, 0.313214, 0.307032, 0.300873, 0.294740,
0.288637, 0.282568, 0.198761, 0.115424, 0.043985,
-0.015631, -0.064616, -0.104528, -0.136959, -0.163330,
-0.184839, -0.202456, -0.216957, -0.228948, -0.238897,
-0.247170, -0.254043, -0.259727, -0.264379, -0.268116,
-0.271023, -0.273160, -0.274577, -0.275307, -0.275377,
-0.274812, -0.273638, -0.271883, -0.269581, -0.266771,
-0.263498, -0.259814, -0.255777, -0.251445, -0.246883,
-0.242154, -0.237318, -0.232437, -0.227565, -0.222753,
-0.218046, -0.213483, -0.209097, -0.204915, -0.200960,
-0.197248, -0.193792, -0.190602, -0.187684, -0.185040,
-0.182671, -0.180578, -0.178762, -0.177219, -0.175948,
-0.174947, -0.174213, -0.173746, -0.173545, -0.173609,
-0.173939, -0.174535, -0.175400, -0.176536, -0.177947,
-0.179636, -0.181609, -0.183870, -0.186425, -0.189279,
-0.192436,

// im
-0.000000, 0.001346, 0.001397, 0.001456, 0.001523,
0.001596, 0.001679, 0.001775, 0.001881, 0.002002,
0.002138, 0.002293, 0.002466, 0.002660, 0.002866,
0.003070, 0.003237, 0.003338, 0.003372, 0.003357,
0.003315, 0.003260, 0.003200, 0.003139, 0.003081,
0.003026, 0.002975, 0.002929, 0.002888, 0.002851,
0.002820, 0.002793, 0.002771, 0.002754, 0.002741,
0.002731, 0.002689, 0.002650, 0.002614, 0.002582,
0.002553, 0.002526, 0.002502, 0.002481, 0.002463,
0.002446, 0.002432, 0.002420, 0.002410, 0.002403,
0.002397, 0.002393, 0.002391, 0.002391, 0.002392,
0.002396, 0.002401, 0.002408, 0.002416, 0.002427,
0.002439, 0.002452, 0.002468, 0.002485, 0.002505,
0.002526, 0.002548, 0.002573, 0.002600, 0.002628,
0.002659, 0.002691, 0.002726, 0.002762, 0.002801,
0.002842, 0.002886, 0.002931, 0.002979, 0.003027,
0.003049, 0.003080, 0.003117, 0.003163, 0.003217,
0.003278, 0.003349, 0.003429, 0.003518, 0.003618,
0.003729, 0.003852, 0.003946, 0.004038, 0.004134,
0.004234, 0.004337, 0.004443, 0.004553, 0.004666,
0.004782, 0.004901, 0.005023, 0.005148, 0.005275,
0.005405, 0.005537, 0.005670, 0.005804, 0.005939,
0.006074, 0.006208, 0.006342, 0.006473, 0.006602,
0.006728, 0.006850, 0.006967, 0.007078, 0.007184,
0.007281, 0.007371, 0.007452, 0.007525, 0.007587,
0.007640, 0.007682, 0.007714, 0.007734, 0.007744,
0.007743, 0.007731, 0.007710, 0.007678, 0.007637,
0.007587, 0.007529, 0.007464, 0.007391, 0.007313,
0.007229, 0.007141, 0.007049, 0.006954, 0.006856,
0.006756, 0.006654, 0.006552, 0.006450, 0.006347,
0.006246, 0.006145, 0.006045, 0.005947, 0.005850,
0.005756, 0.005664, 0.005574, 0.005486, 0.005401,
0.005319,
0.000000, 0.619094, 0.625520, 0.631632, 0.637416,
0.642849, 0.647906, 0.652547, 0.656720, 0.660345,
0.663296, 0.665368, 0.666215, 0.665219, 0.661284,
0.652661, 0.637436, 0.615274, 0.588404, 0.559661,
0.530941, 0.503180, 0.476761, 0.451791, 0.428230,
0.406005, 0.385016, 0.365158, 0.346327, 0.328425,
0.311361, 0.295058, 0.279442, 0.264447, 0.250013,
0.236268, 0.231127, 0.226305, 0.221778, 0.217522,
0.213516, 0.209746, 0.206190, 0.202834, 0.199663,
0.196664, 0.193824, 0.191135, 0.188583, 0.186160,
0.183855, 0.181659, 0.179565, 0.177563, 0.175646,
0.173805, 0.172032, 0.170320, 0.168660, 0.167043,
0.165462, 0.163907, 0.162367, 0.160834, 0.159296,
0.157740, 0.156155, 0.154526, 0.152838, 0.151073,
0.149215, 0.147241, 0.145132, 0.142866, 0.140423,
0.137785, 0.134940, 0.131889, 0.128654, 0.126141,
0.130639, 0.134954, 0.139085, 0.143032, 0.146795,
0.150372, 0.153762, 0.156964, 0.159974, 0.162789,
0.165405, 0.167816, 0.174495, 0.179783, 0.183134,
0.184744, 0.184842, 0.183634, 0.181285, 0.177911,
0.173588, 0.168362, 0.162250, 0.155250, 0.147360,
0.138561, 0.128834, 0.118167, 0.106553, 0.093999,
0.080524, 0.066166, 0.050987, 0.035065, 0.018502,
0.001423, -0.016031, -0.033700, -0.051415, -0.069003,
-0.086284, -0.103090, -0.119266, -0.134669, -0.149182,
-0.162708, -0.175184, -0.186550, -0.196788, -0.205899,
-0.213900, -0.220826, -0.226723, -0.231647, -0.235661,
-0.238832, -0.241230, -0.242921, -0.243966, -0.244445,
-0.244411, -0.243928, -0.243034, -0.241785, -0.240223,
-0.238391, -0.236323, -0.234051, -0.231604, -0.229006,
-0.226281, -0.223448, -0.220526, -0.217530, -0.214474,
-0.211371, -0.208234, -0.205073, -0.201899, -0.198721,
-0.195551,
0.000000, -0.001346, -0.001397, -0.001456, -0.001523,
-0.001596, -0.001679, -0.001775, -0.001881, -0.002002,
-0.002138, -0.002293, -0.002466, -0.002660, -0.002866,
-0.003070, -0.003237, -0.003338, -0.003372, -0.003357,
-0.003315, -0.003260, -0.003200, -0.003139, -0.003081,
-0.003026, -0.002975, -0.002929, -0.002888, -0.002851,
-0.002820, -0.002793, -0.002771, -0.002754, -0.002741,
-0.002731, -0.002689, -0.002650, -0.002614, -0.002582,
-0.002553, -0.002526, -0.002502, -0.002481, -0.002463,
-0.002446, -0.002432, -0.002420, -0.002410, -0.002403,
-0.002397, -0.002393, -0.002391, -0.002391, -0.002392,
-0.002396, -0.002401, -0.002408, -0.002416, -0.002427,
-0.002439, -0.002452, -0.002468, -0.002485, -0.002505,
-0.002526, -0.002548, -0.002573, -0.002600, -0.002628,
-0.002659, -0.002691, -0.002726, -0.002762, -0.002801,
-0.002842, -0.002886, -0.002931, -0.002979, -0.003027,
-0.003049, -0.003080, -0.003117, -0.003163, -0.003217,
-0.003278, -0.003349, -0.003429, -0.003518, -0.003618,
-0.003729, -0.003852, -0.003946, -0.004038, -0.004134,
-0.004234, -0.004337, -0.004443, -0.004553, -0.004666,
-0.004782, -0.004901, -0.005023, -0.005148, -0.005275,
-0.005405, -0.005537, -0.005670, -0.005804, -0.005939,
-0.006074, -0.006208, -0.006342, -0.006473, -0.006602,
-0.006728, -0.006850, -0.006967, -0.007078, -0.007184,
-0.007281, -0.007371, -0.007452, -0.007525, -0.007587,
-0.007640, -0.007682, -0.007714, -0.007734, -0.007744,
-0.007743, -0.007731, -0.007710, -0.007678, -0.007637,
-0.007587, -0.007529, -0.007464, -0.007391, -0.007313,
-0.007229, -0.007141, -0.007049, -0.006954, -0.006856,
-0.006756, -0.006654, -0.006552, -0.006450, -0.006347,
-0.006246, -0.006145, -0.006045, -0.005947, -0.005850,
-0.005756, -0.005664, -0.005574, -0.005486, -0.005401,
-0.005319,
0.000000, -0.619094, -0.625520, -0.631632, -0.637416,
-0.642849, -0.647906, -0.652547, -0.656720, -0.660345,
-0.663296, -0.665368, -0.666215, -0.665219, -0.661284,
-0.652661, -0.637436, -0.615274, -0.588404, -0.559661,
-0.530941, -0.503180, -0.476761, -0.451791, -0.428230,
-0.406005, -0.385016, -0.365158, -0.346327, -0.328425,
-0.311361, -0.295058, -0.279442, -0.264447, -0.250013,
-0.236268, -0.231127, -0.226305, -0.221778, -0.217522,
-0.213516, -0.209746, -0.206190, -0.202834, -0.199663,
-0.196664, -0.193824, -0.191135, -0.188583, -0.186160,
-0.183855, -0.181659, -0.179565, -0.177563, -0.175646,
-0.173805, -0.172032, -0.170320, -0.168660, -0.167043,
-0.165462, -0.163907, -0.162367, -0.160834, -0.159296,
-0.157740, -0.156155, -0.154526, -0.152838, -0.151073,
-0.149215, -0.147241, -0.145132, -0.142866, -0.140423,
-0.137785, -0.134940, -0.131889, -0.128654, -0.126141,
-0.130639, -0.134954, -0.139085, -0.143032, -0.146795,
-0.150372, -0.153762, -0.156964, -0.159974, -0.162789,
-0.165405, -0.167816, -0.174495, -0.179783, -0.183134,
-0.184744, -0.184842, -0.183634, -0.181285, -0.177911,
-0.173588, -0.168362, -0.162250, -0.155250, -0.147360,
-0.138561, -0.128834, -0.118167, -0.106553, -0.093999,
-0.080524, -0.066166, -0.050987, -0.035065, -0.018502,
-0.001423, 0.016031, 0.033700, 0.051415, 0.069003,
0.086284, 0.103090, 0.119266, 0.134669, 0.149182,
0.162708, 0.175184, 0.186550, 0.196788, 0.205899,
0.213900, 0.220826, 0.226723, 0.231647, 0.235661,
0.238832, 0.241230, 0.242921, 0.243966, 0.244445,
0.244411, 0.243928, 0.243034, 0.241785, 0.240223,
0.238391, 0.236323, 0.234051, 0.231604, 0.229006,
0.226281, 0.223448, 0.220526, 0.217530, 0.214474,
0.211371, 0.208234, 0.205073, 0.201899, 0.198721,
0.195551,

// W_225_161_0db.mat
// re
0.250000, 0.241549, 0.233003, 0.224375, 0.215665,
0.206878, 0.198019, 0.189092, 0.180102, 0.171057,
0.161965, 0.152836, 0.143687, 0.134544, 0.125455,
0.116530, 0.108092, 0.101722, 0.123873, 0.120809,
0.118274, 0.116204, 0.114518, 0.113163, 0.112104,
0.111269, 0.110652, 0.110226, 0.109971, 0.109871,
0.109914, 0.110089, 0.110388, 0.110803, 0.111330,
0.111966, 0.112706, 0.113549, 0.114494, 0.115540,
0.116689, 0.117941, 0.119301, 0.120765, 0.122340,
0.124029, 0.125837, 0.127768, 0.129828, 0.132024,
0.134362, 0.136851, 0.139499, 0.142316, 0.145312,
0.148499, 0.151889, 0.155496, 0.159335, 0.163421,
0.167770, 0.172400, 0.177328, 0.182570, 0.188142,
0.194056, 0.200319, 0.206927, 0.213860, 0.221081,
0.228506, 0.235994, 0.243309, 0.250070, 0.255662,
0.259112, 0.258867, 0.252545, 0.236478, 0.205301,
0.151796, 0.067852, -0.051915, -0.203219, -0.365802,
-0.448481, -0.452676, -0.456686, -0.460512, -0.464152,
-0.467607, -0.470876, -0.473959, -0.467507, -0.432791,
-0.401683, -0.374011, -0.349470, -0.327714, -0.308417,
-0.291268, -0.276002, -0.262386, -0.250221, -0.239341,
-0.229593, -0.220856, -0.213027, -0.206016, -0.199747,
-0.194154, -0.189182, -0.184782, -0.180914, -0.177543,
-0.174636, -0.172170, -0.170120, -0.168466, -0.167192,
-0.166283, -0.165723, -0.165502, -0.165606, -0.166024,
-0.166746, -0.167760, -0.169055, -0.170618, -0.172435,
-0.174493, -0.176776, -0.179267, -0.181948, -0.184797,
-0.187795, -0.190918, -0.194141, -0.197441, -0.200789,
-0.204161, -0.207533, -0.210873, -0.214155, -0.217361,
-0.220465, -0.223446, -0.226285, -0.228965, -0.231473,
-0.233797, -0.235926, -0.237855, -0.239580, -0.241100,
-0.242415, -0.243527, -0.244442, -0.245163, -0.245700,
-0.246058,
0.250000, 0.241532, 0.232975, 0.224326, 0.215589,
0.206765, 0.197858, 0.188869, 0.179801, 0.170652,
0.161421, 0.152104, 0.142693, 0.133168, 0.123488,
0.113551, 0.103043, 0.090403, 0.052496, 0.056566,
0.060173, 0.063386, 0.066282, 0.068917, 0.071328,
0.073594, 0.075720, 0.077737, 0.079667, 0.081529,
0.083340, 0.085114, 0.086863, 0.088599, 0.090332,
0.092071, 0.093823, 0.095597, 0.097400, 0.099240,
0.101122, 0.103055, 0.105047, 0.107100, 0.109223,
0.111424, 0.113710, 0.116089, 0.118569, 0.121158,
0.123867, 0.126704, 0.129680, 0.132806, 0.136094,
0.139557, 0.143208, 0.147062, 0.151134, 0.155442,
0.160001, 0.164830, 0.169946, 0.175366, 0.181108,
0.187182, 0.193597, 0.200348, 0.207416, 0.214763,
0.222306, 0.229903, 0.237316, 0.244164, 0.249831,
0.253339, 0.253133, 0.246825, 0.230740, 0.199506,
0.145896, 0.061796, -0.058168, -0.209675, -0.372409,
-0.455012, -0.458975, -0.462777, -0.466418, -0.469893,
-0.473200, -0.476338, -0.479305, -0.472739, -0.437888,
-0.406661, -0.378883, -0.354246, -0.332404, -0.313028,
-0.295808, -0.280475, -0.266797, -0.254574, -0.243642,
-0.233843, -0.225059, -0.217186, -0.210133, -0.203824,
-0.198194, -0.193186, -0.188753, -0.184853, -0.181450,
-0.178515, -0.176021, -0.173946, -0.172269, -0.170973,
-0.170042, -0.169464, -0.169226, -0.169315, -0.169721,
-0.170432, -0.171438, -0.172728, -0.174288, -0.176107,
-0.178170, -0.180461, -0.182965, -0.185663, -0.188535,
-0.191560, -0.194716, -0.197979, -0.201324, -0.204725,
-0.208158, -0.211597, -0.215013, -0.218380, -0.221678,
-0.224884, -0.227976, -0.230935, -0.233744, -0.236390,
-0.238863, -0.241149, -0.243245, -0.245147, -0.246852,
-0.248362, -0.249677, -0.250802, -0.251743, -0.252504,
-0.253092,
0.250000, 0.241549, 0.233003, 0.224375, 0.215665,
0.206878, 0.198019, 0.189092, 0.180102, 0.171057,
0.161965, 0.152836, 0.143687, 0.134544, 0.125455,
0.116530, 0.108092, 0.101722, 0.123873, 0.120809,
0.118274, 0.116204, 0.114518, 0.113163, 0.112104,
0.111269, 0.110652, 0.110226, 0.109971, 0.109871,
0.109914, 0.110089, 0.110388, 0.110803, 0.111330,
0.111966, 0.112706, 0.113549, 0.114494, 0.115540,
0.116689, 0.117941, 0.119301, 0.120765, 0.122340,
0.124029, 0.125837, 0.127768, 0.129828, 0.132024,
0.134362, 0.136851, 0.139499, 0.142316, 0.145312,
0.148499, 0.151889, 0.155496, 0.159335, 0.163421,
0.167770, 0.172400, 0.177328, 0.182570, 0.188142,
0.194056, 0.200319, 0.206927, 0.213860, 0.221081,
0.228506, 0.235994, 0.243309, 0.250070, 0.255662,
0.259112, 0.258867, 0.252545, 0.236478, 0.205301,
0.151796, 0.067852, -0.051915, -0.203219, -0.365802,
-0.448481, -0.452676, -0.456686, -0.460512, -0.464152,
-0.467607, -0.470876, -0.473959, -0.467507, -0.432791,
-0.401683, -0.374011, -0.349470, -0.327714, -0.308417,
-0.291268, -0.276002, -0.262386, -0.250221, -0.239341,
-0.229593, -0.220856, -0.213027, -0.206016, -0.199747,
-0.194154, -0.189182, -0.184782, -0.180914, -0.177543,
-0.174636, -0.172170, -0.170120, -0.168466, -0.167192,
-0.166283, -0.165723, -0.165502, -0.165606, -0.166024,
-0.166746, -0.167760, -0.169055, -0.170618, -0.172435,
-0.174493, -0.176776, -0.179267, -0.181948, -0.184797,
-0.187795, -0.190918, -0.194141, -0.197441, -0.200789,
-0.204161, -0.207533, -0.210873, -0.214155, -0.217361,
-0.220465, -0.223446, -0.226285, -0.228965, -0.231473,
-0.233797, -0.235926, -0.237855, -0.239580, -0.241100,
-0.242415, -0.243527, -0.244442, -0.245163, -0.245700,
-0.246058,
0.250000, 0.241532, 0.232975, 0.224326, 0.215589,
0.206765, 0.197858, 0.188869, 0.179801, 0.170652,
0.161421, 0.152104, 0.142693, 0.133168, 0.123488,
0.113551, 0.103043, 0.090403, 0.052496, 0.056566,
0.060173, 0.063386, 0.066282, 0.068917, 0.071328,
0.073594, 0.075720, 0.077737, 0.079667, 0.081529,
0.083340, 0.085114, 0.086863, 0.088599, 0.090332,
0.092071, 0.093823, 0.095597, 0.097400, 0.099240,
0.101122, 0.103055, 0.105047, 0.107100, 0.109223,
0.111424, 0.113710, 0.116089, 0.118569, 0.121158,
0.123867, 0.126704, 0.129680, 0.132806, 0.136094,
0.139557, 0.143208, 0.147062, 0.151134, 0.155442,
0.160001, 0.164830, 0.169946, 0.175366, 0.181108,
0.187182, 0.193597, 0.200348, 0.207416, 0.214763,
0.222306, 0.229903, 0.237316, 0.244164, 0.249831,
0.253339, 0.253133, 0.246825, 0.230740, 0.199506,
0.145896, 0.061796, -0.058168, -0.209675, -0.372409,
-0.455012, -0.458975, -0.462777, -0.466418, -0.469893,
-0.473200, -0.476338, -0.479305, -0.472739, -0.437888,
-0.406661, -0.378883, -0.354246, -0.332404, -0.313028,
-0.295808, -0.280475, -0.266797, -0.254574, -0.243642,
-0.233843, -0.225059, -0.217186, -0.210133, -0.203824,
-0.198194, -0.193186, -0.188753, -0.184853, -0.181450,
-0.178515, -0.176021, -0.173946, -0.172269, -0.170973,
-0.170042, -0.169464, -0.169226, -0.169315, -0.169721,
-0.170432, -0.171438, -0.172728, -0.174288, -0.176107,
-0.178170, -0.180461, -0.182965, -0.185663, -0.188535,
-0.191560, -0.194716, -0.197979, -0.201324, -0.204725,
-0.208158, -0.211597, -0.215013, -0.218380, -0.221678,
-0.224884, -0.227976, -0.230935, -0.233744, -0.236390,
-0.238863, -0.241149, -0.243245, -0.245147, -0.246852,
-0.248362, -0.249677, -0.250802, -0.251743, -0.252504,
-0.253092,

// im
-0.000000, -0.436006, -0.440600, -0.445026, -0.449281,
-0.453364, -0.457271, -0.461001, -0.464553, -0.467923,
-0.471112, -0.474115, -0.476932, -0.479559, -0.481994,
-0.484232, -0.486266, -0.488071, -0.485138, -0.461059,
-0.439471, -0.420014, -0.402405, -0.386404, -0.371813,
-0.358458, -0.346203, -0.334925, -0.324523, -0.314906,
-0.305999, -0.297733, -0.290052, -0.282902, -0.276241,
-0.270026, -0.264224, -0.258804, -0.253736, -0.248997,
-0.244564, -0.240418, -0.236538, -0.232914, -0.229528,
-0.226368, -0.223423, -0.220682, -0.218138, -0.215781,
-0.213605, -0.211604, -0.209774, -0.208111, -0.206611,
-0.205272, -0.204093, -0.203075, -0.202218, -0.201523,
-0.200995, -0.200638, -0.200459, -0.200464, -0.200666,
-0.201075, -0.201708, -0.202583, -0.203724, -0.205156,
-0.206912, -0.209029, -0.211551, -0.214525, -0.218001,
-0.222021, -0.226607, -0.231724, -0.237224, -0.242735,
-0.247501, -0.250198, -0.248930, -0.241777, -0.228115,
-0.214610, -0.205800, -0.196916, -0.187962, -0.178941,
-0.169858, -0.160715, -0.151518, -0.144518, -0.145193,
-0.146318, -0.147733, -0.149335, -0.151057, -0.152854,
-0.154700, -0.156574, -0.158464, -0.160362, -0.162258,
-0.164153, -0.166040, -0.167915, -0.169773, -0.171611,
-0.173422, -0.175202, -0.176943, -0.178638, -0.180279,
-0.181856, -0.183359, -0.184775, -0.186093, -0.187298,
-0.188375, -0.189309, -0.190081, -0.190675, -0.191072,
-0.191252, -0.191195, -0.190883, -0.190295, -0.189413,
-0.188217, -0.186693, -0.184822, -0.182594, -0.179996,
-0.177021, -0.173664, -0.169924, -0.165803, -0.161309,
-0.156450, -0.151237, -0.145697, -0.139857, -0.133725,
-0.127336, -0.120721, -0.113910, -0.106937, -0.099834,
-0.092625, -0.085361, -0.078062, -0.070758, -0.063475,
-0.056239, -0.049072, -0.041991, -0.035014, -0.028154,
-0.021421,
0.000000, 0.439562, 0.444188, 0.448649, 0.452942,
0.457068, 0.461025, 0.464813, 0.468429, 0.471874,
0.475147, 0.478247, 0.481174, 0.483929, 0.486512,
0.488924, 0.491165, 0.493221, 0.490530, 0.466170,
0.444328, 0.424643, 0.406826, 0.390635, 0.375870,
0.362356, 0.349952, 0.338537, 0.328007, 0.318272,
0.309254, 0.300884, 0.293105, 0.285864, 0.279115,
0.272819, 0.266939, 0.261445, 0.256307, 0.251501,
0.247004, 0.242797, 0.238858, 0.235177, 0.231737,
0.228524, 0.225528, 0.222739, 0.220146, 0.217743,
0.215521, 0.213477, 0.211603, 0.209897, 0.208355,
0.206974, 0.205755, 0.204696, 0.203798, 0.203063,
0.202495, 0.202097, 0.201876, 0.201840, 0.202000,
0.202366, 0.202955, 0.203785, 0.204879, 0.206263,
0.207968, 0.210032, 0.212497, 0.215410, 0.218819,
0.222765, 0.227268, 0.232291, 0.237681, 0.243062,
0.247674, 0.250193, 0.248726, 0.241370, 0.227529,
0.213941, 0.205117, 0.196211, 0.187227, 0.178168,
0.169037, 0.159837, 0.150572, 0.143495, 0.144092,
0.145124, 0.146436, 0.147923, 0.149520, 0.151181,
0.152880, 0.154599, 0.156323, 0.158045, 0.159755,
0.161455, 0.163137, 0.164797, 0.166431, 0.168036,
0.169605, 0.171135, 0.172617, 0.174047, 0.175415,
0.176714, 0.177933, 0.179062, 0.180089, 0.181002,
0.181787, 0.182429, 0.182913, 0.183223, 0.183341,
0.183249, 0.182931, 0.182366, 0.181538, 0.180429,
0.179021, 0.177299, 0.175248, 0.172856, 0.170113,
0.167010, 0.163544, 0.159713, 0.155520, 0.150972,
0.146077, 0.140846, 0.135304, 0.129475, 0.123370,
0.117023, 0.110461, 0.103716, 0.096818, 0.089800,
0.082688, 0.075523, 0.068330, 0.061137, 0.053970,
0.046851, 0.039803, 0.032843, 0.025987, 0.019248,
0.012636,
0.000000, 0.436006, 0.440600, 0.445026, 0.449281,
0.453364, 0.457271, 0.461001, 0.464553, 0.467923,
0.471112, 0.474115, 0.476932, 0.479559, 0.481994,
0.484232, 0.486266, 0.488071, 0.485138, 0.461059,
0.439471, 0.420014, 0.402405, 0.386404, 0.371813,
0.358458, 0.346203, 0.334925, 0.324523, 0.314906,
0.305999, 0.297733, 0.290052, 0.282902, 0.276241,
0.270026, 0.264224, 0.258804, 0.253736, 0.248997,
0.244564, 0.240418, 0.236538, 0.232914, 0.229528,
0.226368, 0.223423, 0.220682, 0.218138, 0.215781,
0.213605, 0.211604, 0.209774, 0.208111, 0.206611,
0.205272, 0.204093, 0.203075, 0.202218, 0.201523,
0.200995, 0.200638, 0.200459, 0.200464, 0.200666,
0.201075, 0.201708, 0.202583, 0.203724, 0.205156,
0.206912, 0.209029, 0.211551, 0.214525, 0.218001,
0.222021, 0.226607, 0.231724, 0.237224, 0.242735,
0.247501, 0.250198, 0.248930, 0.241777, 0.228115,
0.214610, 0.205800, 0.196916, 0.187962, 0.178941,
0.169858, 0.160715, 0.151518, 0.144518, 0.145193,
0.146318, 0.147733, 0.149335, 0.151057, 0.152854,
0.154700, 0.156574, 0.158464, 0.160362, 0.162258,
0.164153, 0.166040, 0.167915, 0.169773, 0.171611,
0.173422, 0.175202, 0.176943, 0.178638, 0.180279,
0.181856, 0.183359, 0.184775, 0.186093, 0.187298,
0.188375, 0.189309, 0.190081, 0.190675, 0.191072,
0.191252, 0.191195, 0.190883, 0.190295, 0.189413,
0.188217, 0.186693, 0.184822, 0.182594, 0.179996,
0.177021, 0.173664, 0.169924, 0.165803, 0.161309,
0.156450, 0.151237, 0.145697, 0.139857, 0.133725,
0.127336, 0.120721, 0.113910, 0.106937, 0.099834,
0.092625, 0.085361, 0.078062, 0.070758, 0.063475,
0.056239, 0.049072, 0.041991, 0.035014, 0.028154,
0.021421,
0.000000, -0.439562, -0.444188, -0.448649, -0.452942,
-0.457068, -0.461025, -0.464813, -0.468429, -0.471874,
-0.475147, -0.478247, -0.481174, -0.483929, -0.486512,
-0.488924, -0.491165, -0.493221, -0.490530, -0.466170,
-0.444328, -0.424643, -0.406826, -0.390635, -0.375870,
-0.362356, -0.349952, -0.338537, -0.328007, -0.318272,
-0.309254, -0.300884, -0.293105, -0.285864, -0.279115,
-0.272819, -0.266939, -0.261445, -0.256307, -0.251501,
-0.247004, -0.242797, -0.238858, -0.235177, -0.231737,
-0.228524, -0.225528, -0.222739, -0.220146, -0.217743,
-0.215521, -0.213477, -0.211603, -0.209897, -0.208355,
-0.206974, -0.205755, -0.204696, -0.203798, -0.203063,
-0.202495, -0.202097, -0.201876, -0.201840, -0.202000,
-0.202366, -0.202955, -0.203785, -0.204879, -0.206263,
-0.207968, -0.210032, -0.212497, -0.215410, -0.218819,
-0.222765, -0.227268, -0.232291, -0.237681, -0.243062,
-0.247674, -0.250193, -0.248726, -0.241370, -0.227529,
-0.213941, -0.205117, -0.196211, -0.187227, -0.178168,
-0.169037, -0.159837, -0.150572, -0.143495, -0.144092,
-0.145124, -0.146436, -0.147923, -0.149520, -0.151181,
-0.152880, -0.154599, -0.156323, -0.158045, -0.159755,
-0.161455, -0.163137, -0.164797, -0.166431, -0.168036,
-0.169605, -0.171135, -0.172617, -0.174047, -0.175415,
-0.176714, -0.177933, -0.179062, -0.180089, -0.181002,
-0.181787, -0.182429, -0.182913, -0.183223, -0.183341,
-0.183249, -0.182931, -0.182366, -0.181538, -0.180429,
-0.179021, -0.177299, -0.175248, -0.172856, -0.170113,
-0.167010, -0.163544, -0.159713, -0.155520, -0.150972,
-0.146077, -0.140846, -0.135304, -0.129475, -0.123370,
-0.117023, -0.110461, -0.103716, -0.096818, -0.089800,
-0.082688, -0.075523, -0.068330, -0.061137, -0.053970,
-0.046851, -0.039803, -0.032843, -0.025987, -0.019248,
-0.012636,

// W_270_161_0db.mat
// re
0.250000, 0.237197, 0.224135, 0.210656, 0.196763,
0.182398, 0.167515, 0.151973, 0.135674, 0.118409,
0.099896, 0.079713, 0.057256, 0.031611, 0.001564,
-0.033995, -0.074643, -0.117052, -0.156746, -0.191391,
-0.220805, -0.245685, -0.266858, -0.285052, -0.300853,
-0.314715, -0.326994, -0.337971, -0.347867, -0.356858,
-0.365087, -0.372670, -0.379703, -0.386265, -0.392421,
-0.397566, -0.373616, -0.351430, -0.330819, -0.311612,
-0.293660, -0.276813, -0.260968, -0.246013, -0.231851,
-0.218395, -0.205570, -0.193291, -0.181495, -0.170120,
-0.159104, -0.148391, -0.137924, -0.127650, -0.117514,
-0.107463, -0.097442, -0.087396, -0.077267, -0.066992,
-0.056506, -0.045737, -0.034607, -0.023029, -0.010907,
0.001869, 0.015422, 0.029893, 0.045443, 0.062258,
0.080549, 0.100571, 0.122603, 0.146969, 0.174031,
0.204188, 0.237856, 0.275433, 0.317250, 0.356062,
0.349906, 0.343736, 0.337557, 0.331375, 0.325194,
0.319020, 0.312856, 0.306707, 0.300578, 0.294472,
0.288393, 0.282347, 0.202875, 0.119146, 0.047223,
-0.012891, -0.062347, -0.102680, -0.135473, -0.162150,
-0.183913, -0.201738, -0.216407, -0.228535, -0.238592,
-0.246950, -0.253889, -0.259623, -0.264311, -0.268074,
-0.270999, -0.273148, -0.274572, -0.275306, -0.275377,
-0.274812, -0.273637, -0.271881, -0.269578, -0.266767,
-0.263493, -0.259808, -0.255768, -0.251433, -0.246866,
-0.242130, -0.237286, -0.232394, -0.227508, -0.222680,
-0.217955, -0.213371, -0.208962, -0.204755, -0.200773,
-0.197033, -0.193549, -0.190329, -0.187379, -0.184705,
-0.182306, -0.180182, -0.178334, -0.176761, -0.175459,
-0.174427, -0.173664, -0.173167, -0.172937, -0.172972,
-0.173273, -0.173841, -0.174679, -0.175788, -0.177171,
-0.178834, -0.180780, -0.183015, -0.185544, -0.188371,
-0.191503,
0.250000, 0.245884, 0.241845, 0.238052, 0.234508,
0.231281, 0.228427, 0.226096, 0.224400, 0.223565,
0.223897, 0.225862, 0.230142, 0.237807, 0.250398,
0.269654, 0.296110, 0.327209, 0.358348, 0.386459,
0.410633, 0.431075, 0.448302, 0.462852, 0.475198,
0.485714, 0.494701, 0.502400, 0.509007, 0.514679,
0.519544, 0.523705, 0.527248, 0.530243, 0.532750,
0.534289, 0.512750, 0.493112, 0.475193, 0.458833,
0.443890, 0.430230, 0.417760, 0.406380, 0.396010,
0.386577, 0.378022, 0.370286, 0.363324, 0.357098,
0.351574, 0.346725, 0.342528, 0.338966, 0.336028,
0.333708, 0.332005, 0.330922, 0.330471, 0.330668,
0.331534, 0.333100, 0.335406, 0.338497, 0.342433,
0.347285, 0.353136, 0.360090, 0.368266, 0.377809,
0.388889, 0.401711, 0.416512, 0.433568, 0.453198,
0.475765, 0.501660, 0.531286, 0.565018, 0.598028,
0.600685, 0.603282, 0.605822, 0.608306, 0.610736,
0.613113, 0.615440, 0.617719, 0.619953, 0.622144,
0.624295, 0.626410, 0.565952, 0.500286, 0.443374,
0.395649, 0.356484, 0.324839, 0.299546, 0.279512,
0.263780, 0.251550, 0.242159, 0.235069, 0.229843,
0.226124, 0.223619, 0.222084, 0.221314, 0.221135,
0.221397, 0.221972, 0.222739, 0.223599, 0.224465,
0.225261, 0.225923, 0.226401, 0.226654, 0.226656,
0.226396, 0.225869, 0.225085, 0.224060, 0.222821,
0.221402, 0.219835, 0.218166, 0.216433, 0.214677,
0.212937, 0.211250, 0.209649, 0.208165, 0.206824,
0.205650, 0.204661, 0.203875, 0.203303, 0.202962,
0.202851, 0.202978, 0.203354, 0.203980, 0.204860,
0.205993, 0.207383, 0.209031, 0.210939, 0.213106,
0.215535, 0.218228, 0.221185, 0.224411, 0.227906,
0.231675, 0.235721, 0.240049, 0.244662, 0.249565,
0.254765,
0.250000, 0.237197, 0.224135, 0.210656, 0.196763,
0.182398, 0.167515, 0.151973, 0.135674, 0.118409,
0.099896, 0.079713, 0.057256, 0.031611, 0.001564,
-0.033995, -0.074643, -0.117052, -0.156746, -0.191391,
-0.220805, -0.245685, -0.266858, -0.285052, -0.300853,
-0.314715, -0.326994, -0.337971, -0.347867, -0.356858,
-0.365087, -0.372670, -0.379703, -0.386265, -0.392421,
-0.397566, -0.373616, -0.351430, -0.330819, -0.311612,
-0.293660, -0.276813, -0.260968, -0.246013, -0.231851,
-0.218395, -0.205570, -0.193291, -0.181495, -0.170120,
-0.159104, -0.148391, -0.137924, -0.127650, -0.117514,
-0.107463, -0.097442, -0.087396, -0.077267, -0.066992,
-0.056506, -0.045737, -0.034607, -0.023029, -0.010907,
0.001869, 0.015422, 0.029893, 0.045443, 0.062258,
0.080549, 0.100571, 0.122603, 0.146969, 0.174031,
0.204188, 0.237856, 0.275433, 0.317250, 0.356062,
0.349906, 0.343736, 0.337557, 0.331375, 0.325194,
0.319020, 0.312856, 0.306707, 0.300578, 0.294472,
0.288393, 0.282347, 0.202875, 0.119146, 0.047223,
-0.012891, -0.062347, -0.102680, -0.135473, -0.162150,
-0.183913, -0.201738, -0.216407, -0.228535, -0.238592,
-0.246950, -0.253889, -0.259623, -0.264311, -0.268074,
-0.270999, -0.273148, -0.274572, -0.275306, -0.275377,
-0.274812, -0.273637, -0.271881, -0.269578, -0.266767,
-0.263493, -0.259808, -0.255768, -0.251433, -0.246866,
-0.242130, -0.237286, -0.232394, -0.227508, -0.222680,
-0.217955, -0.213371, -0.208962, -0.204755, -0.200773,
-0.197033, -0.193549, -0.190329, -0.187379, -0.184705,
-0.182306, -0.180182, -0.178334, -0.176761, -0.175459,
-0.174427, -0.173664, -0.173167, -0.172937, -0.172972,
-0.173273, -0.173841, -0.174679, -0.175788, -0.177171,
-0.178834, -0.180780, -0.183015, -0.185544, -0.188371,
-0.191503,
0.250000, 0.245884, 0.241845, 0.238052, 0.234508,
0.231281, 0.228427, 0.226096, 0.224400, 0.223565,
0.223897, 0.225862, 0.230142, 0.237807, 0.250398,
0.269654, 0.296110, 0.327209, 0.358348, 0.386459,
0.410633, 0.431075, 0.448302, 0.462852, 0.475198,
0.485714, 0.494701, 0.502400, 0.509007, 0.514679,
0.519544, 0.523705, 0.527248, 0.530243, 0.532750,
0.534289, 0.512750, 0.493112, 0.475193, 0.458833,
0.443890, 0.430230, 0.417760, 0.406380, 0.396010,
0.386577, 0.378022, 0.370286, 0.363324, 0.357098,
0.351574, 0.346725, 0.342528, 0.338966, 0.336028,
0.333708, 0.332005, 0.330922, 0.330471, 0.330668,
0.331534, 0.333100, 0.335406, 0.338497, 0.342433,
0.347285, 0.353136, 0.360090, 0.368266, 0.377809,
0.388889, 0.401711, 0.416512, 0.433568, 0.453198,
0.475765, 0.501660, 0.531286, 0.565018, 0.598028,
0.600685, 0.603282, 0.605822, 0.608306, 0.610736,
0.613113, 0.615440, 0.617719, 0.619953, 0.622144,
0.624295, 0.626410, 0.565952, 0.500286, 0.443374,
0.395649, 0.356484, 0.324839, 0.299546, 0.279512,
0.263780, 0.251550, 0.242159, 0.235069, 0.229843,
0.226124, 0.223619, 0.222084, 0.221314, 0.221135,
0.221397, 0.221972, 0.222739, 0.223599, 0.224465,
0.225261, 0.225923, 0.226401, 0.226654, 0.226656,
0.226396, 0.225869, 0.225085, 0.224060, 0.222821,
0.221402, 0.219835, 0.218166, 0.216433, 0.214677,
0.212937, 0.211250, 0.209649, 0.208165, 0.206824,
0.205650, 0.204661, 0.203875, 0.203303, 0.202962,
0.202851, 0.202978, 0.203354, 0.203980, 0.204860,
0.205993, 0.207383, 0.209031, 0.210939, 0.213106,
0.215535, 0.218228, 0.221185, 0.224411, 0.227906,
0.231675, 0.235721, 0.240049, 0.244662, 0.249565,
0.254765,

// im
-0.000000, -0.619088, -0.625511, -0.631621, -0.637401,
-0.642829, -0.647880, -0.652513, -0.656677, -0.660291,
-0.663232, -0.665294, -0.666137, -0.665154, -0.661270,
-0.652770, -0.637749, -0.615800, -0.589063, -0.560355,
-0.531608, -0.503782, -0.477280, -0.452216, -0.428557,
-0.406232, -0.385142, -0.365184, -0.346254, -0.328253,
-0.311092, -0.294691, -0.278979, -0.263887, -0.249357,
-0.235517, -0.230382, -0.225565, -0.221043, -0.216789,
-0.212785, -0.209017, -0.205461, -0.202104, -0.198931,
-0.195930, -0.193086, -0.190392, -0.187835, -0.185405,
-0.183093, -0.180890, -0.178786, -0.176774, -0.174846,
-0.172992, -0.171206, -0.169480, -0.167804, -0.166170,
-0.164570, -0.162994, -0.161433, -0.159877, -0.158313,
-0.156731, -0.155117, -0.153457, -0.151735, -0.149935,
-0.148039, -0.146025, -0.143873, -0.141562, -0.139071,
-0.136383, -0.133486, -0.130383, -0.127096, -0.124789,
-0.129362, -0.133743, -0.137935, -0.141936, -0.145746,
-0.149366, -0.152794, -0.156029, -0.159068, -0.161907,
-0.164543, -0.166970, -0.173490, -0.178908, -0.182361,
-0.184045, -0.184194, -0.183018, -0.180686, -0.177320,
-0.172999, -0.167772, -0.161660, -0.154662, -0.146780,
-0.137994, -0.128288, -0.117651, -0.106078, -0.093573,
-0.080160, -0.065872, -0.050772, -0.034938, -0.018470,
-0.001489, 0.015865, 0.033435, 0.051055, 0.068553,
0.085754, 0.102491, 0.118609, 0.133970, 0.148453,
0.161964, 0.174438, 0.185814, 0.196074, 0.205215,
0.213255, 0.220226, 0.226171, 0.231147, 0.235215,
0.238439, 0.240889, 0.242631, 0.243731, 0.244248,
0.244254, 0.243808, 0.242947, 0.241727, 0.240190,
0.238379, 0.236327, 0.234066, 0.231627, 0.229033,
0.226308, 0.223472, 0.220542, 0.217536, 0.214466,
0.211346, 0.208189, 0.205005, 0.201805, 0.198599,
0.195398,
0.000000, 0.003051, 0.003104, 0.003166, 0.003235,
0.003312, 0.003400, 0.003500, 0.003611, 0.003736,
0.003874, 0.004028, 0.004197, 0.004376, 0.004555,
0.004709, 0.004797, 0.004789, 0.004694, 0.004544,
0.004365, 0.004177, 0.003989, 0.003805, 0.003627,
0.003458, 0.003296, 0.003142, 0.002996, 0.002857,
0.002724, 0.002598, 0.002478, 0.002362, 0.002252,
0.002148, 0.002119, 0.002093, 0.002069, 0.002049,
0.002030, 0.002014, 0.002001, 0.001989, 0.001980,
0.001973, 0.001967, 0.001964, 0.001962, 0.001963,
0.001965, 0.001969, 0.001975, 0.001982, 0.001992,
0.002003, 0.002017, 0.002032, 0.002050, 0.002069,
0.002091, 0.002115, 0.002141, 0.002169, 0.002201,
0.002235, 0.002271, 0.002311, 0.002354, 0.002400,
0.002450, 0.002504, 0.002562, 0.002625, 0.002692,
0.002764, 0.002841, 0.002923, 0.003009, 0.003079,
0.003031, 0.002994, 0.002967, 0.002951, 0.002945,
0.002950, 0.002966, 0.002993, 0.003032, 0.003083,
0.003147, 0.003225, 0.003223, 0.003232, 0.003267,
0.003326, 0.003406, 0.003503, 0.003615, 0.003739,
0.003875, 0.004020, 0.004175, 0.004338, 0.004509,
0.004688, 0.004875, 0.005068, 0.005269, 0.005475,
0.005687, 0.005903, 0.006123, 0.006346, 0.006570,
0.006794, 0.007017, 0.007236, 0.007450, 0.007658,
0.007857, 0.008046, 0.008223, 0.008387, 0.008537,
0.008670, 0.008789, 0.008889, 0.008973, 0.009039,
0.009089, 0.009121, 0.009137, 0.009138, 0.009124,
0.009097, 0.009056, 0.009004, 0.008942, 0.008869,
0.008789, 0.008702, 0.008608, 0.008509, 0.008405,
0.008298, 0.008188, 0.008076, 0.007963, 0.007849,
0.007735, 0.007621, 0.007508, 0.007395, 0.007285,
0.007176, 0.007069, 0.006965, 0.006862, 0.006762,
0.006665,
0.000000, 0.619088, 0.625511, 0.631621, 0.637401,
0.642829, 0.647880, 0.652513, 0.656677, 0.660291,
0.663232, 0.665294, 0.666137, 0.665154, 0.661270,
0.652770, 0.637749, 0.615800, 0.589063, 0.560355,
0.531608, 0.503782, 0.477280, 0.452216, 0.428557,
0.406232, 0.385142, 0.365184, 0.346254, 0.328253,
0.311092, 0.294691, 0.278979, 0.263887, 0.249357,
0.235517, 0.230382, 0.225565, 0.221043, 0.216789,
0.212785, 0.209017, 0.205461, 0.202104, 0.198931,
0.195930, 0.193086, 0.190392, 0.187835, 0.185405,
0.183093, 0.180890, 0.178786, 0.176774, 0.174846,
0.172992, 0.171206, 0.169480, 0.167804, 0.166170,
0.164570, 0.162994, 0.161433, 0.159877, 0.158313,
0.156731, 0.155117, 0.153457, 0.151735, 0.149935,
0.148039, 0.146025, 0.143873, 0.141562, 0.139071,
0.136383, 0.133486, 0.130383, 0.127096, 0.124789,
0.129362, 0.133743, 0.137935, 0.141936, 0.145746,
0.149366, 0.152794, 0.156029, 0.159068, 0.161907,
0.164543, 0.166970, 0.173490, 0.178908, 0.182361,
0.184046, 0.184194, 0.183018, 0.180686, 0.177320,
0.172999, 0.167772, 0.161660, 0.154662, 0.146780,
0.137994, 0.128288, 0.117651, 0.106078, 0.093573,
0.080160, 0.065872, 0.050772, 0.034938, 0.018470,
0.001489, -0.015865, -0.033435, -0.051055, -0.068553,
-0.085754, -0.102491, -0.118609, -0.133970, -0.148453,
-0.161964, -0.174438, -0.185814, -0.196074, -0.205215,
-0.213255, -0.220226, -0.226171, -0.231147, -0.235215,
-0.238439, -0.240889, -0.242631, -0.243731, -0.244248,
-0.244254, -0.243808, -0.242947, -0.241727, -0.240190,
-0.238379, -0.236327, -0.234066, -0.231627, -0.229033,
-0.226308, -0.223472, -0.220542, -0.217536, -0.214466,
-0.211346, -0.208189, -0.205005, -0.201805, -0.198599,
-0.195398,
0.000000, -0.003051, -0.003104, -0.003166, -0.003235,
-0.003312, -0.003400, -0.003500, -0.003611, -0.003736,
-0.003874, -0.004028, -0.004197, -0.004376, -0.004555,
-0.004709, -0.004797, -0.004789, -0.004694, -0.004544,
-0.004365, -0.004177, -0.003989, -0.003805, -0.003627,
-0.003458, -0.003296, -0.003142, -0.002996, -0.002857,
-0.002724, -0.002598, -0.002478, -0.002362, -0.002252,
-0.002148, -0.002119, -0.002093, -0.002069, -0.002049,
-0.002030, -0.002014, -0.002001, -0.001989, -0.001980,
-0.001973, -0.001967, -0.001964, -0.001962, -0.001963,
-0.001965, -0.001969, -0.001975, -0.001982, -0.001992,
-0.002003, -0.002017, -0.002032, -0.002050, -0.002069,
-0.002091, -0.002115, -0.002141, -0.002169, -0.002201,
-0.002235, -0.002271, -0.002311, -0.002354, -0.002400,
-0.002450, -0.002504, -0.002562, -0.002625, -0.002692,
-0.002764, -0.002841, -0.002923, -0.003009, -0.003079,
-0.003031, -0.002994, -0.002967, -0.002951, -0.002945,
-0.002950, -0.002966, -0.002993, -0.003032, -0.003083,
-0.003147, -0.003225, -0.003223, -0.003232, -0.003267,
-0.003326, -0.003406, -0.003503, -0.003615, -0.003739,
-0.003875, -0.004020, -0.004175, -0.004338, -0.004509,
-0.004688, -0.004875, -0.005068, -0.005269, -0.005475,
-0.005687, -0.005903, -0.006123, -0.006346, -0.006570,
-0.006794, -0.007017, -0.007236, -0.007450, -0.007658,
-0.007857, -0.008046, -0.008223, -0.008387, -0.008537,
-0.008670, -0.008789, -0.008889, -0.008973, -0.009039,
-0.009089, -0.009121, -0.009137, -0.009138, -0.009124,
-0.009097, -0.009056, -0.009004, -0.008942, -0.008869,
-0.008789, -0.008702, -0.008608, -0.008509, -0.008405,
-0.008298, -0.008188, -0.008076, -0.007963, -0.007849,
-0.007735, -0.007621, -0.007508, -0.007395, -0.007285,
-0.007176, -0.007069, -0.006965, -0.006862, -0.006762,
-0.006665,

// W_315_161_0db.mat
// re
0.250000, 0.241508, 0.232927, 0.224251, 0.215486,
0.206633, 0.197695, 0.188671, 0.179564, 0.170370,
0.161088, 0.151709, 0.142221, 0.132594, 0.122770,
0.112606, 0.101669, 0.087867, 0.037132, 0.042784,
0.047683, 0.052017, 0.055892, 0.059379, 0.062526,
0.065454, 0.068166, 0.070701, 0.073094, 0.075372,
0.077557, 0.079668, 0.081723, 0.083737, 0.085722,
0.087691, 0.089654, 0.091620, 0.093600, 0.095602,
0.097634, 0.099703, 0.101818, 0.103991, 0.106221,
0.108520, 0.110897, 0.113358, 0.115914, 0.118573,
0.121345, 0.124239, 0.127267, 0.130439, 0.133767,
0.137265, 0.140946, 0.144823, 0.148914, 0.153234,
0.157799, 0.162627, 0.167736, 0.173141, 0.178858,
0.184898, 0.191267, 0.197959, 0.204954, 0.212207,
0.219633, 0.227086, 0.234322, 0.240948, 0.246340,
0.249506, 0.248875, 0.242045, 0.225329, 0.193369,
0.139001, 0.054278, -0.065881, -0.216817, -0.378134,
-0.454102, -0.458129, -0.461993, -0.465690, -0.469218,
-0.472576, -0.475761, -0.478773, -0.472345, -0.437550,
-0.406375, -0.378642, -0.354043, -0.332235, -0.312888,
-0.295691, -0.280379, -0.266719, -0.254511, -0.243592,
-0.233804, -0.225029, -0.217163, -0.210117, -0.203813,
-0.198187, -0.193182, -0.188751, -0.184852, -0.181450,
-0.178515, -0.176020, -0.173942, -0.172262, -0.170962,
-0.170027, -0.169444, -0.169199, -0.169281, -0.169679,
-0.170382, -0.171378, -0.172657, -0.174206, -0.176012,
-0.178060, -0.180337, -0.182824, -0.185504, -0.188357,
-0.191361, -0.194494, -0.197732, -0.201050, -0.204421,
-0.207821, -0.211223, -0.214599, -0.217922, -0.221172,
-0.224325, -0.227358, -0.230253, -0.232992, -0.235560,
-0.237948, -0.240143, -0.242139, -0.243931, -0.245518,
-0.246899, -0.248076, -0.249052, -0.249831, -0.250418,
-0.250821,
0.250000, 0.241573, 0.233052, 0.224449, 0.215767,
0.207010, 0.198183, 0.189291, 0.180340, 0.171340,
0.162300, 0.153234, 0.144163, 0.135123, 0.126180,
0.117485, 0.109481, 0.104296, 0.138783, 0.134140,
0.130308, 0.127112, 0.124442, 0.122231, 0.120428,
0.118926, 0.117718, 0.116767, 0.116041, 0.115519,
0.115180, 0.115009, 0.114993, 0.115122, 0.115387,
0.115781, 0.116300, 0.116938, 0.117694, 0.118565,
0.119550, 0.120650, 0.121865, 0.123198, 0.124648,
0.126219, 0.127915, 0.129740, 0.131699, 0.133799,
0.136045, 0.138445, 0.141008, 0.143742, 0.146658,
0.149766, 0.153078, 0.156609, 0.160370, 0.164379,
0.168650, 0.173199, 0.178043, 0.183198, 0.188677,
0.194491, 0.200645, 0.207134, 0.213934, 0.221002,
0.228252, 0.235535, 0.242606, 0.249073, 0.254308,
0.257314, 0.256519, 0.249510, 0.232595, 0.200399,
0.145743, 0.060663, -0.059930, -0.211356, -0.373161,
-0.449404, -0.453532, -0.457481, -0.461249, -0.464835,
-0.468239, -0.471460, -0.474497, -0.468077, -0.433259,
-0.402070, -0.374331, -0.349734, -0.327932, -0.308596,
-0.291414, -0.276120, -0.262480, -0.250296, -0.239400,
-0.229638, -0.220890, -0.213052, -0.206033, -0.199758,
-0.194161, -0.189186, -0.184784, -0.180915, -0.177542,
-0.174637, -0.172171, -0.170123, -0.168473, -0.167203,
-0.166298, -0.165744, -0.165529, -0.165640, -0.166067,
-0.166799, -0.167824, -0.169131, -0.170708, -0.172542,
-0.174618, -0.176921, -0.179434, -0.182140, -0.185017,
-0.188045, -0.191202, -0.194462, -0.197801, -0.201193,
-0.204613, -0.208035, -0.211429, -0.214770, -0.218038,
-0.221208, -0.224259, -0.227171, -0.229930, -0.232519,
-0.234930, -0.237151, -0.239176, -0.241003, -0.242630,
-0.244058, -0.245291, -0.246334, -0.247192, -0.247874,
-0.248388,
0.250000, 0.241508, 0.232927, 0.224251, 0.215486,
0.206633, 0.197695, 0.188671, 0.179564, 0.170370,
0.161088, 0.151709, 0.142221, 0.132594, 0.122770,
0.112606, 0.101669, 0.087867, 0.037132, 0.042784,
0.047683, 0.052017, 0.055892, 0.059379, 0.062526,
0.065454, 0.068166, 0.070701, 0.073094, 0.075372,
0.077557, 0.079668, 0.081723, 0.083737, 0.085722,
0.087691, 0.089654, 0.091620, 0.093600, 0.095602,
0.097634, 0.099703, 0.101818, 0.103991, 0.106221,
0.108520, 0.110897, 0.113358, 0.115914, 0.118573,
0.121345, 0.124239, 0.127267, 0.130439, 0.133767,
0.137265, 0.140946, 0.144823, 0.148914, 0.153234,
0.157799, 0.162627, 0.167736, 0.173141, 0.178858,
0.184898, 0.191267, 0.197959, 0.204954, 0.212207,
0.219633, 0.227086, 0.234322, 0.240948, 0.246340,
0.249506, 0.248875, 0.242045, 0.225329, 0.193369,
0.139001, 0.054278, -0.065881, -0.216817, -0.378134,
-0.454102, -0.458129, -0.461993, -0.465690, -0.469218,
-0.472576, -0.475761, -0.478773, -0.472345, -0.437550,
-0.406375, -0.378642, -0.354043, -0.332235, -0.312888,
-0.295691, -0.280379, -0.266719, -0.254511, -0.243592,
-0.233804, -0.225029, -0.217163, -0.210117, -0.203813,
-0.198187, -0.193182, -0.188751, -0.184852, -0.181450,
-0.178515, -0.176020, -0.173942, -0.172262, -0.170962,
-0.170027, -0.169444, -0.169199, -0.169281, -0.169679,
-0.170382, -0.171378, -0.172657, -0.174206, -0.176012,
-0.178060, -0.180337, -0.182824, -0.185504, -0.188357,
-0.191361, -0.194494, -0.197732, -0.201050, -0.204421,
-0.207821, -0.211223, -0.214599, -0.217922, -0.221172,
-0.224325, -0.227358, -0.230253, -0.232992, -0.235560,
-0.237948, -0.240143, -0.242139, -0.243931, -0.245518,
-0.246899, -0.248076, -0.249052, -0.249831, -0.250418,
-0.250821,
0.250000, 0.241573, 0.233052, 0.224449, 0.215767,
0.207010, 0.198183, 0.189291, 0.180340, 0.171340,
0.162300, 0.153234, 0.144163, 0.135123, 0.126180,
0.117485, 0.109481, 0.104296, 0.138783, 0.134140,
0.130308, 0.127112, 0.124442, 0.122231, 0.120428,
0.118926, 0.117718, 0.116767, 0.116041, 0.115519,
0.115180, 0.115009, 0.114993, 0.115122, 0.115387,
0.115781, 0.116300, 0.116938, 0.117694, 0.118565,
0.119550, 0.120650, 0.121865, 0.123198, 0.124648,
0.126219, 0.127915, 0.129740, 0.131699, 0.133799,
0.136045, 0.138445, 0.141008, 0.143742, 0.146658,
0.149766, 0.153078, 0.156609, 0.160370, 0.164379,
0.168650, 0.173199, 0.178043, 0.183198, 0.188677,
0.194491, 0.200645, 0.207134, 0.213934, 0.221002,
0.228252, 0.235535, 0.242606, 0.249073, 0.254308,
0.257314, 0.256519, 0.249510, 0.232595, 0.200399,
0.145743, 0.060663, -0.059930, -0.211356, -0.373161,
-0.449404, -0.453532, -0.457481, -0.461249, -0.464835,
-0.468239, -0.471460, -0.474497, -0.468077, -0.433259,
-0.402070, -0.374331, -0.349734, -0.327932, -0.308596,
-0.291414, -0.276120, -0.262480, -0.250296, -0.239400,
-0.229638, -0.220890, -0.213052, -0.206033, -0.199758,
-0.194161, -0.189186, -0.184784, -0.180915, -0.177542,
-0.174637, -0.172171, -0.170123, -0.168473, -0.167203,
-0.166298, -0.165744, -0.165529, -0.165640, -0.166067,
-0.166799, -0.167824, -0.169131, -0.170708, -0.172542,
-0.174618, -0.176921, -0.179434, -0.182140, -0.185017,
-0.188045, -0.191202, -0.194462, -0.197801, -0.201193,
-0.204613, -0.208035, -0.211429, -0.214770, -0.218038,
-0.221208, -0.224259, -0.227171, -0.229930, -0.232519,
-0.234930, -0.237151, -0.239176, -0.241003, -0.242630,
-0.244058, -0.245291, -0.246334, -0.247192, -0.247874,
-0.248388,

// im
-0.000000, -0.439616, -0.444283, -0.448795, -0.453145,
-0.457333, -0.461359, -0.465225, -0.468929, -0.472473,
-0.475858, -0.479088, -0.482164, -0.485093, -0.487879,
-0.490531, -0.493058, -0.495436, -0.493739, -0.469205,
-0.447216, -0.427398, -0.409460, -0.393159, -0.378293,
-0.364685, -0.352196, -0.340702, -0.330099, -0.320296,
-0.311214, -0.302785, -0.294950, -0.287657, -0.280860,
-0.274518, -0.268595, -0.263060, -0.257884, -0.253042,
-0.248511, -0.244271, -0.240303, -0.236591, -0.233122,
-0.229884, -0.226863, -0.224049, -0.221434, -0.219009,
-0.216767, -0.214703, -0.212810, -0.211086, -0.209528,
-0.208131, -0.206897, -0.205823, -0.204912, -0.204164,
-0.203584, -0.203175, -0.202944, -0.202899, -0.203050,
-0.203408, -0.203990, -0.204814, -0.205903, -0.207282,
-0.208984, -0.211044, -0.213507, -0.216416, -0.219821,
-0.223759, -0.228249, -0.233249, -0.238600, -0.243918,
-0.248430, -0.250805, -0.249159, -0.241620, -0.227644,
-0.214408, -0.205542, -0.196597, -0.187577, -0.178484,
-0.169321, -0.160091, -0.150797, -0.143677, -0.144264,
-0.145287, -0.146589, -0.148066, -0.149652, -0.151302,
-0.152990, -0.154698, -0.156411, -0.158122, -0.159821,
-0.161510, -0.163182, -0.164833, -0.166459, -0.168055,
-0.169618, -0.171142, -0.172620, -0.174047, -0.175415,
-0.176715, -0.177937, -0.179071, -0.180106, -0.181029,
-0.181825, -0.182482, -0.182983, -0.183311, -0.183449,
-0.183380, -0.183085, -0.182545, -0.181742, -0.180658,
-0.179274, -0.177576, -0.175547, -0.173175, -0.170449,
-0.167360, -0.163904, -0.160078, -0.155885, -0.151332,
-0.146426, -0.141178, -0.135612, -0.129754, -0.123614,
-0.117225, -0.110616, -0.103819, -0.096864, -0.089785,
-0.082607, -0.075374, -0.068111, -0.060846, -0.053606,
-0.046414, -0.039293, -0.032261, -0.025335, -0.018527,
-0.011848,
0.000000, -0.435952, -0.440504, -0.444879, -0.449077,
-0.453096, -0.456933, -0.460584, -0.464047, -0.467318,
-0.470392, -0.473264, -0.475928, -0.478378, -0.480604,
-0.482593, -0.484325, -0.485741, -0.483173, -0.459189,
-0.437695, -0.418325, -0.400794, -0.384863, -0.370338,
-0.357043, -0.344843, -0.333616, -0.323262, -0.313689,
-0.304823, -0.296597, -0.288952, -0.281837, -0.275208,
-0.269025, -0.263252, -0.257859, -0.252818, -0.248105,
-0.243696, -0.239573, -0.235717, -0.232112, -0.228746,
-0.225606, -0.222680, -0.219958, -0.217431, -0.215091,
-0.212932, -0.210948, -0.209134, -0.207486, -0.206001,
-0.204678, -0.203514, -0.202510, -0.201667, -0.200987,
-0.200473, -0.200130, -0.199964, -0.199983, -0.200198,
-0.200621, -0.201267, -0.202155, -0.203309, -0.204754,
-0.206522, -0.208651, -0.211183, -0.214166, -0.217648,
-0.221669, -0.226250, -0.231351, -0.236819, -0.242276,
-0.246958, -0.249541, -0.248145, -0.240887, -0.227197,
-0.214141, -0.205373, -0.196529, -0.187611, -0.178625,
-0.169573, -0.160460, -0.151291, -0.144294, -0.144986,
-0.146126, -0.147556, -0.149172, -0.150908, -0.152719,
-0.154578, -0.156466, -0.158369, -0.160280, -0.162188,
-0.164095, -0.165993, -0.167877, -0.169745, -0.171591,
-0.173409, -0.175194, -0.176940, -0.178637, -0.180279,
-0.181855, -0.183355, -0.184766, -0.186076, -0.187272,
-0.188337, -0.189256, -0.190012, -0.190587, -0.190962,
-0.191119, -0.191037, -0.190698, -0.190082, -0.189169,
-0.187943, -0.186386, -0.184483, -0.182221, -0.179590,
-0.176581, -0.173191, -0.169417, -0.165263, -0.160737,
-0.155847, -0.150603, -0.145034, -0.139164, -0.133004,
-0.126588, -0.119947, -0.113111, -0.106114, -0.098989,
-0.091760, -0.084476, -0.077159, -0.069838, -0.062542,
-0.055293, -0.048115, -0.041025, -0.034042, -0.027177,
-0.020442,
0.000000, 0.439616, 0.444283, 0.448795, 0.453145,
0.457333, 0.461359, 0.465225, 0.468929, 0.472473,
0.475858, 0.479088, 0.482164, 0.485093, 0.487879,
0.490531, 0.493058, 0.495436, 0.493739, 0.469205,
0.447216, 0.427398, 0.409460, 0.393159, 0.378293,
0.364685, 0.352196, 0.340702, 0.330099, 0.320296,
0.311214, 0.302785, 0.294950, 0.287657, 0.280860,
0.274518, 0.268595, 0.263060, 0.257884, 0.253042,
0.248511, 0.244271, 0.240303, 0.236591, 0.233122,
0.229884, 0.226863, 0.224049, 0.221434, 0.219009,
0.216767, 0.214703, 0.212810, 0.211086, 0.209528,
0.208131, 0.206897, 0.205823, 0.204912, 0.204164,
0.203584, 0.203175, 0.202944, 0.202899, 0.203050,
0.203408, 0.203990, 0.204814, 0.205903, 0.207282,
0.208984, 0.211044, 0.213507, 0.216416, 0.219821,
0.223759, 0.228249, 0.233249, 0.238600, 0.243918,
0.248430, 0.250805, 0.249159, 0.241620, 0.227644,
0.214408, 0.205542, 0.196597, 0.187577, 0.178484,
0.169321, 0.160091, 0.150797, 0.143677, 0.144264,
0.145287, 0.146589, 0.148066, 0.149652, 0.151302,
0.152990, 0.154698, 0.156411, 0.158122, 0.159821,
0.161510, 0.163182, 0.164833, 0.166459, 0.168055,
0.169618, 0.171142, 0.172620, 0.174047, 0.175415,
0.176715, 0.177937, 0.179071, 0.180106, 0.181029,
0.181825, 0.182482, 0.182983, 0.183311, 0.183449,
0.183380, 0.183085, 0.182545, 0.181742, 0.180658,
0.179274, 0.177576, 0.175547, 0.173175, 0.170449,
0.167360, 0.163904, 0.160078, 0.155885, 0.151332,
0.146426, 0.141178, 0.135612, 0.129754, 0.123614,
0.117225, 0.110616, 0.103819, 0.096864, 0.089785,
0.082607, 0.075374, 0.068111, 0.060846, 0.053606,
0.046414, 0.039293, 0.032261, 0.025335, 0.018527,
0.011848,
0.000000, 0.435952, 0.440504, 0.444879, 0.449077,
0.453096, 0.456933, 0.460584, 0.464047, 0.467318,
0.470392, 0.473264, 0.475928, 0.478378, 0.480604,
0.482593, 0.484325, 0.485741, 0.483173, 0.459189,
0.437695, 0.418325, 0.400794, 0.384863, 0.370338,
0.357043, 0.344843, 0.333616, 0.323262, 0.313689,
0.304823, 0.296597, 0.288952, 0.281837, 0.275208,
0.269025, 0.263252, 0.257859, 0.252818, 0.248105,
0.243696, 0.239573, 0.235717, 0.232112, 0.228746,
0.225606, 0.222680, 0.219958, 0.217431, 0.215091,
0.212932, 0.210948, 0.209134, 0.207486, 0.206001,
0.204678, 0.203514, 0.202510, 0.201667, 0.200987,
0.200473, 0.200130, 0.199964, 0.199983, 0.200198,
0.200621, 0.201267, 0.202155, 0.203309, 0.204754,
0.206522, 0.208651, 0.211183, 0.214166, 0.217648,
0.221669, 0.226250, 0.231351, 0.236819, 0.242276,
0.246958, 0.249541, 0.248145, 0.240887, 0.227197,
0.214141, 0.205373, 0.196529, 0.187611, 0.178625,
0.169573, 0.160460, 0.151291, 0.144294, 0.144986,
0.146126, 0.147556, 0.149172, 0.150908, 0.152719,
0.154578, 0.156466, 0.158369, 0.160280, 0.162188,
0.164095, 0.165993, 0.167877, 0.169745, 0.171591,
0.173409, 0.175194, 0.176940, 0.178637, 0.180279,
0.181855, 0.183355, 0.184766, 0.186076, 0.187272,
0.188337, 0.189256, 0.190012, 0.190587, 0.190962,
0.191119, 0.191037, 0.190698, 0.190082, 0.189169,
0.187943, 0.186386, 0.184483, 0.182221, 0.179590,
0.176581, 0.173191, 0.169417, 0.165263, 0.160737,
0.155847, 0.150603, 0.145034, 0.139164, 0.133004,
0.126588, 0.119947, 0.113111, 0.106114, 0.098989,
0.091760, 0.084476, 0.077159, 0.069838, 0.062542,
0.055293, 0.048115, 0.041025, 0.034042, 0.027177,
0.020442,

// W_45_161_0db.mat
// re
0.250000, 0.241547, 0.233000, 0.224368, 0.215653,
0.206858, 0.197987, 0.189045, 0.180034, 0.170960,
0.161829, 0.152647, 0.143422, 0.134166, 0.124902,
0.115673, 0.106608, 0.098312, 0.102224, 0.101330,
0.100654, 0.100187, 0.099893, 0.099756, 0.099741,
0.099846, 0.100061, 0.100374, 0.100780, 0.101274,
0.101851, 0.102508, 0.103244, 0.104057, 0.104946,
0.105912, 0.106954, 0.108075, 0.109275, 0.110557,
0.111922, 0.113374, 0.114915, 0.116553, 0.118286,
0.120121, 0.122064, 0.124120, 0.126296, 0.128598,
0.131034, 0.133614, 0.136344, 0.139237, 0.142301,
0.145550, 0.148995, 0.152650, 0.156530, 0.160649,
0.165025, 0.169674, 0.174611, 0.179854, 0.185417,
0.191310, 0.197538, 0.204097, 0.210963, 0.218095,
0.225404, 0.232745, 0.239872, 0.246395, 0.251687,
0.254755, 0.254030, 0.247106, 0.230298, 0.198246,
0.143787, 0.058974, -0.061271, -0.212286, -0.373664,
-0.449507, -0.453617, -0.457548, -0.461300, -0.464872,
-0.468262, -0.471471, -0.474498, -0.468128, -0.433360,
-0.402211, -0.374503, -0.349929, -0.328144, -0.308819,
-0.291643, -0.276351, -0.262709, -0.250518, -0.239614,
-0.229840, -0.221079, -0.213224, -0.206188, -0.199893,
-0.194274, -0.189275, -0.184848, -0.180952, -0.177552,
-0.174617, -0.172121, -0.170041, -0.168357, -0.167052,
-0.166111, -0.165520, -0.165266, -0.165338, -0.165725,
-0.166414, -0.167397, -0.168660, -0.170191, -0.171979,
-0.174008, -0.176263, -0.178728, -0.181384, -0.184211,
-0.187189, -0.190294, -0.193503, -0.196790, -0.200130,
-0.203496, -0.206865, -0.210206, -0.213493, -0.216706,
-0.219821, -0.222816, -0.225672, -0.228373, -0.230903,
-0.233255, -0.235413, -0.237373, -0.239133, -0.240690,
-0.242045, -0.243201, -0.244162, -0.244933, -0.245523,
-0.245939,
0.250000, 0.241533, 0.232978, 0.224332, 0.215600,
0.206784, 0.197889, 0.188916, 0.179868, 0.170747,
0.161555, 0.152292, 0.142956, 0.133543, 0.124039,
0.114404, 0.104519, 0.093788, 0.073689, 0.075586,
0.077330, 0.078934, 0.080434, 0.081843, 0.083208,
0.084527, 0.085816, 0.087086, 0.088347, 0.089609,
0.090878, 0.092161, 0.093464, 0.094794, 0.096154,
0.097551, 0.098990, 0.100474, 0.102009, 0.103600,
0.105252, 0.106969, 0.108757, 0.110624, 0.112571,
0.114605, 0.116734, 0.118965, 0.121304, 0.123760,
0.126340, 0.129055, 0.131914, 0.134927, 0.138105,
0.141461, 0.145008, 0.148760, 0.152731, 0.156938,
0.161397, 0.166124, 0.171137, 0.176452, 0.182083,
0.188041, 0.194332, 0.200950, 0.207873, 0.215059,
0.222419, 0.229806, 0.236976, 0.243537, 0.248858,
0.251946, 0.251226, 0.244287, 0.227435, 0.195295,
0.140688, 0.055652, -0.064899, -0.216281, -0.378033,
-0.453999, -0.458046, -0.461926, -0.465639, -0.469182,
-0.472553, -0.475750, -0.478773, -0.472383, -0.437523,
-0.406296, -0.378521, -0.353891, -0.332059, -0.312695,
-0.295488, -0.280171, -0.266510, -0.254305, -0.243392,
-0.233613, -0.224851, -0.216999, -0.209970, -0.203685,
-0.198079, -0.193097, -0.188689, -0.184816, -0.181441,
-0.178534, -0.176069, -0.174022, -0.172374, -0.171109,
-0.170209, -0.169662, -0.169454, -0.169575, -0.170013,
-0.170757, -0.171796, -0.173118, -0.174711, -0.176562,
-0.178657, -0.180980, -0.183516, -0.186244, -0.189146,
-0.192200, -0.195384, -0.198673, -0.202042, -0.205466,
-0.208918, -0.212374, -0.215803, -0.219180, -0.222485,
-0.225693, -0.228782, -0.231734, -0.234532, -0.237160,
-0.239609, -0.241867, -0.243928, -0.245788, -0.247447,
-0.248902, -0.250158, -0.251217, -0.252084, -0.252765,
-0.253267,
0.250000, 0.241547, 0.233000, 0.224368, 0.215653,
0.206858, 0.197987, 0.189045, 0.180034, 0.170960,
0.161829, 0.152647, 0.143422, 0.134166, 0.124902,
0.115673, 0.106608, 0.098312, 0.102224, 0.101330,
0.100654, 0.100187, 0.099893, 0.099756, 0.099741,
0.099846, 0.100061, 0.100374, 0.100780, 0.101274,
0.101851, 0.102508, 0.103244, 0.104057, 0.104946,
0.105912, 0.106954, 0.108075, 0.109275, 0.110557,
0.111922, 0.113374, 0.114915, 0.116553, 0.118286,
0.120121, 0.122064, 0.124120, 0.126296, 0.128598,
0.131034, 0.133614, 0.136344, 0.139237, 0.142301,
0.145550, 0.148995, 0.152650, 0.156530, 0.160649,
0.165025, 0.169674, 0.174611, 0.179854, 0.185417,
0.191310, 0.197538, 0.204097, 0.210963, 0.218095,
0.225404, 0.232745, 0.239872, 0.246395, 0.251687,
0.254755, 0.254030, 0.247106, 0.230298, 0.198246,
0.143787, 0.058974, -0.061271, -0.212286, -0.373664,
-0.449507, -0.453617, -0.457548, -0.461300, -0.464872,
-0.468262, -0.471471, -0.474498, -0.468128, -0.433360,
-0.402211, -0.374503, -0.349929, -0.328144, -0.308819,
-0.291643, -0.276351, -0.262709, -0.250518, -0.239614,
-0.229840, -0.221079, -0.213224, -0.206188, -0.199893,
-0.194274, -0.189275, -0.184848, -0.180952, -0.177552,
-0.174617, -0.172121, -0.170041, -0.168357, -0.167052,
-0.166111, -0.165520, -0.165266, -0.165338, -0.165725,
-0.166414, -0.167397, -0.168660, -0.170191, -0.171979,
-0.174008, -0.176263, -0.178728, -0.181384, -0.184211,
-0.187189, -0.190294, -0.193503, -0.196790, -0.200130,
-0.203496, -0.206865, -0.210206, -0.213493, -0.216706,
-0.219821, -0.222816, -0.225672, -0.228373, -0.230903,
-0.233255, -0.235413, -0.237373, -0.239133, -0.240690,
-0.242045, -0.243201, -0.244162, -0.244933, -0.245523,
-0.245939,
0.250000, 0.241533, 0.232978, 0.224332, 0.215600,
0.206784, 0.197889, 0.188916, 0.179868, 0.170747,
0.161555, 0.152292, 0.142956, 0.133543, 0.124039,
0.114404, 0.104519, 0.093788, 0.073689, 0.075586,
0.077330, 0.078934, 0.080434, 0.081843, 0.083208,
0.084527, 0.085816, 0.087086, 0.088347, 0.089609,
0.090878, 0.092161, 0.093464, 0.094794, 0.096154,
0.097551, 0.098990, 0.100474, 0.102009, 0.103600,
0.105252, 0.106969, 0.108757, 0.110624, 0.112571,
0.114605, 0.116734, 0.118965, 0.121304, 0.123760,
0.126340, 0.129055, 0.131914, 0.134927, 0.138105,
0.141461, 0.145008, 0.148760, 0.152731, 0.156938,
0.161397, 0.166124, 0.171137, 0.176452, 0.182083,
0.188041, 0.194332, 0.200950, 0.207873, 0.215059,
0.222419, 0.229806, 0.236976, 0.243537, 0.248858,
0.251946, 0.251226, 0.244287, 0.227435, 0.195295,
0.140688, 0.055652, -0.064899, -0.216281, -0.378033,
-0.453999, -0.458046, -0.461926, -0.465639, -0.469182,
-0.472553, -0.475750, -0.478773, -0.472383, -0.437523,
-0.406296, -0.378521, -0.353891, -0.332059, -0.312695,
-0.295488, -0.280171, -0.266510, -0.254305, -0.243392,
-0.233613, -0.224851, -0.216999, -0.209970, -0.203685,
-0.198079, -0.193097, -0.188689, -0.184816, -0.181441,
-0.178534, -0.176069, -0.174022, -0.172374, -0.171109,
-0.170209, -0.169662, -0.169454, -0.169575, -0.170013,
-0.170757, -0.171796, -0.173118, -0.174711, -0.176562,
-0.178657, -0.180980, -0.183516, -0.186244, -0.189146,
-0.192200, -0.195384, -0.198673, -0.202042, -0.205466,
-0.208918, -0.212374, -0.215803, -0.219180, -0.222485,
-0.225693, -0.228782, -0.231734, -0.234532, -0.237160,
-0.239609, -0.241867, -0.243928, -0.245788, -0.247447,
-0.248902, -0.250158, -0.251217, -0.252084, -0.252765,
-0.253267,

// im
-0.000000, 0.437709, 0.442305, 0.446734, 0.450993,
0.455081, 0.458995, 0.462733, 0.466294, 0.469675,
0.472875, 0.475893, 0.478725, 0.481369, 0.483823,
0.486084, 0.488146, 0.490003, 0.487691, 0.463482,
0.441775, 0.422213, 0.404508, 0.388424, 0.373749,
0.360321, 0.347998, 0.336658, 0.326198, 0.316528,
0.307571, 0.299259, 0.291534, 0.284344, 0.277645,
0.271395, 0.265560, 0.260108, 0.255011, 0.250244,
0.245785, 0.241614, 0.237713, 0.234064, 0.230657,
0.227478, 0.224514, 0.221756, 0.219195, 0.216822,
0.214632, 0.212617, 0.210774, 0.209098, 0.207587,
0.206238, 0.205049, 0.204022, 0.203156, 0.202453,
0.201918, 0.201554, 0.201369, 0.201369, 0.201566,
0.201971, 0.202600, 0.203472, 0.204609, 0.206037,
0.207789, 0.209901, 0.212416, 0.215380, 0.218840,
0.222836, 0.227386, 0.232447, 0.237861, 0.243243,
0.247822, 0.250267, 0.248692, 0.241226, 0.227327,
0.214190, 0.205413, 0.196560, 0.187635, 0.178641,
0.169583, 0.160465, 0.151291, 0.144287, 0.145004,
0.146163, 0.147608, 0.149234, 0.150976, 0.152790,
0.154650, 0.156536, 0.158436, 0.160341, 0.162243,
0.164143, 0.166034, 0.167911, 0.169772, 0.171610,
0.173422, 0.175202, 0.176944, 0.178639, 0.180279,
0.181856, 0.183358, 0.184774, 0.186092, 0.187297,
0.188375, 0.189310, 0.190084, 0.190680, 0.191080,
0.191263, 0.191211, 0.190903, 0.190321, 0.189445,
0.188256, 0.186738, 0.184876, 0.182655, 0.180065,
0.177097, 0.173747, 0.170014, 0.165899, 0.161410,
0.156556, 0.151346, 0.145808, 0.139968, 0.133835,
0.127444, 0.120825, 0.114010, 0.107030, 0.099920,
0.092703, 0.085430, 0.078122, 0.070809, 0.063517,
0.056273, 0.049097, 0.042009, 0.035025, 0.028160,
0.021423,
0.000000, -0.437867, -0.442491, -0.446948, -0.451238,
-0.455358, -0.459309, -0.463089, -0.466697, -0.470131,
-0.473392, -0.476479, -0.479392, -0.482130, -0.484695,
-0.487088, -0.489309, -0.491361, -0.489225, -0.464934,
-0.443155, -0.423526, -0.405761, -0.389621, -0.374895,
-0.361420, -0.349054, -0.337673, -0.327175, -0.317469,
-0.308478, -0.300135, -0.292380, -0.285162, -0.278435,
-0.272159, -0.266299, -0.260823, -0.255702, -0.250913,
-0.246432, -0.242240, -0.238318, -0.234649, -0.231222,
-0.228022, -0.225039, -0.222261, -0.219680, -0.217288,
-0.215078, -0.213044, -0.211181, -0.209485, -0.207953,
-0.206582, -0.205372, -0.204323, -0.203435, -0.202709,
-0.202150, -0.201762, -0.201551, -0.201525, -0.201694,
-0.202070, -0.202670, -0.203511, -0.204616, -0.206012,
-0.207730, -0.209808, -0.212287, -0.215216, -0.218642,
-0.222605, -0.227126, -0.232165, -0.237569, -0.242958,
-0.247570, -0.250079, -0.248604, -0.241265, -0.227489,
-0.214360, -0.205503, -0.196566, -0.187553, -0.178467,
-0.169310, -0.160086, -0.150797, -0.143663, -0.144227,
-0.145233, -0.146521, -0.147990, -0.149571, -0.151219,
-0.152909, -0.154618, -0.156336, -0.158053, -0.159759,
-0.161456, -0.163136, -0.164794, -0.166428, -0.168032,
-0.169602, -0.171131, -0.172615, -0.174045, -0.175415,
-0.176714, -0.177935, -0.179065, -0.180093, -0.181006,
-0.181792, -0.182434, -0.182917, -0.183225, -0.183341,
-0.183246, -0.182923, -0.182353, -0.181517, -0.180399,
-0.178980, -0.177244, -0.175178, -0.172767, -0.170002,
-0.166874, -0.163379, -0.159516, -0.155287, -0.150699,
-0.145759, -0.140480, -0.134885, -0.129000, -0.122835,
-0.116424, -0.109796, -0.102980, -0.096010, -0.088918,
-0.081729, -0.074488, -0.067217, -0.059947, -0.052702,
-0.045508, -0.038386, -0.031353, -0.024427, -0.017620,
-0.010943,
0.000000, -0.437709, -0.442305, -0.446734, -0.450993,
-0.455081, -0.458995, -0.462733, -0.466294, -0.469675,
-0.472875, -0.475893, -0.478725, -0.481369, -0.483823,
-0.486084, -0.488146, -0.490003, -0.487691, -0.463482,
-0.441775, -0.422213, -0.404508, -0.388424, -0.373749,
-0.360321, -0.347998, -0.336658, -0.326198, -0.316528,
-0.307571, -0.299259, -0.291534, -0.284344, -0.277645,
-0.271395, -0.265560, -0.260108, -0.255011, -0.250244,
-0.245785, -0.241614, -0.237713, -0.234064, -0.230657,
-0.227478, -0.224514, -0.221756, -0.219195, -0.216822,
-0.214632, -0.212617, -0.210774, -0.209098, -0.207587,
-0.206238, -0.205049, -0.204022, -0.203156, -0.202453,
-0.201918, -0.201554, -0.201369, -0.201369, -0.201566,
-0.201971, -0.202600, -0.203472, -0.204609, -0.206037,
-0.207789, -0.209901, -0.212416, -0.215380, -0.218840,
-0.222836, -0.227386, -0.232447, -0.237861, -0.243243,
-0.247822, -0.250267, -0.248692, -0.241226, -0.227327,
-0.214190, -0.205413, -0.196560, -0.187635, -0.178641,
-0.169583, -0.160465, -0.151291, -0.144287, -0.145004,
-0.146163, -0.147608, -0.149234, -0.150976, -0.152790,
-0.154650, -0.156536, -0.158436, -0.160341, -0.162243,
-0.164143, -0.166034, -0.167911, -0.169772, -0.171610,
-0.173422, -0.175202, -0.176944, -0.178639, -0.180279,
-0.181856, -0.183358, -0.184774, -0.186092, -0.187297,
-0.188375, -0.189310, -0.190084, -0.190680, -0.191080,
-0.191263, -0.191211, -0.190903, -0.190321, -0.189445,
-0.188256, -0.186738, -0.184876, -0.182655, -0.180065,
-0.177097, -0.173747, -0.170014, -0.165899, -0.161410,
-0.156556, -0.151346, -0.145808, -0.139968, -0.133835,
-0.127444, -0.120825, -0.114010, -0.107030, -0.099920,
-0.092703, -0.085430, -0.078122, -0.070809, -0.063517,
-0.056273, -0.049097, -0.042009, -0.035025, -0.028160,
-0.021423,
0.000000, 0.437867, 0.442491, 0.446948, 0.451238,
0.455358, 0.459309, 0.463089, 0.466697, 0.470131,
0.473392, 0.476479, 0.479392, 0.482130, 0.484695,
0.487088, 0.489309, 0.491361, 0.489225, 0.464934,
0.443155, 0.423526, 0.405761, 0.389621, 0.374895,
0.361420, 0.349054, 0.337673, 0.327175, 0.317469,
0.308478, 0.300135, 0.292380, 0.285162, 0.278435,
0.272159, 0.266299, 0.260823, 0.255702, 0.250913,
0.246432, 0.242240, 0.238318, 0.234649, 0.231222,
0.228022, 0.225039, 0.222261, 0.219680, 0.217288,
0.215078, 0.213044, 0.211181, 0.209485, 0.207953,
0.206582, 0.205372, 0.204323, 0.203435, 0.202709,
0.202150, 0.201762, 0.201551, 0.201525, 0.201694,
0.202070, 0.202670, 0.203511, 0.204616, 0.206012,
0.207730, 0.209808, 0.212287, 0.215216, 0.218642,
0.222605, 0.227126, 0.232165, 0.237569, 0.242958,
0.247570, 0.250079, 0.248604, 0.241265, 0.227489,
0.214360, 0.205503, 0.196566, 0.187553, 0.178467,
0.169310, 0.160086, 0.150797, 0.143663, 0.144227,
0.145233, 0.146521, 0.147990, 0.149571, 0.151219,
0.152909, 0.154618, 0.156336, 0.158053, 0.159759,
0.161456, 0.163136, 0.164794, 0.166428, 0.168032,
0.169602, 0.171131, 0.172615, 0.174045, 0.175415,
0.176714, 0.177935, 0.179065, 0.180093, 0.181006,
0.181792, 0.182434, 0.182917, 0.183225, 0.183341,
0.183246, 0.182923, 0.182353, 0.181517, 0.180399,
0.178980, 0.177244, 0.175178, 0.172767, 0.170002,
0.166874, 0.163379, 0.159516, 0.155287, 0.150699,
0.145759, 0.140480, 0.134885, 0.129000, 0.122835,
0.116424, 0.109796, 0.102980, 0.096010, 0.088918,
0.081729, 0.074488, 0.067217, 0.059947, 0.052702,
0.045508, 0.038386, 0.031353, 0.024427, 0.017620,
0.010943,

// W_90_161_0db.mat
// re
0.250000, 0.237197, 0.224135, 0.210655, 0.196763,
0.182397, 0.167514, 0.151972, 0.135672, 0.118406,
0.099892, 0.079708, 0.057250, 0.031603, 0.001553,
-0.034008, -0.074658, -0.117067, -0.156759, -0.191401,
-0.220813, -0.245691, -0.266863, -0.285056, -0.300856,
-0.314718, -0.326997, -0.337973, -0.347868, -0.356858,
-0.365087, -0.372670, -0.379703, -0.386264, -0.392419,
-0.397621, -0.373669, -0.351482, -0.330869, -0.311661,
-0.293707, -0.276859, -0.261013, -0.246056, -0.231894,
-0.218437, -0.205611, -0.193331, -0.181536, -0.170160,
-0.159144, -0.148430, -0.137963, -0.127688, -0.117552,
-0.107501, -0.097481, -0.087435, -0.077306, -0.067032,
-0.056546, -0.045778, -0.034648, -0.023071, -0.010950,
0.001825, 0.015377, 0.029847, 0.045395, 0.062208,
0.080497, 0.100516, 0.122546, 0.146909, 0.173968,
0.204121, 0.237785, 0.275356, 0.317168, 0.356057,
0.349900, 0.343730, 0.337551, 0.331369, 0.325188,
0.319013, 0.312849, 0.306700, 0.300570, 0.294464,
0.288385, 0.282338, 0.202814, 0.119096, 0.047183,
-0.012923, -0.062372, -0.102699, -0.135488, -0.162162,
-0.183922, -0.201745, -0.216413, -0.228539, -0.238595,
-0.246952, -0.253890, -0.259624, -0.264312, -0.268075,
-0.271000, -0.273148, -0.274572, -0.275306, -0.275377,
-0.274812, -0.273637, -0.271881, -0.269578, -0.266767,
-0.263493, -0.259807, -0.255767, -0.251432, -0.246864,
-0.242128, -0.237283, -0.232390, -0.227503, -0.222674,
-0.217948, -0.213363, -0.208952, -0.204744, -0.200761,
-0.197020, -0.193534, -0.190313, -0.187362, -0.184686,
-0.182286, -0.180160, -0.178311, -0.176735, -0.175432,
-0.174399, -0.173634, -0.173136, -0.172904, -0.172938,
-0.173237, -0.173804, -0.174640, -0.175747, -0.177129,
-0.178790, -0.180735, -0.182968, -0.185495, -0.188321,
-0.191451,
0.250000, 0.245884, 0.241845, 0.238052, 0.234508,
0.231281, 0.228427, 0.226096, 0.224400, 0.223565,
0.223897, 0.225863, 0.230143, 0.237810, 0.250402,
0.269662, 0.296119, 0.327218, 0.358356, 0.386464,
0.410636, 0.431076, 0.448302, 0.462851, 0.475197,
0.485711, 0.494697, 0.502396, 0.509002, 0.514673,
0.519538, 0.523698, 0.527240, 0.530235, 0.532741,
0.534325, 0.512783, 0.493144, 0.475223, 0.458861,
0.443916, 0.430255, 0.417782, 0.406401, 0.396029,
0.386595, 0.378039, 0.370301, 0.363339, 0.357112,
0.351586, 0.346736, 0.342537, 0.338974, 0.336036,
0.333714, 0.332010, 0.330926, 0.330474, 0.330669,
0.331534, 0.333100, 0.335404, 0.338494, 0.342428,
0.347278, 0.353128, 0.360080, 0.368254, 0.377796,
0.388873, 0.401693, 0.416491, 0.433544, 0.453171,
0.475734, 0.501625, 0.531246, 0.564973, 0.598035,
0.600690, 0.603287, 0.605826, 0.608310, 0.610739,
0.613115, 0.615442, 0.617720, 0.619953, 0.622144,
0.624295, 0.626409, 0.565906, 0.500248, 0.443344,
0.395625, 0.356466, 0.324825, 0.299535, 0.279504,
0.263774, 0.251545, 0.242155, 0.235066, 0.229841,
0.226123, 0.223618, 0.222083, 0.221314, 0.221135,
0.221397, 0.221972, 0.222739, 0.223599, 0.224465,
0.225261, 0.225923, 0.226401, 0.226654, 0.226656,
0.226396, 0.225869, 0.225085, 0.224060, 0.222821,
0.221401, 0.219835, 0.218166, 0.216433, 0.214677,
0.212936, 0.211249, 0.209648, 0.208164, 0.206823,
0.205648, 0.204659, 0.203872, 0.203301, 0.202959,
0.202848, 0.202974, 0.203350, 0.203976, 0.204855,
0.205989, 0.207379, 0.209027, 0.210934, 0.213101,
0.215530, 0.218222, 0.221179, 0.224404, 0.227899,
0.231668, 0.235714, 0.240041, 0.244653, 0.249556,
0.254755,
0.250000, 0.237197, 0.224135, 0.210655, 0.196763,
0.182397, 0.167514, 0.151972, 0.135672, 0.118406,
0.099892, 0.079708, 0.057250, 0.031603, 0.001553,
-0.034008, -0.074658, -0.117067, -0.156759, -0.191401,
-0.220813, -0.245691, -0.266863, -0.285056, -0.300856,
-0.314718, -0.326997, -0.337973, -0.347868, -0.356858,
-0.365087, -0.372670, -0.379703, -0.386264, -0.392419,
-0.397621, -0.373669, -0.351482, -0.330869, -0.311661,
-0.293707, -0.276859, -0.261013, -0.246056, -0.231894,
-0.218437, -0.205611, -0.193331, -0.181536, -0.170160,
-0.159144, -0.148430, -0.137963, -0.127688, -0.117552,
-0.107501, -0.097481, -0.087435, -0.077306, -0.067032,
-0.056546, -0.045778, -0.034648, -0.023071, -0.010950,
0.001825, 0.015377, 0.029847, 0.045395, 0.062208,
0.080497, 0.100516, 0.122546, 0.146909, 0.173968,
0.204121, 0.237785, 0.275356, 0.317168, 0.356057,
0.349900, 0.343730, 0.337551, 0.331369, 0.325188,
0.319013, 0.312849, 0.306700, 0.300570, 0.294464,
0.288385, 0.282338, 0.202814, 0.119096, 0.047183,
-0.012923, -0.062372, -0.102699, -0.135488, -0.162162,
-0.183922, -0.201745, -0.216413, -0.228539, -0.238595,
-0.246952, -0.253890, -0.259624, -0.264312, -0.268075,
-0.271000, -0.273148, -0.274572, -0.275306, -0.275377,
-0.274812, -0.273637, -0.271881, -0.269578, -0.266767,
-0.263493, -0.259807, -0.255767, -0.251432, -0.246864,
-0.242128, -0.237283, -0.232390, -0.227503, -0.222674,
-0.217948, -0.213363, -0.208952, -0.204744, -0.200761,
-0.197020, -0.193534, -0.190313, -0.187362, -0.184686,
-0.182286, -0.180160, -0.178311, -0.176735, -0.175432,
-0.174399, -0.173634, -0.173136, -0.172904, -0.172938,
-0.173237, -0.173804, -0.174640, -0.175747, -0.177129,
-0.178790, -0.180735, -0.182968, -0.185495, -0.188321,
-0.191451,
0.250000, 0.245884, 0.241845, 0.238052, 0.234508,
0.231281, 0.228427, 0.226096, 0.224400, 0.223565,
0.223897, 0.225863, 0.230143, 0.237810, 0.250402,
0.269662, 0.296119, 0.327218, 0.358356, 0.386464,
0.410636, 0.431076, 0.448302, 0.462851, 0.475197,
