0, 120, 150, 180, 210, 240, 270, 300, 30, 330, 60, 90
// W_0_161_0db.mat
// re
0.166667, 0.161970, 0.157669, 0.153893, 0.150894,
0.149086, 0.149206, 0.152757, 0.163098, 0.188756,
0.246075, 0.324254, 0.388496, 0.435361, 0.469980,
0.496284, 0.516754, 0.533006, 0.546094, 0.556773,
0.565564, 0.572844, 0.578897, 0.583940, 0.588137,
0.591612, 0.594451, 0.596636, 0.593990, 0.561116,
0.531690, 0.505253, 0.481471, 0.460038, 0.440699,
0.423241, 0.407484, 0.393263, 0.380454, 0.368942,
0.358634, 0.349452, 0.341334, 0.334232, 0.328114,
0.322958, 0.318761, 0.315535, 0.313311, 0.312141,
0.312105, 0.313321, 0.315950, 0.320219, 0.326447,
0.335079, 0.346766, 0.362470, 0.383683, 0.412817,
0.454053, 0.515263, 0.549500, 0.553348, 0.556968,
0.560330, -0.180097, -0.193660, -0.206425, -0.218496,
-0.201557, -0.142061, -0.100757, -0.070507, -0.047441,
-0.029281, -0.014610, -0.002494, 0.007706, 0.016445,
0.024051, 0.030775, 0.036807, 0.042298, 0.047374,
0.052136, 0.056675, 0.061069, 0.065395, 0.069724,
0.074129, 0.078680, 0.083452, 0.088514, 0.093917,
0.099675, 0.105712, 0.111782, 0.117369, 0.121629,
0.123505, 0.122237, 0.117928, 0.111700, 0.105074,
0.099224, 0.094694, 0.091545, 0.089600, 0.088614,
0.088363, 0.088664, 0.089380, 0.090410, 0.091682,
0.093143, 0.094763, 0.096518, 0.098396, 0.100389,
0.102501, 0.104737, 0.107111, 0.109639, 0.112352,
0.115266, 0.118417, 0.121857, 0.125624, 0.129770,
0.134343, 0.139393, 0.144963, 0.151080, 0.157752,
0.164955, 0.172624, 0.180647, 0.188860, 0.197054,
0.204983, 0.212390, 0.219016, 0.224649, 0.229132,
0.232376, 0.234366, 0.235149, 0.234823, 0.233521,
0.231389, 0.228583, 0.225245, 0.221508, 0.217491,
0.213290, 0.208989, 0.204654, 0.200346, 0.196104,
0.191964,
0.166667, 0.161970, 0.157669, 0.153893, 0.150894,
0.149086, 0.149206, 0.152757, 0.163098, 0.188756,
0.246075, 0.324254, 0.388496, 0.435361, 0.469980,
0.496284, 0.516754, 0.533006, 0.546094, 0.556773,
0.565564, 0.572844, 0.578897, 0.583940, 0.588137,
0.591612, 0.594451, 0.596636, 0.593990, 0.561116,
0.531690, 0.505253, 0.481471, 0.460038, 0.440699,
0.423241, 0.407484, 0.393263, 0.380454, 0.368942,
0.358634, 0.349452, 0.341334, 0.334232, 0.328114,
0.322958, 0.318761, 0.315535, 0.313311, 0.312141,
0.312105, 0.313321, 0.315950, 0.320219, 0.326447,
0.335079, 0.346766, 0.362470, 0.383683, 0.412817,
0.454053, 0.515263, 0.549500, 0.553348, 0.556968,
0.560330, -0.180097, -0.193660, -0.206425, -0.218496,
-0.201557, -0.142061, -0.100757, -0.070507, -0.047441,
-0.029281, -0.014610, -0.002494, 0.007706, 0.016445,
0.024051, 0.030775, 0.036807, 0.042298, 0.047374,
0.052136, 0.056675, 0.061069, 0.065395, 0.069724,
0.074129, 0.078680, 0.083452, 0.088514, 0.093917,
0.099675, 0.105712, 0.111782, 0.117369, 0.121629,
0.123505, 0.122237, 0.117928, 0.111700, 0.105074,
0.099224, 0.094694, 0.091545, 0.089600, 0.088614,
0.088363, 0.088664, 0.089380, 0.090410, 0.091682,
0.093143, 0.094763, 0.096518, 0.098396, 0.100389,
0.102501, 0.104737, 0.107111, 0.109639, 0.112352,
0.115266, 0.118417, 0.121857, 0.125624, 0.129770,
0.134343, 0.139393, 0.144963, 0.151080, 0.157752,
0.164955, 0.172624, 0.180647, 0.188860, 0.197054,
0.204983, 0.212390, 0.219016, 0.224649, 0.229132,
0.232376, 0.234366, 0.235149, 0.234823, 0.233521,
0.231389, 0.228583, 0.225245, 0.221508, 0.217491,
0.213290, 0.208989, 0.204654, 0.200346, 0.196104,
0.191964,
0.166667, 0.154464, 0.141910, 0.128952, 0.115478,
0.101299, 0.086068, 0.069087, 0.048806, 0.021470,
-0.019055, -0.064626, -0.099805, -0.125078, -0.143792,
-0.158173, -0.169577, -0.178859, -0.186579, -0.193122,
-0.198759, -0.203687, -0.208056, -0.211975, -0.215526,
-0.218771, -0.221752, -0.224451, -0.224476, -0.207057,
-0.191220, -0.176730, -0.163416, -0.151120, -0.139703,
-0.129050, -0.119057, -0.109625, -0.100675, -0.092127,
-0.083909, -0.075952, -0.068189, -0.060554, -0.052979,
-0.045392, -0.037718, -0.029873, -0.021761, -0.013270,
-0.004266, 0.005417, 0.015985, 0.027708, 0.040944,
0.056178, 0.074101, 0.095715, 0.122560, 0.157110,
0.203631, 0.270135, 0.300439, 0.294681, 0.288918,
0.283170, -0.466255, -0.464510, -0.462711, -0.460856,
-0.433625, -0.371154, -0.327489, -0.295328, -0.270715,
-0.251329, -0.235723, -0.222950, -0.212364, -0.203511,
-0.196066, -0.189791, -0.184506, -0.180081, -0.176417,
-0.173442, -0.171106, -0.169378, -0.168242, -0.167695,
-0.167751, -0.168429, -0.169756, -0.171756, -0.174427,
-0.177706, -0.181401, -0.185091, -0.188001, -0.188966,
-0.186675, -0.180317, -0.170340, -0.158456, -0.146724,
-0.136578, -0.128565, -0.122608, -0.118365, -0.115447,
-0.113517, -0.112312, -0.111636, -0.111346, -0.111336,
-0.111525, -0.111858, -0.112285, -0.112766, -0.113265,
-0.113746, -0.114175, -0.114514, -0.114720, -0.114747,
-0.114537, -0.114027, -0.113142, -0.111798, -0.109896,
-0.107329, -0.103979, -0.099726, -0.094450, -0.088042,
-0.080423, -0.071550, -0.061441, -0.050185, -0.037953,
-0.024993, -0.011617, 0.001815, 0.014945, 0.027442,
0.039035, 0.049528, 0.058812, 0.066855, 0.073690,
0.079397, 0.084090, 0.087896, 0.090946, 0.093369,
0.095276, 0.096776, 0.097954, 0.098899, 0.099671,
0.100327,
0.166667, 0.154464, 0.141910, 0.128952, 0.115478,
0.101299, 0.086068, 0.069087, 0.048806, 0.021470,
-0.019055, -0.064626, -0.099805, -0.125078, -0.143792,
-0.158173, -0.169577, -0.178859, -0.186579, -0.193122,
-0.198759, -0.203687, -0.208056, -0.211975, -0.215526,
-0.218771, -0.221752, -0.224451, -0.224476, -0.207057,
-0.191220, -0.176730, -0.163416, -0.151120, -0.139703,
-0.129050, -0.119057, -0.109625, -0.100675, -0.092127,
-0.083909, -0.075952, -0.068189, -0.060554, -0.052979,
-0.045392, -0.037718, -0.029873, -0.021761, -0.013270,
-0.004266, 0.005417, 0.015985, 0.027708, 0.040944,
0.056178, 0.074101, 0.095715, 0.122560, 0.157110,
0.203631, 0.270135, 0.300439, 0.294681, 0.288918,
0.283170, -0.466255, -0.464510, -0.462711, -0.460856,
-0.433625, -0.371154, -0.327489, -0.295328, -0.270715,
-0.251329, -0.235723, -0.222950, -0.212364, -0.203511,
-0.196066, -0.189791, -0.184506, -0.180081, -0.176417,
-0.173442, -0.171106, -0.169378, -0.168242, -0.167695,
-0.167751, -0.168429, -0.169756, -0.171756, -0.174427,
-0.177706, -0.181401, -0.185091, -0.188001, -0.188966,
-0.186675, -0.180317, -0.170340, -0.158456, -0.146724,
-0.136578, -0.128565, -0.122608, -0.118365, -0.115447,
-0.113517, -0.112312, -0.111636, -0.111346, -0.111336,
-0.111525, -0.111858, -0.112285, -0.112766, -0.113265,
-0.113746, -0.114175, -0.114514, -0.114720, -0.114747,
-0.114537, -0.114027, -0.113142, -0.111798, -0.109896,
-0.107329, -0.103979, -0.099726, -0.094450, -0.088042,
-0.080423, -0.071550, -0.061441, -0.050185, -0.037953,
-0.024993, -0.011617, 0.001815, 0.014945, 0.027442,
0.039035, 0.049528, 0.058812, 0.066855, 0.073690,
0.079397, 0.084090, 0.087896, 0.090946, 0.093369,
0.095276, 0.096776, 0.097954, 0.098899, 0.099671,
0.100327,
0.166667, 0.154438, 0.141852, 0.128853, 0.115327,
0.101078, 0.085748, 0.068614, 0.048077, 0.020253,
-0.021243, -0.068111, -0.104387, -0.130510, -0.149904,
-0.164859, -0.176767, -0.186509, -0.194664, -0.201632,
-0.207696, -0.213063, -0.217885, -0.222281, -0.226343,
-0.230143, -0.233729, -0.237093, -0.237659, -0.219386,
-0.202781, -0.187595, -0.173650, -0.160779, -0.148838,
-0.137703, -0.127269, -0.117431, -0.108106, -0.099212,
-0.090673, -0.082418, -0.074377, -0.066484, -0.058667,
-0.050855, -0.042969, -0.034926, -0.026627, -0.017961,
-0.008791, 0.001048, 0.011764, 0.023627, 0.036996,
0.052356, 0.070399, 0.092127, 0.119082, 0.153735,
0.200356, 0.266956, 0.297373, 0.291721, 0.286042,
0.280361, -0.469008, -0.467170, -0.465294, -0.463375,
-0.436084, -0.373544, -0.329811, -0.297584, -0.272906,
-0.253455, -0.237786, -0.224950, -0.214302, -0.205387,
-0.197880, -0.191542, -0.186196, -0.181708, -0.177980,
-0.174941, -0.172540, -0.170746, -0.169542, -0.168926,
-0.168911, -0.169516, -0.170768, -0.172691, -0.175281,
-0.178477, -0.182087, -0.185687, -0.188504, -0.189372,
-0.186979, -0.180515, -0.170427, -0.158428, -0.146575,
-0.136303, -0.128158, -0.122063, -0.117675, -0.114606,
-0.112519, -0.111150, -0.110303, -0.109835, -0.109640,
-0.109638, -0.109774, -0.109998, -0.110269, -0.110553,
-0.110815, -0.111021, -0.111134, -0.111113, -0.110910,
-0.110470, -0.109732, -0.108621, -0.107054, -0.104935,
-0.102156, -0.098603, -0.094154, -0.088691, -0.082107,
-0.074323, -0.065296, -0.055046, -0.043662, -0.031314,
-0.018251, -0.004785, 0.008725, 0.021921, 0.034473,
0.046109, 0.056636, 0.065944, 0.074001, 0.080842,
0.086547, 0.091233, 0.095024, 0.098055, 0.100453,
0.102331, 0.103798, 0.104941, 0.105847, 0.106579,
0.107192,
0.166667, 0.154438, 0.141852, 0.128853, 0.115327,
0.101078, 0.085748, 0.068614, 0.048077, 0.020253,
-0.021243, -0.068111, -0.104387, -0.130510, -0.149904,
-0.164859, -0.176767, -0.186509, -0.194664, -0.201632,
-0.207696, -0.213063, -0.217885, -0.222281, -0.226343,
-0.230143, -0.233729, -0.237093, -0.237659, -0.219386,
-0.202781, -0.187595, -0.173650, -0.160779, -0.148838,
-0.137703, -0.127269, -0.117431, -0.108106, -0.099212,
-0.090673, -0.082418, -0.074377, -0.066484, -0.058667,
-0.050855, -0.042969, -0.034926, -0.026627, -0.017961,
-0.008791, 0.001048, 0.011764, 0.023627, 0.036996,
0.052356, 0.070399, 0.092127, 0.119082, 0.153735,
0.200356, 0.266956, 0.297373, 0.291721, 0.286042,
0.280361, -0.469008, -0.467170, -0.465294, -0.463375,
-0.436084, -0.373544, -0.329811, -0.297584, -0.272906,
-0.253455, -0.237786, -0.224950, -0.214302, -0.205387,
-0.197880, -0.191542, -0.186196, -0.181708, -0.177980,
-0.174941, -0.172540, -0.170746, -0.169542, -0.168926,
-0.168911, -0.169516, -0.170768, -0.172691, -0.175281,
-0.178477, -0.182087, -0.185687, -0.188504, -0.189372,
-0.186979, -0.180515, -0.170427, -0.158428, -0.146575,
-0.136303, -0.128158, -0.122063, -0.117675, -0.114606,
-0.112519, -0.111150, -0.110303, -0.109835, -0.109640,
-0.109638, -0.109774, -0.109998, -0.110269, -0.110553,
-0.110815, -0.111021, -0.111134, -0.111113, -0.110910,
-0.110470, -0.109732, -0.108621, -0.107054, -0.104935,
-0.102156, -0.098603, -0.094154, -0.088691, -0.082107,
-0.074323, -0.065296, -0.055046, -0.043662, -0.031314,
-0.018251, -0.004785, 0.008725, 0.021921, 0.034473,
0.046109, 0.056636, 0.065944, 0.074001, 0.080842,
0.086547, 0.091233, 0.095024, 0.098055, 0.100453,
0.102331, 0.103798, 0.104941, 0.105847, 0.106579,
0.107192,

// im
-0.000000, -0.000836, -0.000891, -0.000961, -0.001044,
-0.001147, -0.001272, -0.001428, -0.001623, -0.001865,
-0.002109, -0.002233, -0.002263, -0.002263, -0.002265,
-0.002281, -0.002316, -0.002374, -0.002469, -0.002590,
-0.002759, -0.002987, -0.003306, -0.003762, -0.004440,
-0.005546, -0.007602, -0.012639, -0.033069, -0.029940,
-0.027265, -0.024898, -0.022823, -0.020993, -0.019368,
-0.017920, -0.016630, -0.015468, -0.014426, -0.013487,
-0.012638, -0.011869, -0.011171, -0.010535, -0.009956,
-0.009426, -0.008942, -0.008498, -0.008091, -0.007717,
-0.007372, -0.007055, -0.006762, -0.006492, -0.006242,
-0.006012, -0.005799, -0.005603, -0.005421, -0.005254,
-0.005099, -0.004957, -0.004749, -0.004574, -0.004472,
-0.004424, -0.004408, -0.004280, -0.004203, -0.004165,
-0.004142, -0.004098, -0.004062, -0.004036, -0.004020,
-0.004013, -0.004018, -0.004033, -0.004061, -0.004103,
-0.004159, -0.004232, -0.004324, -0.004438, -0.004577,
-0.004745, -0.004946, -0.005189, -0.005479, -0.005826,
-0.006243, -0.006744, -0.007346, -0.008070, -0.008938,
-0.009975, -0.011200, -0.012620, -0.014213, -0.015908,
-0.017559, -0.018957, -0.019854, -0.020065, -0.019556,
-0.018456, -0.016988, -0.015383, -0.013806, -0.012357,
-0.011079, -0.009976, -0.009038, -0.008245, -0.007576,
-0.007012, -0.006536, -0.006133, -0.005791, -0.005501,
-0.005253, -0.005042, -0.004862, -0.004709, -0.004579,
-0.004469, -0.004377, -0.004301, -0.004238, -0.004188,
-0.004149, -0.004121, -0.004103, -0.004094, -0.004093,
-0.004100, -0.004115, -0.004138, -0.004169, -0.004207,
-0.004252, -0.004306, -0.004367, -0.004435, -0.004513,
-0.004598, -0.004693, -0.004798, -0.004914, -0.005041,
-0.005180, -0.005332, -0.005500, -0.005685, -0.005889,
-0.006115, -0.006366, -0.006645, -0.006959, -0.007313,
-0.007716,
-0.000000, 0.000836, 0.000891, 0.000961, 0.001044,
0.001147, 0.001272, 0.001428, 0.001623, 0.001865,
0.002109, 0.002233, 0.002263, 0.002263, 0.002265,
0.002281, 0.002316, 0.002374, 0.002469, 0.002590,
0.002759, 0.002987, 0.003306, 0.003762, 0.004440,
0.005546, 0.007602, 0.012639, 0.033069, 0.029940,
0.027265, 0.024898, 0.022823, 0.020993, 0.019368,
0.017920, 0.016630, 0.015468, 0.014426, 0.013487,
0.012638, 0.011869, 0.011171, 0.010535, 0.009956,
0.009426, 0.008942, 0.008498, 0.008091, 0.007717,
0.007372, 0.007055, 0.006762, 0.006492, 0.006242,
0.006012, 0.005799, 0.005603, 0.005421, 0.005254,
0.005099, 0.004957, 0.004749, 0.004574, 0.004472,
0.004424, 0.004408, 0.004280, 0.004203, 0.004165,
0.004142, 0.004098, 0.004062, 0.004036, 0.004020,
0.004013, 0.004018, 0.004033, 0.004061, 0.004103,
0.004159, 0.004232, 0.004324, 0.004438, 0.004577,
0.004745, 0.004946, 0.005189, 0.005479, 0.005826,
0.006243, 0.006744, 0.007346, 0.008070, 0.008938,
0.009975, 0.011200, 0.012620, 0.014213, 0.015908,
0.017559, 0.018957, 0.019854, 0.020065, 0.019556,
0.018456, 0.016988, 0.015383, 0.013806, 0.012357,
0.011079, 0.009976, 0.009038, 0.008245, 0.007576,
0.007012, 0.006536, 0.006133, 0.005791, 0.005501,
0.005253, 0.005042, 0.004862, 0.004709, 0.004579,
0.004469, 0.004377, 0.004301, 0.004238, 0.004188,
0.004149, 0.004121, 0.004103, 0.004094, 0.004093,
0.004100, 0.004115, 0.004138, 0.004169, 0.004207,
0.004252, 0.004306, 0.004367, 0.004435, 0.004513,
0.004598, 0.004693, 0.004798, 0.004914, 0.005041,
0.005180, 0.005332, 0.005500, 0.005685, 0.005889,
0.006115, 0.006366, 0.006645, 0.006959, 0.007313,
0.007716,
-0.000000, 0.461131, 0.465859, 0.470204, 0.474137,
0.477605, 0.480510, 0.482623, 0.483330, 0.480552,
0.467422, 0.438520, 0.404409, 0.372132, 0.343087,
0.317162, 0.293978, 0.273133, 0.254302, 0.237163,
0.221497, 0.207116, 0.193884, 0.181700, 0.170532,
0.160482, 0.151990, 0.147027, 0.158629, 0.152235,
0.146556, 0.141430, 0.136816, 0.132649, 0.128874,
0.125449, 0.122340, 0.119509, 0.116937, 0.114596,
0.112468, 0.110536, 0.108782, 0.107195, 0.105762,
0.104474, 0.103322, 0.102296, 0.101391, 0.100599,
0.099915, 0.099334, 0.098851, 0.098462, 0.098161,
0.097944, 0.097805, 0.097737, 0.097729, 0.097765,
0.097818, 0.097836, 0.101538, 0.107546, 0.113524,
0.119490, 0.125593, 0.121893, 0.118179, 0.114504,
0.112321, 0.113447, 0.114888, 0.116585, 0.118513,
0.120663, 0.123035, 0.125632, 0.128463, 0.131538,
0.134869, 0.138466, 0.142342, 0.146504, 0.150959,
0.155701, 0.160714, 0.165957, 0.171356, 0.176781,
0.182013, 0.186699, 0.190271, 0.191835, 0.190006,
0.182695, 0.166893, 0.138633, 0.093532, 0.028572,
-0.054691, -0.147239, -0.233988, -0.300843, -0.341640,
-0.358645, -0.358399, -0.347648, -0.331494, -0.313252,
-0.294835, -0.277254, -0.260982, -0.246186, -0.232881,
-0.221002, -0.210433, -0.201065, -0.192787, -0.185492,
-0.179087, -0.173488, -0.168621, -0.164420, -0.160824,
-0.157792, -0.155274, -0.153220, -0.151592, -0.150347,
-0.149441, -0.148827, -0.148452, -0.148258, -0.148180,
-0.148148, -0.148088, -0.147925, -0.147592, -0.147029,
-0.146199, -0.145084, -0.143695, -0.142065, -0.140248,
-0.138311, -0.136324, -0.134355, -0.132465, -0.130699,
-0.129093, -0.127665, -0.126425, -0.125372, -0.124497,
-0.123791, -0.123235, -0.122812, -0.122497, -0.122268,
-0.122102,
-0.000000, -0.461131, -0.465859, -0.470204, -0.474137,
-0.477605, -0.480510, -0.482623, -0.483330, -0.480552,
-0.467422, -0.438520, -0.404409, -0.372132, -0.343087,
-0.317162, -0.293978, -0.273133, -0.254302, -0.237163,
-0.221497, -0.207116, -0.193884, -0.181700, -0.170532,
-0.160482, -0.151990, -0.147027, -0.158629, -0.152235,
-0.146556, -0.141430, -0.136816, -0.132649, -0.128874,
-0.125449, -0.122340, -0.119509, -0.116937, -0.114596,
-0.112468, -0.110536, -0.108782, -0.107195, -0.105762,
-0.104474, -0.103322, -0.102296, -0.101391, -0.100599,
-0.099915, -0.099334, -0.098851, -0.098462, -0.098161,
-0.097944, -0.097805, -0.097737, -0.097729, -0.097765,
-0.097818, -0.097836, -0.101538, -0.107546, -0.113524,
-0.119491, -0.125593, -0.121893, -0.118179, -0.114504,
-0.112321, -0.113447, -0.114888, -0.116585, -0.118513,
-0.120663, -0.123035, -0.125632, -0.128463, -0.131538,
-0.134869, -0.138466, -0.142342, -0.146504, -0.150959,
-0.155701, -0.160714, -0.165957, -0.171356, -0.176781,
-0.182013, -0.186699, -0.190271, -0.191835, -0.190006,
-0.182695, -0.166893, -0.138633, -0.093532, -0.028572,
0.054691, 0.147239, 0.233988, 0.300843, 0.341640,
0.358645, 0.358399, 0.347648, 0.331494, 0.313252,
0.294835, 0.277254, 0.260982, 0.246186, 0.232881,
0.221002, 0.210433, 0.201065, 0.192787, 0.185492,
0.179087, 0.173488, 0.168621, 0.164420, 0.160824,
0.157792, 0.155274, 0.153220, 0.151592, 0.150347,
0.149441, 0.148827, 0.148452, 0.148258, 0.148180,
0.148148, 0.148088, 0.147925, 0.147592, 0.147029,
0.146199, 0.145084, 0.143695, 0.142065, 0.140248,
0.138311, 0.136324, 0.134355, 0.132465, 0.130699,
0.129093, 0.127665, 0.126425, 0.125372, 0.124497,
0.123791, 0.123235, 0.122812, 0.122497, 0.122268,
0.122102,
-0.000000, 0.461966, 0.466749, 0.471161, 0.475172,
0.478735, 0.481753, 0.484001, 0.484866, 0.482251,
0.469196, 0.440158, 0.405785, 0.373223, 0.343886,
0.317660, 0.294165, 0.272986, 0.253771, 0.236217,
0.220058, 0.205083, 0.191089, 0.177885, 0.165262,
0.152915, 0.140235, 0.125130, 0.095811, 0.095593,
0.095191, 0.094730, 0.094205, 0.093643, 0.093067,
0.092492, 0.091922, 0.091377, 0.090855, 0.090363,
0.089907, 0.089489, 0.089113, 0.088780, 0.088494,
0.088254, 0.088063, 0.087921, 0.087829, 0.087788,
0.087799, 0.087861, 0.087974, 0.088140, 0.088355,
0.088620, 0.088932, 0.089286, 0.089673, 0.090081,
0.090484, 0.090833, 0.094990, 0.101392, 0.107635,
0.113775, 0.120002, 0.116627, 0.113157, 0.109666,
0.107653, 0.108991, 0.110639, 0.112539, 0.114667,
0.117016, 0.119585, 0.122382, 0.125414, 0.128695,
0.132238, 0.136056, 0.140163, 0.144572, 0.149290,
0.154319, 0.159645, 0.165237, 0.171027, 0.176894,
0.182633, 0.187904, 0.192158, 0.194521, 0.193632,
0.187425, 0.172911, 0.146129, 0.102676, 0.039462,
-0.042103, -0.133209, -0.219021, -0.285628, -0.326899,
-0.344974, -0.346169, -0.336999, -0.322401, -0.305589,
-0.288436, -0.271946, -0.256603, -0.242594, -0.229955,
-0.218640, -0.208551, -0.199593, -0.191666, -0.184675,
-0.178535, -0.173166, -0.168502, -0.164482, -0.161048,
-0.158160, -0.155774, -0.153840, -0.152322, -0.151180,
-0.150370, -0.149847, -0.149559, -0.149448, -0.149452,
-0.149500, -0.149519, -0.149436, -0.149182, -0.148702,
-0.147956, -0.146928, -0.145630, -0.144096, -0.142381,
-0.140552, -0.138682, -0.136840, -0.135088, -0.133473,
-0.132032, -0.130787, -0.129751, -0.128926, -0.128309,
-0.127893, -0.127668, -0.127623, -0.127745, -0.128026,
-0.128456,
-0.000000, -0.461966, -0.466749, -0.471161, -0.475172,
-0.478735, -0.481753, -0.484001, -0.484866, -0.482251,
-0.469196, -0.440158, -0.405785, -0.373223, -0.343886,
-0.317660, -0.294165, -0.272986, -0.253771, -0.236217,
-0.220058, -0.205083, -0.191089, -0.177885, -0.165262,
-0.152915, -0.140235, -0.125130, -0.095811, -0.095593,
-0.095191, -0.094730, -0.094205, -0.093643, -0.093067,
-0.092492, -0.091922, -0.091377, -0.090855, -0.090363,
-0.089907, -0.089489, -0.089113, -0.088780, -0.088494,
-0.088254, -0.088063, -0.087921, -0.087829, -0.087788,
-0.087799, -0.087861, -0.087974, -0.088140, -0.088355,
-0.088620, -0.088932, -0.089286, -0.089673, -0.090081,
-0.090484, -0.090833, -0.094990, -0.101392, -0.107635,
-0.113775, -0.120002, -0.116627, -0.113157, -0.109666,
-0.107653, -0.108991, -0.110639, -0.112539, -0.114667,
-0.117016, -0.119585, -0.122382, -0.125414, -0.128695,
-0.132238, -0.136056, -0.140163, -0.144572, -0.149290,
-0.154319, -0.159645, -0.165237, -0.171027, -0.176894,
-0.182633, -0.187904, -0.192158, -0.194521, -0.193632,
-0.187425, -0.172911, -0.146129, -0.102676, -0.039462,
0.042103, 0.133209, 0.219021, 0.285628, 0.326899,
0.344974, 0.346169, 0.336999, 0.322401, 0.305589,
0.288436, 0.271946, 0.256603, 0.242594, 0.229955,
0.218640, 0.208551, 0.199593, 0.191666, 0.184675,
0.178535, 0.173166, 0.168502, 0.164482, 0.161048,
0.158160, 0.155774, 0.153840, 0.152322, 0.151180,
0.150370, 0.149847, 0.149559, 0.149448, 0.149452,
0.149500, 0.149519, 0.149436, 0.149182, 0.148702,
0.147956, 0.146928, 0.145630, 0.144096, 0.142381,
0.140552, 0.138682, 0.136840, 0.135088, 0.133473,
0.132032, 0.130787, 0.129751, 0.128926, 0.128309,
0.127893, 0.127668, 0.127623, 0.127745, 0.128026,
0.128456,

// W_120_161_0db.mat
// re
0.166667, 0.154428, 0.141833, 0.128827, 0.115295,
0.101041, 0.085711, 0.068584, 0.048066, 0.020283,
-0.021205, -0.068119, -0.104421, -0.130528, -0.149896,
-0.164815, -0.176679, -0.186369, -0.194467, -0.201371,
-0.207362, -0.212648, -0.217381, -0.221678, -0.225630,
-0.229306, -0.232754, -0.235962, -0.236083, -0.217895,
-0.201361, -0.186240, -0.172352, -0.159532, -0.147636,
-0.136543, -0.126145, -0.116340, -0.107043, -0.098174,
-0.089657, -0.081421, -0.073396, -0.065516, -0.057709,
-0.049904, -0.042024, -0.033982, -0.025682, -0.017010,
-0.007832, 0.002020, 0.012754, 0.024640, 0.038038,
0.053436, 0.071527, 0.093317, 0.120351, 0.155109,
0.201871, 0.268667, 0.297824, 0.292286, 0.286719,
0.281148, -0.468111, -0.466395, -0.464633, -0.462822,
-0.437301, -0.374449, -0.330504, -0.298125, -0.273333,
-0.253794, -0.238053, -0.225159, -0.214462, -0.205506,
-0.197962, -0.191592, -0.186218, -0.181705, -0.177954,
-0.174894, -0.172474, -0.170662, -0.169442, -0.168811,
-0.168781, -0.169372, -0.170611, -0.172522, -0.175101,
-0.178286, -0.181885, -0.185475, -0.188281, -0.189138,
-0.186731, -0.180250, -0.170143, -0.158124, -0.146252,
-0.135961, -0.127797, -0.121686, -0.117281, -0.114196,
-0.112092, -0.110706, -0.109842, -0.109357, -0.109144,
-0.109126, -0.109242, -0.109446, -0.109698, -0.109961,
-0.110202, -0.110385, -0.110474, -0.110426, -0.110194,
-0.109723, -0.108950, -0.107801, -0.106190, -0.104022,
-0.101190, -0.097576, -0.093061, -0.087528, -0.080870,
-0.073010, -0.063912, -0.053599, -0.042166, -0.029790,
-0.016726, -0.003288, 0.010158, 0.023259, 0.035688,
0.047180, 0.057547, 0.066689, 0.074581, 0.081263,
0.086819, 0.091368, 0.095037, 0.097960, 0.100262,
0.102060, 0.103460, 0.104544, 0.105401, 0.106092,
0.106672,
0.166667, 0.154428, 0.141833, 0.128827, 0.115295,
0.101041, 0.085711, 0.068584, 0.048066, 0.020283,
-0.021205, -0.068119, -0.104421, -0.130528, -0.149896,
-0.164815, -0.176679, -0.186369, -0.194467, -0.201371,
-0.207362, -0.212648, -0.217381, -0.221678, -0.225630,
-0.229306, -0.232754, -0.235962, -0.236083, -0.217895,
-0.201361, -0.186240, -0.172352, -0.159532, -0.147636,
-0.136543, -0.126145, -0.116340, -0.107043, -0.098174,
-0.089657, -0.081421, -0.073396, -0.065516, -0.057709,
-0.049904, -0.042024, -0.033982, -0.025682, -0.017010,
-0.007832, 0.002020, 0.012754, 0.024640, 0.038038,
0.053436, 0.071527, 0.093317, 0.120351, 0.155109,
0.201871, 0.268667, 0.297824, 0.292286, 0.286719,
0.281148, -0.468111, -0.466395, -0.464633, -0.462822,
-0.437301, -0.374449, -0.330504, -0.298125, -0.273333,
-0.253794, -0.238053, -0.225159, -0.214462, -0.205506,
-0.197962, -0.191592, -0.186218, -0.181705, -0.177954,
-0.174894, -0.172474, -0.170662, -0.169442, -0.168811,
-0.168781, -0.169372, -0.170611, -0.172522, -0.175101,
-0.178286, -0.181885, -0.185475, -0.188281, -0.189138,
-0.186731, -0.180250, -0.170143, -0.158124, -0.146252,
-0.135961, -0.127797, -0.121686, -0.117281, -0.114196,
-0.112092, -0.110706, -0.109842, -0.109357, -0.109144,
-0.109126, -0.109242, -0.109446, -0.109698, -0.109961,
-0.110202, -0.110385, -0.110474, -0.110426, -0.110194,
-0.109723, -0.108950, -0.107801, -0.106190, -0.104022,
-0.101190, -0.097576, -0.093061, -0.087528, -0.080870,
-0.073010, -0.063912, -0.053599, -0.042166, -0.029790,
-0.016726, -0.003288, 0.010158, 0.023259, 0.035688,
0.047180, 0.057547, 0.066689, 0.074581, 0.081263,
0.086819, 0.091368, 0.095037, 0.097960, 0.100262,
0.102060, 0.103460, 0.104544, 0.105401, 0.106092,
0.106672,
0.166667, 0.161970, 0.157666, 0.153886, 0.150879,
0.149058, 0.149159, 0.152675, 0.162958, 0.188504,
0.245784, 0.324074, 0.388432, 0.435335, 0.469988,
0.496313, 0.516800, 0.533065, 0.546169, 0.556860,
0.565655, 0.572944, 0.579006, 0.584058, 0.588265,
0.591751, 0.594600, 0.596793, 0.593663, 0.560830,
0.531433, 0.505023, 0.481265, 0.459856, 0.440540,
0.423103, 0.407366, 0.393167, 0.380375, 0.368882,
0.358592, 0.349429, 0.341330, 0.334247, 0.328148,
0.323013, 0.318838, 0.315635, 0.313434, 0.312290,
0.312284, 0.313531, 0.316195, 0.320503, 0.326776,
0.335461, 0.347211, 0.362992, 0.384298, 0.413552,
0.454947, 0.516371, 0.549495, 0.553344, 0.556965,
0.560328, -0.180096, -0.193661, -0.206427, -0.218497,
-0.203454, -0.143633, -0.102108, -0.071700, -0.048514,
-0.030262, -0.015517, -0.003341, 0.006910, 0.015689,
0.023334, 0.030088, 0.036147, 0.041662, 0.046759,
0.051540, 0.056097, 0.060507, 0.064847, 0.069190,
0.073606, 0.078170, 0.082953, 0.088026, 0.093440,
0.099209, 0.105255, 0.111332, 0.116924, 0.121180,
0.123051, 0.121766, 0.117437, 0.111188, 0.104543,
0.098679, 0.094140, 0.090986, 0.089039, 0.088053,
0.087803, 0.088107, 0.088825, 0.089859, 0.091135,
0.092603, 0.094229, 0.095993, 0.097879, 0.099884,
0.102009, 0.104260, 0.106652, 0.109202, 0.111940,
0.114884, 0.118075, 0.121550, 0.125364, 0.129563,
0.134197, 0.139316, 0.144961, 0.151161, 0.157920,
0.165212, 0.172968, 0.181073, 0.189358, 0.197608,
0.205573, 0.212995, 0.219612, 0.225215, 0.229649,
0.232832, 0.234752, 0.235461, 0.235063, 0.233692,
0.231498, 0.228636, 0.225250, 0.221472, 0.217419,
0.213190, 0.208867, 0.204514, 0.200190, 0.195936,
0.191787,
0.166667, 0.161970, 0.157666, 0.153886, 0.150879,
0.149058, 0.149159, 0.152675, 0.162958, 0.188504,
0.245784, 0.324074, 0.388432, 0.435335, 0.469988,
0.496313, 0.516800, 0.533065, 0.546169, 0.556860,
0.565655, 0.572944, 0.579006, 0.584058, 0.588265,
0.591751, 0.594600, 0.596793, 0.593663, 0.560830,
0.531433, 0.505023, 0.481265, 0.459856, 0.440540,
0.423103, 0.407366, 0.393167, 0.380375, 0.368882,
0.358592, 0.349429, 0.341330, 0.334247, 0.328148,
0.323013, 0.318838, 0.315635, 0.313434, 0.312290,
0.312284, 0.313531, 0.316195, 0.320503, 0.326776,
0.335461, 0.347211, 0.362992, 0.384298, 0.413552,
0.454947, 0.516371, 0.549495, 0.553344, 0.556965,
0.560328, -0.180096, -0.193661, -0.206427, -0.218497,
-0.203454, -0.143633, -0.102108, -0.071700, -0.048514,
-0.030262, -0.015517, -0.003341, 0.006910, 0.015689,
0.023334, 0.030088, 0.036147, 0.041662, 0.046759,
0.051540, 0.056097, 0.060507, 0.064847, 0.069190,
0.073606, 0.078170, 0.082953, 0.088026, 0.093440,
0.099209, 0.105255, 0.111332, 0.116924, 0.121180,
0.123051, 0.121766, 0.117437, 0.111188, 0.104543,
0.098679, 0.094140, 0.090986, 0.089039, 0.088053,
0.087803, 0.088107, 0.088825, 0.089859, 0.091135,
0.092603, 0.094229, 0.095993, 0.097879, 0.099884,
0.102009, 0.104260, 0.106652, 0.109202, 0.111940,
0.114884, 0.118075, 0.121550, 0.125364, 0.129563,
0.134197, 0.139316, 0.144961, 0.151161, 0.157920,
0.165212, 0.172968, 0.181073, 0.189358, 0.197608,
0.205573, 0.212995, 0.219612, 0.225215, 0.229649,
0.232832, 0.234752, 0.235461, 0.235063, 0.233692,
0.231498, 0.228636, 0.225250, 0.221472, 0.217419,
0.213190, 0.208867, 0.204514, 0.200190, 0.195936,
0.191787,
0.166667, 0.154474, 0.141931, 0.128985, 0.115525,
0.101362, 0.086152, 0.069197, 0.048953, 0.021674,
-0.018841, -0.064482, -0.099731, -0.125047, -0.143802,
-0.158225, -0.169672, -0.178999, -0.186768, -0.193365,
-0.199064, -0.204058, -0.208501, -0.212501, -0.216143,
-0.219492, -0.222588, -0.225416, -0.225277, -0.207803,
-0.191911, -0.177372, -0.164013, -0.151674, -0.140219,
-0.129528, -0.119501, -0.110037, -0.101056, -0.092478,
-0.084231, -0.076246, -0.068456, -0.060794, -0.053191,
-0.045577, -0.037876, -0.030003, -0.021861, -0.013338,
-0.004300, 0.005419, 0.016027, 0.027794, 0.041079,
0.056372, 0.074362, 0.096057, 0.123001, 0.157677,
0.204363, 0.271093, 0.299997, 0.294123, 0.288247,
0.282387, -0.467151, -0.465284, -0.463371, -0.461408,
-0.435790, -0.372982, -0.329087, -0.296763, -0.272028,
-0.252546, -0.236865, -0.224030, -0.213393, -0.204499,
-0.197017, -0.190711, -0.185400, -0.180952, -0.177267,
-0.174273, -0.171921, -0.170178, -0.169028, -0.168468,
-0.168511, -0.169176, -0.170491, -0.172477, -0.175135,
-0.178400, -0.182084, -0.185764, -0.188673, -0.189648,
-0.187382, -0.181070, -0.171156, -0.159345, -0.147683,
-0.137601, -0.129639, -0.123726, -0.119518, -0.116629,
-0.114725, -0.113542, -0.112886, -0.112616, -0.112624,
-0.112832, -0.113181, -0.113624, -0.114120, -0.114632,
-0.115126, -0.115565, -0.115911, -0.116121, -0.116147,
-0.115931, -0.115409, -0.114505, -0.113132, -0.111191,
-0.108572, -0.105156, -0.100822, -0.095447, -0.088926,
-0.081177, -0.072162, -0.061902, -0.050493, -0.038113,
-0.025017, -0.011525, 0.001998, 0.015191, 0.027724,
0.039325, 0.049805, 0.059059, 0.067060, 0.073846,
0.079502, 0.084144, 0.087902, 0.090907, 0.093287,
0.095158, 0.096628, 0.097779, 0.098699, 0.099450,
0.100088,
0.166667, 0.154474, 0.141931, 0.128985, 0.115525,
0.101362, 0.086152, 0.069197, 0.048953, 0.021674,
-0.018841, -0.064482, -0.099731, -0.125047, -0.143802,
-0.158225, -0.169672, -0.178999, -0.186768, -0.193365,
-0.199064, -0.204058, -0.208501, -0.212501, -0.216143,
-0.219492, -0.222588, -0.225416, -0.225277, -0.207803,
-0.191911, -0.177372, -0.164013, -0.151674, -0.140219,
-0.129528, -0.119501, -0.110037, -0.101056, -0.092478,
-0.084231, -0.076246, -0.068456, -0.060794, -0.053191,
-0.045577, -0.037876, -0.030003, -0.021861, -0.013338,
-0.004300, 0.005419, 0.016027, 0.027794, 0.041079,
0.056372, 0.074362, 0.096057, 0.123001, 0.157677,
0.204363, 0.271093, 0.299997, 0.294123, 0.288247,
0.282387, -0.467151, -0.465284, -0.463371, -0.461408,
-0.435790, -0.372982, -0.329087, -0.296763, -0.272028,
-0.252546, -0.236865, -0.224030, -0.213393, -0.204499,
-0.197017, -0.190711, -0.185400, -0.180952, -0.177267,
-0.174273, -0.171921, -0.170178, -0.169028, -0.168468,
-0.168511, -0.169176, -0.170491, -0.172477, -0.175135,
-0.178400, -0.182084, -0.185764, -0.188673, -0.189648,
-0.187382, -0.181070, -0.171156, -0.159345, -0.147683,
-0.137601, -0.129639, -0.123726, -0.119518, -0.116629,
-0.114725, -0.113542, -0.112886, -0.112616, -0.112624,
-0.112832, -0.113181, -0.113624, -0.114120, -0.114632,
-0.115126, -0.115565, -0.115911, -0.116121, -0.116147,
-0.115931, -0.115409, -0.114505, -0.113132, -0.111191,
-0.108572, -0.105156, -0.100822, -0.095447, -0.088926,
-0.081177, -0.072162, -0.061902, -0.050493, -0.038113,
-0.025017, -0.011525, 0.001998, 0.015191, 0.027724,
0.039325, 0.049805, 0.059059, 0.067060, 0.073846,
0.079502, 0.084144, 0.087902, 0.090907, 0.093287,
0.095158, 0.096628, 0.097779, 0.098699, 0.099450,
0.100088,

// im
-0.000000, 0.461352, 0.466156, 0.470593, 0.474634,
0.478233, 0.481295, 0.483600, 0.484542, 0.482041,
0.469119, 0.440147, 0.405776, 0.373224, 0.343886,
0.317659, 0.294163, 0.272983, 0.253760, 0.236208,
0.220052, 0.205076, 0.191080, 0.177874, 0.165245,
0.152894, 0.140195, 0.125012, 0.095911, 0.095667,
0.095263, 0.094800, 0.094273, 0.093710, 0.093134,
0.092557, 0.091987, 0.091439, 0.090918, 0.090426,
0.089969, 0.089551, 0.089175, 0.088842, 0.088555,
0.088316, 0.088124, 0.087982, 0.087890, 0.087849,
0.087860, 0.087922, 0.088036, 0.088201, 0.088417,
0.088682, 0.088993, 0.089347, 0.089734, 0.090141,
0.090542, 0.090889, 0.095167, 0.101618, 0.107909,
0.114098, 0.120376, 0.116960, 0.113447, 0.109915,
0.107776, 0.109111, 0.110758, 0.112658, 0.114787,
0.117137, 0.119709, 0.122507, 0.125543, 0.128827,
0.132372, 0.136194, 0.140305, 0.144717, 0.149440,
0.154472, 0.159802, 0.165397, 0.171190, 0.177059,
0.182799, 0.188070, 0.192321, 0.194679, 0.193780,
0.187559, 0.173025, 0.146216, 0.102726, 0.039462,
-0.042171, -0.133374, -0.219316, -0.286084, -0.327523,
-0.345745, -0.347055, -0.337944, -0.323376, -0.306568,
-0.289401, -0.272888, -0.257517, -0.243480, -0.230811,
-0.219466, -0.209354, -0.200373, -0.192427, -0.185419,
-0.179263, -0.173882, -0.169207, -0.165178, -0.161736,
-0.158843, -0.156449, -0.154514, -0.152993, -0.151847,
-0.151033, -0.150503, -0.150205, -0.150082, -0.150067,
-0.150092, -0.150081, -0.149961, -0.149663, -0.149133,
-0.148332, -0.147247, -0.145892, -0.144303, -0.142538,
-0.140665, -0.138758, -0.136888, -0.135114, -0.133484,
-0.132035, -0.130787, -0.129751, -0.128930, -0.128319,
-0.127911, -0.127694, -0.127660, -0.127793, -0.128086,
-0.128528,
-0.000000, -0.461352, -0.466156, -0.470593, -0.474634,
-0.478233, -0.481295, -0.483600, -0.484542, -0.482041,
-0.469119, -0.440147, -0.405776, -0.373224, -0.343886,
-0.317659, -0.294163, -0.272983, -0.253760, -0.236208,
-0.220052, -0.205076, -0.191080, -0.177874, -0.165245,
-0.152894, -0.140195, -0.125012, -0.095911, -0.095667,
-0.095263, -0.094800, -0.094273, -0.093710, -0.093134,
-0.092557, -0.091987, -0.091439, -0.090918, -0.090426,
-0.089969, -0.089551, -0.089175, -0.088842, -0.088555,
-0.088316, -0.088124, -0.087982, -0.087890, -0.087849,
-0.087860, -0.087922, -0.088036, -0.088201, -0.088417,
-0.088682, -0.088993, -0.089347, -0.089734, -0.090141,
-0.090542, -0.090889, -0.095167, -0.101618, -0.107909,
-0.114098, -0.120376, -0.116960, -0.113447, -0.109915,
-0.107776, -0.109111, -0.110758, -0.112658, -0.114787,
-0.117137, -0.119709, -0.122507, -0.125543, -0.128827,
-0.132372, -0.136194, -0.140305, -0.144717, -0.149440,
-0.154472, -0.159802, -0.165397, -0.171190, -0.177059,
-0.182799, -0.188070, -0.192321, -0.194679, -0.193780,
-0.187559, -0.173025, -0.146216, -0.102726, -0.039462,
0.042171, 0.133374, 0.219316, 0.286084, 0.327523,
0.345745, 0.347055, 0.337944, 0.323376, 0.306568,
0.289401, 0.272888, 0.257517, 0.243480, 0.230811,
0.219466, 0.209354, 0.200373, 0.192427, 0.185419,
0.179263, 0.173882, 0.169207, 0.165178, 0.161736,
0.158843, 0.156449, 0.154514, 0.152993, 0.151847,
0.151033, 0.150503, 0.150205, 0.150082, 0.150067,
0.150092, 0.150081, 0.149961, 0.149663, 0.149133,
0.148332, 0.147247, 0.145892, 0.144303, 0.142538,
0.140665, 0.138758, 0.136888, 0.135114, 0.133484,
0.132035, 0.130787, 0.129751, 0.128930, 0.128319,
0.127911, 0.127694, 0.127660, 0.127793, 0.128086,
0.128528,
-0.000000, -0.000393, -0.000295, -0.000175, -0.000035,
0.000137, 0.000347, 0.000609, 0.000939, 0.001354,
0.001790, 0.002058, 0.002172, 0.002230, 0.002275,
0.002328, 0.002394, 0.002481, 0.002604, 0.002747,
0.002943, 0.003195, 0.003539, 0.004019, 0.004727,
0.005858, 0.007956, 0.013094, 0.033405, 0.030290,
0.027608, 0.025236, 0.023154, 0.021318, 0.019687,
0.018235, 0.016940, 0.015777, 0.014729, 0.013787,
0.012936, 0.012164, 0.011464, 0.010827, 0.010246,
0.009715, 0.009230, 0.008786, 0.008378, 0.008003,
0.007658, 0.007341, 0.007048, 0.006778, 0.006529,
0.006299, 0.006087, 0.005891, 0.005709, 0.005540,
0.005384, 0.005238, 0.005087, 0.005012, 0.005010,
0.005064, 0.005155, 0.004942, 0.004779, 0.004657,
0.004575, 0.004529, 0.004496, 0.004474, 0.004464,
0.004465, 0.004478, 0.004503, 0.004541, 0.004594,
0.004662, 0.004748, 0.004853, 0.004981, 0.005133,
0.005315, 0.005530, 0.005785, 0.006087, 0.006444,
0.006867, 0.007368, 0.007964, 0.008671, 0.009509,
0.010497, 0.011648, 0.012964, 0.014412, 0.015911,
0.017302, 0.018362, 0.018850, 0.018617, 0.017690,
0.016258, 0.014573, 0.012858, 0.011258, 0.009847,
0.008640, 0.007628, 0.006788, 0.006093, 0.005518,
0.005042, 0.004647, 0.004318, 0.004043, 0.003812,
0.003618, 0.003454, 0.003317, 0.003201, 0.003104,
0.003024, 0.002958, 0.002905, 0.002864, 0.002835,
0.002816, 0.002807, 0.002810, 0.002824, 0.002850,
0.002889, 0.002942, 0.003009, 0.003092, 0.003190,
0.003303, 0.003431, 0.003573, 0.003727, 0.003893,
0.004067, 0.004249, 0.004439, 0.004635, 0.004837,
0.005047, 0.005266, 0.005494, 0.005734, 0.005989,
0.006262, 0.006556, 0.006875, 0.007226, 0.007615,
0.008050,
-0.000000, 0.000393, 0.000295, 0.000175, 0.000035,
-0.000137, -0.000347, -0.000609, -0.000939, -0.001354,
-0.001790, -0.002058, -0.002172, -0.002230, -0.002275,
-0.002328, -0.002394, -0.002481, -0.002604, -0.002747,
-0.002943, -0.003195, -0.003539, -0.004019, -0.004727,
-0.005858, -0.007956, -0.013094, -0.033405, -0.030290,
-0.027608, -0.025236, -0.023154, -0.021318, -0.019687,
-0.018235, -0.016940, -0.015777, -0.014729, -0.013787,
-0.012936, -0.012164, -0.011464, -0.010827, -0.010246,
-0.009715, -0.009230, -0.008786, -0.008378, -0.008003,
-0.007658, -0.007341, -0.007048, -0.006778, -0.006529,
-0.006299, -0.006087, -0.005891, -0.005709, -0.005540,
-0.005384, -0.005238, -0.005087, -0.005012, -0.005010,
-0.005064, -0.005156, -0.004942, -0.004779, -0.004657,
-0.004575, -0.004529, -0.004496, -0.004474, -0.004464,
-0.004465, -0.004478, -0.004503, -0.004541, -0.004594,
-0.004662, -0.004748, -0.004853, -0.004981, -0.005133,
-0.005315, -0.005530, -0.005785, -0.006087, -0.006444,
-0.006867, -0.007368, -0.007964, -0.008671, -0.009509,
-0.010497, -0.011648, -0.012964, -0.014412, -0.015911,
-0.017302, -0.018362, -0.018850, -0.018617, -0.017690,
-0.016258, -0.014573, -0.012858, -0.011258, -0.009847,
-0.008640, -0.007628, -0.006788, -0.006093, -0.005518,
-0.005042, -0.004647, -0.004318, -0.004043, -0.003812,
-0.003618, -0.003454, -0.003317, -0.003201, -0.003104,
-0.003024, -0.002958, -0.002905, -0.002864, -0.002835,
-0.002816, -0.002807, -0.002810, -0.002824, -0.002850,
-0.002889, -0.002942, -0.003009, -0.003092, -0.003190,
-0.003303, -0.003431, -0.003573, -0.003727, -0.003893,
-0.004067, -0.004249, -0.004439, -0.004635, -0.004837,
-0.005047, -0.005266, -0.005494, -0.005734, -0.005989,
-0.006262, -0.006556, -0.006875, -0.007226, -0.007615,
-0.008050,
-0.000000, -0.461746, -0.466453, -0.470773, -0.474678,
-0.478112, -0.480976, -0.483041, -0.483690, -0.480853,
-0.467664, -0.438685, -0.404489, -0.372166, -0.343076,
-0.317114, -0.293898, -0.273024, -0.254161, -0.236992,
-0.221310, -0.206906, -0.193652, -0.181447, -0.170263,
-0.160195, -0.151700, -0.146793, -0.158321, -0.151955,
-0.146282, -0.141163, -0.136554, -0.132391, -0.128621,
-0.125199, -0.122094, -0.119268, -0.116696, -0.114359,
-0.112234, -0.110302, -0.108551, -0.106965, -0.105534,
-0.104247, -0.103095, -0.102071, -0.101165, -0.100374,
-0.099690, -0.099109, -0.098626, -0.098236, -0.097935,
-0.097718, -0.097579, -0.097510, -0.097502, -0.097538,
-0.097591, -0.097612, -0.101370, -0.107328, -0.113256,
-0.119171, -0.125219, -0.121563, -0.117891, -0.114258,
-0.112011, -0.113135, -0.114573, -0.116266, -0.118189,
-0.120333, -0.122698, -0.125288, -0.128112, -0.131179,
-0.134500, -0.138089, -0.141955, -0.146108, -0.150552,
-0.155284, -0.160286, -0.165520, -0.170911, -0.176328,
-0.181556, -0.186240, -0.189816, -0.191391, -0.189584,
-0.182308, -0.166559, -0.138376, -0.093384, -0.028569,
0.054502, 0.146809, 0.233280, 0.299851, 0.340398,
0.357218, 0.356870, 0.346069, 0.329922, 0.311720,
0.293362, 0.275849, 0.259647, 0.244920, 0.231679,
0.219858, 0.209347, 0.200031, 0.191798, 0.184546,
0.178180, 0.172616, 0.167780, 0.163608, 0.160038,
0.157030, 0.154531, 0.152500, 0.150889, 0.149661,
0.148770, 0.148169, 0.147806, 0.147622, 0.147553,
0.147529, 0.147476, 0.147321, 0.146995, 0.146443,
0.145627, 0.144529, 0.143164, 0.141564, 0.139785,
0.137892, 0.135956, 0.134043, 0.132212, 0.130508,
0.128964, 0.127597, 0.126418, 0.125424, 0.124608,
0.123956, 0.123451, 0.123079, 0.122812, 0.122630,
0.122509,
-0.000000, 0.461746, 0.466453, 0.470773, 0.474678,
0.478112, 0.480976, 0.483041, 0.483690, 0.480853,
0.467664, 0.438685, 0.404489, 0.372166, 0.343076,
0.317114, 0.293898, 0.273024, 0.254161, 0.236992,
0.221310, 0.206906, 0.193652, 0.181447, 0.170263,
0.160195, 0.151700, 0.146793, 0.158321, 0.151955,
0.146282, 0.141163, 0.136554, 0.132391, 0.128621,
0.125199, 0.122094, 0.119268, 0.116696, 0.114359,
0.112234, 0.110302, 0.108551, 0.106965, 0.105534,
0.104247, 0.103095, 0.102071, 0.101165, 0.100374,
0.099690, 0.099109, 0.098626, 0.098236, 0.097935,
0.097718, 0.097579, 0.097510, 0.097502, 0.097538,
0.097591, 0.097612, 0.101370, 0.107328, 0.113256,
0.119171, 0.125219, 0.121563, 0.117891, 0.114258,
0.112011, 0.113135, 0.114573, 0.116266, 0.118189,
0.120333, 0.122698, 0.125288, 0.128112, 0.131179,
0.134500, 0.138089, 0.141955, 0.146108, 0.150552,
0.155284, 0.160286, 0.165520, 0.170911, 0.176328,
0.181556, 0.186240, 0.189816, 0.191391, 0.189584,
0.182308, 0.166559, 0.138376, 0.093384, 0.028569,
-0.054502, -0.146809, -0.233280, -0.299851, -0.340398,
-0.357218, -0.356870, -0.346069, -0.329922, -0.311720,
-0.293362, -0.275849, -0.259647, -0.244920, -0.231679,
-0.219858, -0.209347, -0.200031, -0.191798, -0.184546,
-0.178180, -0.172616, -0.167780, -0.163608, -0.160038,
-0.157030, -0.154531, -0.152500, -0.150889, -0.149661,
-0.148770, -0.148169, -0.147806, -0.147622, -0.147553,
-0.147529, -0.147476, -0.147321, -0.146995, -0.146443,
-0.145627, -0.144529, -0.143164, -0.141564, -0.139785,
-0.137892, -0.135956, -0.134043, -0.132212, -0.130508,
-0.128964, -0.127597, -0.126418, -0.125424, -0.124608,
-0.123956, -0.123451, -0.123079, -0.122812, -0.122630,
-0.122509,

// W_150_161_0db.mat
// re
0.166667, 0.159432, 0.152338, 0.145454, 0.138904,
0.132897, 0.127802, 0.124370, 0.124297, 0.131963,
0.156128, 0.192119, 0.222202, 0.244024, 0.259899,
0.271645, 0.280413, 0.286934, 0.291670, 0.294904,
0.296769, 0.297298, 0.296426, 0.293975, 0.289740,
0.283589, 0.275618, 0.266211, 0.255904, 0.245247,
0.234611, 0.224254, 0.214322, 0.204890, 0.195976,
0.187579, 0.179681, 0.172256, 0.165276, 0.158711,
0.152534, 0.146721, 0.143457, 0.142270, 0.141560,
0.141336, 0.141623, 0.142453, 0.143871, 0.145938,
0.148736, 0.152374, 0.156995, 0.162792, 0.170028,
0.179066, 0.190419, 0.204831, 0.223440, 0.248041,
0.281651, 0.329735, 0.403323, 0.420163, 0.419463,
0.418325, -0.310516, -0.319578, -0.327846, -0.335446,
-0.304337, -0.242149, -0.200177, -0.170080, -0.147539,
-0.130100, -0.116269, -0.105080, -0.095886, -0.088231,
-0.081796, -0.076337, -0.071676, -0.067673, -0.064221,
-0.061234, -0.058644, -0.056396, -0.054444, -0.052753,
-0.051292, -0.050041, -0.048984, -0.048116, -0.047443,
-0.046984, -0.046783, -0.046912, -0.047488, -0.048678,
-0.050713, -0.053869, -0.058426, -0.064579, -0.072320,
-0.081350, -0.091117, -0.100968, -0.110354, -0.118958,
-0.126691, -0.133624, -0.139901, -0.145678, -0.151090,
-0.156239, -0.161194, -0.165996, -0.170665, -0.175203,
-0.179603, -0.183849, -0.187924, -0.191807, -0.195480,
-0.198927, -0.202133, -0.205089, -0.207787, -0.210221,
-0.212388, -0.214283, -0.215900, -0.217234, -0.218272,
-0.219001, -0.219399, -0.219445, -0.219110, -0.218366,
-0.217187, -0.215549, -0.213441, -0.210852, -0.207794,
-0.204293, -0.200385, -0.196135, -0.191607, -0.186875,
-0.182022, -0.177128, -0.172270, -0.167518, -0.162934,
-0.158570, -0.154469, -0.150667, -0.147194, -0.144074,
-0.141330,
0.166667, 0.159432, 0.152338, 0.145454, 0.138904,
0.132897, 0.127802, 0.124370, 0.124297, 0.131963,
0.156128, 0.192119, 0.222202, 0.244024, 0.259899,
0.271645, 0.280413, 0.286934, 0.291670, 0.294904,
0.296769, 0.297298, 0.296426, 0.293975, 0.289740,
0.283589, 0.275618, 0.266211, 0.255904, 0.245247,
0.234611, 0.224254, 0.214322, 0.204890, 0.195976,
0.187579, 0.179681, 0.172256, 0.165276, 0.158711,
0.152534, 0.146721, 0.143457, 0.142270, 0.141560,
0.141336, 0.141623, 0.142453, 0.143871, 0.145938,
0.148736, 0.152374, 0.156995, 0.162792, 0.170028,
0.179066, 0.190419, 0.204831, 0.223440, 0.248041,
0.281651, 0.329735, 0.403323, 0.420163, 0.419463,
0.418325, -0.310516, -0.319578, -0.327846, -0.335446,
-0.304337, -0.242149, -0.200177, -0.170080, -0.147539,
-0.130100, -0.116269, -0.105080, -0.095886, -0.088231,
-0.081796, -0.076337, -0.071676, -0.067673, -0.064221,
-0.061234, -0.058644, -0.056396, -0.054444, -0.052753,
-0.051292, -0.050041, -0.048984, -0.048116, -0.047443,
-0.046984, -0.046783, -0.046912, -0.047488, -0.048678,
-0.050713, -0.053869, -0.058426, -0.064579, -0.072320,
-0.081350, -0.091117, -0.100968, -0.110354, -0.118958,
-0.126691, -0.133624, -0.139901, -0.145678, -0.151090,
-0.156239, -0.161194, -0.165996, -0.170665, -0.175203,
-0.179603, -0.183849, -0.187924, -0.191807, -0.195480,
-0.198927, -0.202133, -0.205089, -0.207787, -0.210221,
-0.212388, -0.214283, -0.215900, -0.217234, -0.218272,
-0.219001, -0.219399, -0.219445, -0.219110, -0.218366,
-0.217187, -0.215549, -0.213441, -0.210852, -0.207794,
-0.204293, -0.200385, -0.196135, -0.191607, -0.186875,
-0.182022, -0.177128, -0.172270, -0.167518, -0.162934,
-0.158570, -0.154469, -0.150667, -0.147194, -0.144074,
-0.141330,
0.166667, 0.159477, 0.152434, 0.145607, 0.139123,
0.133198, 0.128209, 0.124925, 0.125085, 0.133174,
0.158161, 0.195253, 0.226291, 0.248881, 0.265400,
0.277716, 0.287009, 0.294028, 0.299250, 0.302964,
0.305300, 0.306313, 0.305907, 0.303885, 0.300017,
0.294137, 0.286314, 0.276931, 0.266539, 0.255720,
0.244870, 0.234271, 0.224085, 0.214397, 0.205231,
0.196592, 0.188465, 0.180825, 0.173644, 0.166893,
0.160545, 0.154575, 0.151098, 0.149663, 0.148723,
0.148287, 0.148376, 0.149023, 0.150270, 0.152180,
0.154831, 0.158332, 0.162827, 0.168506, 0.175633,
0.184570, 0.195830, 0.210155, 0.228684, 0.253212,
0.286754, 0.334777, 0.408309, 0.424916, 0.423988,
0.422660, -0.306364, -0.315311, -0.323440, -0.330881,
-0.299676, -0.237500, -0.195540, -0.165451, -0.142915,
-0.125478, -0.111645, -0.100451, -0.091248, -0.083582,
-0.077131, -0.071653, -0.066968, -0.062938, -0.059454,
-0.056431, -0.053801, -0.051506, -0.049502, -0.047752,
-0.046225, -0.044899, -0.043757, -0.042791, -0.042005,
-0.041415, -0.041062, -0.041012, -0.041377, -0.042321,
-0.044072, -0.046908, -0.051118, -0.056919, -0.064330,
-0.073084, -0.082655, -0.092397, -0.101757, -0.110396,
-0.118206, -0.125237, -0.131622, -0.137507, -0.143022,
-0.148268, -0.153314, -0.158201, -0.162950, -0.167565,
-0.172040, -0.176360, -0.180508, -0.184466, -0.188216,
-0.191743, -0.195034, -0.198079, -0.200871, -0.203406,
-0.205681, -0.207690, -0.209430, -0.210894, -0.212069,
-0.212942, -0.213492, -0.213694, -0.213521, -0.212943,
-0.211931, -0.210462, -0.208522, -0.206099, -0.203204,
-0.199862, -0.196110, -0.192010, -0.187626, -0.183035,
-0.178318, -0.173556, -0.168827, -0.164202, -0.159742,
-0.155501, -0.151523, -0.147843, -0.144493, -0.141495,
-0.138876,
0.166667, 0.159477, 0.152434, 0.145607, 0.139123,
0.133198, 0.128209, 0.124925, 0.125085, 0.133174,
0.158161, 0.195253, 0.226291, 0.248881, 0.265400,
0.277716, 0.287009, 0.294028, 0.299250, 0.302964,
0.305300, 0.306313, 0.305907, 0.303885, 0.300017,
0.294137, 0.286314, 0.276931, 0.266539, 0.255720,
0.244870, 0.234271, 0.224085, 0.214397, 0.205231,
0.196592, 0.188465, 0.180825, 0.173644, 0.166893,
0.160545, 0.154575, 0.151098, 0.149663, 0.148723,
0.148287, 0.148376, 0.149023, 0.150270, 0.152180,
0.154831, 0.158332, 0.162827, 0.168506, 0.175633,
0.184570, 0.195830, 0.210155, 0.228684, 0.253212,
0.286754, 0.334777, 0.408309, 0.424916, 0.423988,
0.422660, -0.306364, -0.315311, -0.323440, -0.330881,
-0.299676, -0.237500, -0.195540, -0.165451, -0.142915,
-0.125478, -0.111645, -0.100451, -0.091248, -0.083582,
-0.077131, -0.071653, -0.066968, -0.062938, -0.059454,
-0.056431, -0.053801, -0.051506, -0.049502, -0.047752,
-0.046225, -0.044899, -0.043757, -0.042791, -0.042005,
-0.041415, -0.041062, -0.041012, -0.041377, -0.042321,
-0.044072, -0.046908, -0.051118, -0.056919, -0.064330,
-0.073084, -0.082655, -0.092397, -0.101757, -0.110396,
-0.118206, -0.125237, -0.131622, -0.137507, -0.143022,
-0.148268, -0.153314, -0.158201, -0.162950, -0.167565,
-0.172040, -0.176360, -0.180508, -0.184466, -0.188216,
-0.191743, -0.195034, -0.198079, -0.200871, -0.203406,
-0.205681, -0.207690, -0.209430, -0.210894, -0.212069,
-0.212942, -0.213492, -0.213694, -0.213521, -0.212943,
-0.211931, -0.210462, -0.208522, -0.206099, -0.203204,
-0.199862, -0.196110, -0.192010, -0.187626, -0.183035,
-0.178318, -0.173556, -0.168827, -0.164202, -0.159742,
-0.155501, -0.151523, -0.147843, -0.144493, -0.141495,
-0.138876,
0.166667, 0.151963, 0.136658, 0.120638, 0.103672,
0.085366, 0.065011, 0.041161, 0.010594, -0.034662,
-0.108463, -0.195708, -0.263969, -0.312887, -0.348748,
-0.375818, -0.396687, -0.412958, -0.425633, -0.435322,
-0.442310, -0.446657, -0.448161, -0.446413, -0.440868,
-0.431099, -0.417157, -0.399753, -0.379982, -0.359047,
-0.337777, -0.316783, -0.296422, -0.276897, -0.258277,
-0.240585, -0.223804, -0.207889, -0.192784, -0.178429,
-0.164758, -0.151708, -0.140657, -0.131050, -0.121711,
-0.112560, -0.103520, -0.094505, -0.085425, -0.076175,
-0.066638, -0.056672, -0.046104, -0.034714, -0.022215,
-0.008229, 0.007775, 0.026550, 0.049243, 0.077645,
0.114750, 0.165971, 0.242208, 0.254774, 0.249156,
0.243819, -0.478868, -0.477372, -0.475152, -0.472446,
-0.434690, -0.370623, -0.326660, -0.294521, -0.269920,
-0.250418, -0.234525, -0.221277, -0.210025, -0.200309,
-0.191803, -0.184257, -0.177486, -0.171342, -0.165711,
-0.160499, -0.155629, -0.151039, -0.146676, -0.142500,
-0.138479, -0.134593, -0.130833, -0.127209, -0.123753,
-0.120525, -0.117635, -0.115239, -0.113574, -0.112958,
-0.113778, -0.116447, -0.121292, -0.128370, -0.137292,
-0.147150, -0.156708, -0.164755, -0.170481, -0.173598,
-0.174250, -0.172817, -0.169750, -0.165461, -0.160292,
-0.154506, -0.148302, -0.141833, -0.135215, -0.128544,
-0.121900, -0.115353, -0.108966, -0.102793, -0.096884,
-0.091279, -0.086010, -0.081097, -0.076551, -0.072367,
-0.068529, -0.065002, -0.061739, -0.058681, -0.055750,
-0.052861, -0.049915, -0.046810, -0.043441, -0.039706,
-0.035512, -0.030782, -0.025469, -0.019533, -0.012983,
-0.005855, 0.001791, 0.009851, 0.018221, 0.026781,
0.035407, 0.043982, 0.052402, 0.060581, 0.068454,
0.075974, 0.083118, 0.089880, 0.096272, 0.102318,
0.108062,
0.166667, 0.151963, 0.136658, 0.120638, 0.103672,
0.085366, 0.065011, 0.041161, 0.010594, -0.034662,
-0.108463, -0.195708, -0.263969, -0.312887, -0.348748,
-0.375818, -0.396687, -0.412958, -0.425633, -0.435322,
-0.442310, -0.446657, -0.448161, -0.446413, -0.440868,
-0.431099, -0.417157, -0.399753, -0.379982, -0.359047,
-0.337777, -0.316783, -0.296422, -0.276897, -0.258277,
-0.240585, -0.223804, -0.207889, -0.192784, -0.178429,
-0.164758, -0.151708, -0.140657, -0.131050, -0.121711,
-0.112560, -0.103520, -0.094505, -0.085425, -0.076175,
-0.066638, -0.056672, -0.046104, -0.034714, -0.022215,
-0.008229, 0.007775, 0.026550, 0.049243, 0.077645,
0.114750, 0.165971, 0.242208, 0.254774, 0.249156,
0.243819, -0.478868, -0.477372, -0.475152, -0.472446,
-0.434690, -0.370623, -0.326660, -0.294521, -0.269920,
-0.250418, -0.234525, -0.221277, -0.210025, -0.200309,
-0.191803, -0.184257, -0.177486, -0.171342, -0.165711,
-0.160499, -0.155629, -0.151039, -0.146676, -0.142500,
-0.138479, -0.134593, -0.130833, -0.127209, -0.123753,
-0.120525, -0.117635, -0.115239, -0.113574, -0.112958,
-0.113778, -0.116447, -0.121292, -0.128370, -0.137292,
-0.147150, -0.156708, -0.164755, -0.170481, -0.173598,
-0.174250, -0.172817, -0.169750, -0.165461, -0.160292,
-0.154506, -0.148302, -0.141833, -0.135215, -0.128544,
-0.121900, -0.115353, -0.108966, -0.102793, -0.096884,
-0.091279, -0.086010, -0.081097, -0.076551, -0.072367,
-0.068529, -0.065002, -0.061739, -0.058681, -0.055750,
-0.052861, -0.049915, -0.046810, -0.043441, -0.039706,
-0.035512, -0.030782, -0.025469, -0.019533, -0.012983,
-0.005855, 0.001791, 0.009851, 0.018221, 0.026781,
0.035407, 0.043982, 0.052402, 0.060581, 0.068454,
0.075974, 0.083118, 0.089880, 0.096272, 0.102318,
0.108062,

// im
-0.000000, 0.266628, 0.269557, 0.272364, 0.275052,
0.277625, 0.280084, 0.282408, 0.284481, 0.285686,
0.283194, 0.273586, 0.261021, 0.249245, 0.239277,
0.231272, 0.225222, 0.221089, 0.218888, 0.218676,
0.220687, 0.225148, 0.232389, 0.242693, 0.256131,
0.272296, 0.290171, 0.308374, 0.325715, 0.341392,
0.355174, 0.367060, 0.377203, 0.385804, 0.393082,
0.399224, 0.404398, 0.408748, 0.412394, 0.415436,
0.417958, 0.420028, 0.407217, 0.385278, 0.365276,
0.347016, 0.330317, 0.315018, 0.300988, 0.288109,
0.276275, 0.265392, 0.255382, 0.246175, 0.237709,
0.229923, 0.222776, 0.216233, 0.210271, 0.204880,
0.200068, 0.195889, 0.192491, 0.196320, 0.202083,
0.208197, 0.200740, 0.188390, 0.176961, 0.166245,
0.159884, 0.158984, 0.158130, 0.157411, 0.156876,
0.156554, 0.156467, 0.156633, 0.157069, 0.157793,
0.158824, 0.160182, 0.161892, 0.163983, 0.166488,
0.169445, 0.172897, 0.176896, 0.181499, 0.186774,
0.192792, 0.199634, 0.207384, 0.216122, 0.225915,
0.236804, 0.248760, 0.261660, 0.275194, 0.288788,
0.301499, 0.311919, 0.318190, 0.318232, 0.310323,
0.293892, 0.270057, 0.241453, 0.211280, 0.182322,
0.156382, 0.134253, 0.115998, 0.101267, 0.089543,
0.080284, 0.072998, 0.067266, 0.062746, 0.059165,
0.056310, 0.054013, 0.052146, 0.050613, 0.049338,
0.048268, 0.047361, 0.046591, 0.045938, 0.045390,
0.044944, 0.044600, 0.044360, 0.044232, 0.044224,
0.044350, 0.044621, 0.045053, 0.045661, 0.046461,
0.047471, 0.048704, 0.050175, 0.051900, 0.053889,
0.056152, 0.058698, 0.061534, 0.064670, 0.068115,
0.071882, 0.075989, 0.080459, 0.085324, 0.090623,
0.096409, 0.102746, 0.109714, 0.117409, 0.125955,
0.135494,
-0.000000, -0.266628, -0.269557, -0.272364, -0.275052,
-0.277625, -0.280084, -0.282408, -0.284481, -0.285686,
-0.283194, -0.273586, -0.261021, -0.249245, -0.239277,
-0.231272, -0.225222, -0.221089, -0.218888, -0.218676,
-0.220687, -0.225148, -0.232389, -0.242693, -0.256131,
-0.272296, -0.290171, -0.308374, -0.325715, -0.341392,
-0.355174, -0.367060, -0.377203, -0.385804, -0.393082,
-0.399224, -0.404398, -0.408748, -0.412394, -0.415436,
-0.417958, -0.420028, -0.407217, -0.385278, -0.365276,
-0.347016, -0.330317, -0.315018, -0.300988, -0.288109,
-0.276275, -0.265392, -0.255382, -0.246175, -0.237709,
-0.229923, -0.222776, -0.216233, -0.210271, -0.204880,
-0.200068, -0.195889, -0.192491, -0.196320, -0.202083,
-0.208198, -0.200740, -0.188390, -0.176961, -0.166245,
-0.159884, -0.158984, -0.158130, -0.157411, -0.156876,
-0.156554, -0.156467, -0.156633, -0.157069, -0.157793,
-0.158824, -0.160182, -0.161892, -0.163983, -0.166488,
-0.169445, -0.172897, -0.176896, -0.181499, -0.186774,
-0.192792, -0.199634, -0.207384, -0.216122, -0.225915,
-0.236804, -0.248760, -0.261660, -0.275194, -0.288788,
-0.301499, -0.311919, -0.318190, -0.318232, -0.310323,
-0.293892, -0.270057, -0.241453, -0.211280, -0.182322,
-0.156382, -0.134253, -0.115998, -0.101267, -0.089543,
-0.080284, -0.072998, -0.067266, -0.062746, -0.059165,
-0.056310, -0.054013, -0.052146, -0.050613, -0.049338,
-0.048268, -0.047361, -0.046591, -0.045938, -0.045390,
-0.044944, -0.044600, -0.044360, -0.044232, -0.044224,
-0.044350, -0.044621, -0.045053, -0.045661, -0.046461,
-0.047471, -0.048704, -0.050175, -0.051900, -0.053889,
-0.056152, -0.058698, -0.061534, -0.064670, -0.068115,
-0.071882, -0.075989, -0.080459, -0.085324, -0.090623,
-0.096409, -0.102746, -0.109714, -0.117409, -0.125955,
-0.135494,
-0.000000, -0.266384, -0.269141, -0.271741, -0.274183,
-0.276458, -0.278556, -0.280435, -0.281956, -0.282503,
-0.279414, -0.269613, -0.257150, -0.245563, -0.235797,
-0.227987, -0.222118, -0.218150, -0.216101, -0.216027,
-0.218163, -0.222739, -0.230085, -0.240484, -0.254010,
-0.270253, -0.288199, -0.306466, -0.323864, -0.339592,
-0.353421, -0.365349, -0.375530, -0.384165, -0.391473,
-0.397643, -0.402842, -0.407214, -0.410880, -0.413939,
-0.416477, -0.418560, -0.405762, -0.383837, -0.363846,
-0.345597, -0.328907, -0.313616, -0.299593, -0.286720,
-0.274892, -0.264012, -0.254006, -0.244800, -0.236336,
-0.228550, -0.221403, -0.214859, -0.208896, -0.203502,
-0.198687, -0.194506, -0.191104, -0.194873, -0.200561,
-0.206596, -0.199076, -0.186792, -0.175426, -0.164772,
-0.158445, -0.157544, -0.156690, -0.155972, -0.155439,
-0.155123, -0.155045, -0.155226, -0.155681, -0.156432,
-0.157498, -0.158903, -0.160675, -0.162845, -0.165451,
-0.168537, -0.172155, -0.176364, -0.181236, -0.186852,
-0.193307, -0.200706, -0.209169, -0.218818, -0.229776,
-0.242144, -0.255963, -0.271166, -0.287467, -0.304237,
-0.320345, -0.334036, -0.342994, -0.344728, -0.337343,
-0.320402, -0.295356, -0.265199, -0.233395, -0.202874,
-0.175500, -0.152081, -0.132678, -0.116928, -0.104300,
-0.094241, -0.086244, -0.079881, -0.074799, -0.070718,
-0.067415, -0.064719, -0.062495, -0.060641, -0.059078,
-0.057749, -0.056610, -0.055631, -0.054790, -0.054075,
-0.053479, -0.053001, -0.052644, -0.052412, -0.052314,
-0.052361, -0.052567, -0.052943, -0.053506, -0.054271,
-0.055252, -0.056466, -0.057923, -0.059640, -0.061626,
-0.063890, -0.066440, -0.069284, -0.072430, -0.075889,
-0.079672, -0.083798, -0.088290, -0.093180, -0.098509,
-0.104328, -0.110702, -0.117711, -0.125452, -0.134050,
-0.143645,
-0.000000, 0.266384, 0.269141, 0.271741, 0.274183,
0.276458, 0.278556, 0.280435, 0.281956, 0.282503,
0.279414, 0.269613, 0.257150, 0.245563, 0.235797,
0.227987, 0.222118, 0.218150, 0.216101, 0.216027,
0.218163, 0.222739, 0.230085, 0.240484, 0.254010,
0.270253, 0.288199, 0.306466, 0.323864, 0.339592,
0.353421, 0.365349, 0.375530, 0.384165, 0.391473,
0.397643, 0.402842, 0.407214, 0.410880, 0.413939,
0.416477, 0.418560, 0.405762, 0.383837, 0.363846,
0.345597, 0.328907, 0.313616, 0.299593, 0.286720,
0.274892, 0.264012, 0.254006, 0.244800, 0.236336,
0.228550, 0.221403, 0.214859, 0.208896, 0.203502,
0.198687, 0.194506, 0.191104, 0.194873, 0.200561,
0.206596, 0.199077, 0.186792, 0.175426, 0.164772,
0.158445, 0.157544, 0.156690, 0.155972, 0.155439,
0.155123, 0.155045, 0.155226, 0.155681, 0.156432,
0.157498, 0.158903, 0.160675, 0.162845, 0.165451,
0.168537, 0.172155, 0.176364, 0.181236, 0.186852,
0.193307, 0.200706, 0.209169, 0.218818, 0.229776,
0.242144, 0.255963, 0.271166, 0.287467, 0.304237,
0.320345, 0.334036, 0.342994, 0.344728, 0.337343,
0.320402, 0.295356, 0.265199, 0.233395, 0.202874,
0.175500, 0.152081, 0.132678, 0.116928, 0.104300,
0.094241, 0.086244, 0.079881, 0.074799, 0.070718,
0.067415, 0.064719, 0.062495, 0.060641, 0.059078,
0.057749, 0.056610, 0.055631, 0.054790, 0.054075,
0.053479, 0.053001, 0.052644, 0.052412, 0.052314,
0.052361, 0.052567, 0.052943, 0.053506, 0.054271,
0.055252, 0.056466, 0.057923, 0.059640, 0.061626,
0.063890, 0.066440, 0.069284, 0.072430, 0.075889,
0.079672, 0.083798, 0.088290, 0.093180, 0.098509,
0.104328, 0.110702, 0.117711, 0.125452, 0.134050,
0.143645,
-0.000000, -0.532921, -0.538315, -0.543197, -0.547515,
-0.551185, -0.554042, -0.555728, -0.555304, -0.549750,
-0.529692, -0.489004, -0.442133, -0.397729, -0.357123,
-0.319966, -0.285609, -0.253402, -0.222718, -0.193011,
-0.163657, -0.134087, -0.103734, -0.072219, -0.039398,
-0.005675, 0.027948, 0.060187, 0.090036, 0.116939,
0.140882, 0.162059, 0.180779, 0.197368, 0.212138,
0.225355, 0.237251, 0.248021, 0.257828, 0.266811,
0.275086, 0.282751, 0.272801, 0.251648, 0.232281,
0.214513, 0.198163, 0.183071, 0.169108, 0.156158,
0.144114, 0.132878, 0.122372, 0.112521, 0.103262,
0.094521, 0.086249, 0.078397, 0.070926, 0.063800,
0.056981, 0.050445, 0.044185, 0.038501, 0.033817,
0.029772, 0.021867, 0.013508, 0.006678, 0.000947,
-0.004358, -0.010052, -0.015857, -0.021790, -0.027877,
-0.034151, -0.040646, -0.047403, -0.054466, -0.061885,
-0.069716, -0.078020, -0.086867, -0.096335, -0.106514,
-0.117502, -0.129414, -0.142375, -0.156528, -0.172030,
-0.189053, -0.207776, -0.228379, -0.251026, -0.275829,
-0.302811, -0.331787, -0.362292, -0.393318, -0.423113,
-0.448908, -0.466790, -0.471935, -0.459539, -0.426480,
-0.373138, -0.304094, -0.227031, -0.150080, -0.079576,
-0.019073, 0.030359, 0.069275, 0.099027, 0.121189,
0.137257, 0.148522, 0.156039, 0.160647, 0.163006,
0.163629, 0.162918, 0.161189, 0.158694, 0.155634,
0.152173, 0.148444, 0.144559, 0.140611, 0.136678,
0.132827, 0.129115, 0.125589, 0.122290, 0.119254,
0.116510, 0.114084, 0.111997, 0.110268, 0.108911,
0.107935, 0.107346, 0.107145, 0.107332, 0.107899,
0.108837, 0.110135, 0.111777, 0.113753, 0.116055,
0.118679, 0.121628, 0.124914, 0.128559, 0.132594,
0.137068, 0.142039, 0.147583, 0.153797, 0.160801,
0.168735,
-0.000000, 0.532921, 0.538315, 0.543197, 0.547515,
0.551185, 0.554042, 0.555728, 0.555304, 0.549750,
0.529692, 0.489004, 0.442133, 0.397729, 0.357123,
0.319966, 0.285609, 0.253402, 0.222718, 0.193011,
0.163657, 0.134087, 0.103734, 0.072219, 0.039398,
0.005675, -0.027948, -0.060187, -0.090036, -0.116939,
-0.140882, -0.162059, -0.180779, -0.197368, -0.212138,
-0.225355, -0.237251, -0.248021, -0.257828, -0.266811,
-0.275086, -0.282751, -0.272801, -0.251648, -0.232281,
-0.214513, -0.198163, -0.183071, -0.169108, -0.156158,
-0.144114, -0.132878, -0.122372, -0.112521, -0.103262,
-0.094521, -0.086249, -0.078397, -0.070926, -0.063800,
-0.056981, -0.050445, -0.044185, -0.038501, -0.033817,
-0.029773, -0.021866, -0.013508, -0.006678, -0.000947,
0.004358, 0.010052, 0.015857, 0.021790, 0.027877,
0.034151, 0.040646, 0.047403, 0.054466, 0.061885,
0.069716, 0.078020, 0.086867, 0.096335, 0.106514,
0.117502, 0.129414, 0.142375, 0.156528, 0.172030,
0.189053, 0.207776, 0.228379, 0.251026, 0.275829,
0.302811, 0.331787, 0.362292, 0.393318, 0.423113,
0.448908, 0.466790, 0.471935, 0.459539, 0.426480,
0.373138, 0.304094, 0.227031, 0.150080, 0.079576,
0.019073, -0.030359, -0.069275, -0.099027, -0.121189,
-0.137257, -0.148522, -0.156039, -0.160647, -0.163006,
-0.163629, -0.162918, -0.161189, -0.158694, -0.155634,
-0.152173, -0.148444, -0.144559, -0.140611, -0.136678,
-0.132827, -0.129115, -0.125589, -0.122290, -0.119254,
-0.116510, -0.114084, -0.111997, -0.110268, -0.108911,
-0.107935, -0.107346, -0.107145, -0.107332, -0.107899,
-0.108837, -0.110135, -0.111777, -0.113753, -0.116055,
-0.118679, -0.121628, -0.124914, -0.128559, -0.132594,
-0.137068, -0.142039, -0.147583, -0.153797, -0.160801,
-0.168735,

// W_180_161_0db.mat
// re
0.166667, 0.161944, 0.157616, 0.153810, 0.150791,
0.148962, 0.149071, 0.152634, 0.163057, 0.189014,
0.246999, 0.325374, 0.389425, 0.436062, 0.470519,
0.496699, 0.517073, 0.533246, 0.546274, 0.556899,
0.565636, 0.572871, 0.578883, 0.583888, 0.588048,
0.591488, 0.594290, 0.596430, 0.592593, 0.559805,
0.530442, 0.504061, 0.480328, 0.458940, 0.439642,
0.422219, 0.406494, 0.392303, 0.379518, 0.368028,
0.357739, 0.348573, 0.340469, 0.333380, 0.327270,
0.322121, 0.317929, 0.314705, 0.312479, 0.311305,
0.311262, 0.312466, 0.315080, 0.319329, 0.325529,
0.334127, 0.345770, 0.361416, 0.382553, 0.411584,
0.452676, 0.513667, 0.548964, 0.552891, 0.556578,
0.559999, -0.180415, -0.194047, -0.206880, -0.219015,
-0.200999, -0.141666, -0.100476, -0.070319, -0.047316,
-0.029212, -0.014588, -0.002511, 0.007655, 0.016363,
0.023945, 0.030645, 0.036655, 0.042126, 0.047183,
0.051929, 0.056453, 0.060834, 0.065149, 0.069469,
0.073867, 0.078417, 0.083194, 0.088267, 0.093694,
0.099487, 0.105572, 0.111701, 0.117343, 0.121628,
0.123472, 0.122102, 0.117654, 0.111306, 0.104613,
0.098750, 0.094240, 0.091126, 0.089215, 0.088260,
0.088032, 0.088351, 0.089080, 0.090119, 0.091399,
0.092866, 0.094491, 0.096251, 0.098134, 0.100134,
0.102254, 0.104500, 0.106885, 0.109428, 0.112159,
0.115094, 0.118275, 0.121738, 0.125539, 0.129722,
0.134338, 0.139435, 0.145057, 0.151231, 0.157963,
0.165228, 0.172959, 0.181041, 0.189309, 0.197547,
0.205508, 0.212933, 0.219561, 0.225179, 0.229632,
0.232834, 0.234772, 0.235497, 0.235112, 0.233750,
0.231562, 0.228701, 0.225314, 0.221534, 0.217475,
0.213240, 0.208908, 0.204545, 0.200210, 0.195945,
0.191783,
0.166667, 0.161944, 0.157616, 0.153810, 0.150791,
0.148962, 0.149071, 0.152634, 0.163057, 0.189014,
0.246999, 0.325374, 0.389425, 0.436062, 0.470519,
0.496699, 0.517073, 0.533246, 0.546274, 0.556899,
0.565636, 0.572871, 0.578883, 0.583888, 0.588048,
0.591488, 0.594290, 0.596430, 0.592593, 0.559805,
0.530442, 0.504061, 0.480328, 0.458940, 0.439642,
0.422219, 0.406494, 0.392303, 0.379518, 0.368028,
0.357739, 0.348573, 0.340469, 0.333380, 0.327270,
0.322121, 0.317929, 0.314705, 0.312479, 0.311305,
0.311262, 0.312466, 0.315080, 0.319329, 0.325529,
0.334127, 0.345770, 0.361416, 0.382553, 0.411584,
0.452676, 0.513667, 0.548964, 0.552891, 0.556578,
0.559999, -0.180415, -0.194047, -0.206880, -0.219015,
-0.200999, -0.141666, -0.100476, -0.070319, -0.047316,
-0.029212, -0.014588, -0.002511, 0.007655, 0.016363,
0.023945, 0.030645, 0.036655, 0.042126, 0.047183,
0.051929, 0.056453, 0.060834, 0.065149, 0.069469,
0.073867, 0.078417, 0.083194, 0.088267, 0.093694,
0.099487, 0.105572, 0.111701, 0.117343, 0.121628,
0.123472, 0.122102, 0.117654, 0.111306, 0.104613,
0.098750, 0.094240, 0.091126, 0.089215, 0.088260,
0.088032, 0.088351, 0.089080, 0.090119, 0.091399,
0.092866, 0.094491, 0.096251, 0.098134, 0.100134,
0.102254, 0.104500, 0.106885, 0.109428, 0.112159,
0.115094, 0.118275, 0.121738, 0.125539, 0.129722,
0.134338, 0.139435, 0.145057, 0.151231, 0.157963,
0.165228, 0.172959, 0.181041, 0.189309, 0.197547,
0.205508, 0.212933, 0.219561, 0.225179, 0.229632,
0.232834, 0.234772, 0.235497, 0.235112, 0.233750,
0.231562, 0.228701, 0.225314, 0.221534, 0.217475,
0.213240, 0.208908, 0.204545, 0.200210, 0.195945,
0.191783,
0.166667, 0.154477, 0.141937, 0.128993, 0.115529,
0.101360, 0.086135, 0.069147, 0.048826, 0.021350,
-0.019451, -0.065044, -0.100096, -0.125256, -0.143896,
-0.158229, -0.169602, -0.178862, -0.186571, -0.193108,
-0.198748, -0.203682, -0.208060, -0.211991, -0.215557,
-0.218822, -0.221823, -0.224541, -0.223928, -0.206556,
-0.190754, -0.176296, -0.163013, -0.150744, -0.139353,
-0.128724, -0.118753, -0.109344, -0.100414, -0.091886,
-0.083687, -0.075748, -0.068004, -0.060387, -0.052829,
-0.045261, -0.037607, -0.029782, -0.021691, -0.013222,
-0.004241, 0.005415, 0.015955, 0.027645, 0.040843,
0.056033, 0.073903, 0.095452, 0.122215, 0.156657,
0.203030, 0.269314, 0.300787, 0.294975, 0.289165,
0.283376, -0.466128, -0.464345, -0.462508, -0.460613,
-0.432355, -0.370039, -0.326481, -0.294406, -0.269852,
-0.250515, -0.234949, -0.222209, -0.211650, -0.202820,
-0.195394, -0.189134, -0.183864, -0.179451, -0.175798,
-0.172834, -0.170508, -0.168791, -0.167667, -0.167136,
-0.167210, -0.167913, -0.169272, -0.171315, -0.174042,
-0.177394, -0.181179, -0.184966, -0.187962, -0.188966,
-0.186628, -0.180132, -0.169973, -0.157941, -0.146136,
-0.135988, -0.128011, -0.122107, -0.117915, -0.115041,
-0.113146, -0.111967, -0.111312, -0.111038, -0.111041,
-0.111243, -0.111586, -0.112023, -0.112515, -0.113025,
-0.113519, -0.113962, -0.114317, -0.114542, -0.114588,
-0.114400, -0.113914, -0.113056, -0.111739, -0.109865,
-0.107325, -0.104002, -0.099773, -0.094517, -0.088124,
-0.080511, -0.071637, -0.061518, -0.050245, -0.037988,
-0.024999, -0.011592, 0.001869, 0.015024, 0.027539,
0.039142, 0.049638, 0.058918, 0.066951, 0.073772,
0.079462, 0.084138, 0.087926, 0.090958, 0.093360,
0.095253, 0.096737, 0.097901, 0.098831, 0.099590,
0.100233,
0.166667, 0.154477, 0.141937, 0.128993, 0.115529,
0.101360, 0.086135, 0.069147, 0.048826, 0.021350,
-0.019451, -0.065044, -0.100096, -0.125256, -0.143896,
-0.158229, -0.169602, -0.178862, -0.186571, -0.193108,
-0.198748, -0.203682, -0.208060, -0.211991, -0.215557,
-0.218822, -0.221823, -0.224541, -0.223928, -0.206556,
-0.190754, -0.176296, -0.163013, -0.150744, -0.139353,
-0.128724, -0.118753, -0.109344, -0.100414, -0.091886,
-0.083687, -0.075748, -0.068004, -0.060387, -0.052829,
-0.045261, -0.037607, -0.029782, -0.021691, -0.013222,
-0.004241, 0.005415, 0.015955, 0.027645, 0.040843,
0.056033, 0.073903, 0.095452, 0.122215, 0.156657,
0.203030, 0.269314, 0.300787, 0.294975, 0.289165,
0.283376, -0.466128, -0.464345, -0.462508, -0.460613,
-0.432355, -0.370039, -0.326481, -0.294406, -0.269852,
-0.250515, -0.234949, -0.222209, -0.211650, -0.202820,
-0.195394, -0.189134, -0.183864, -0.179451, -0.175798,
-0.172834, -0.170508, -0.168791, -0.167667, -0.167136,
-0.167210, -0.167913, -0.169272, -0.171315, -0.174042,
-0.177394, -0.181179, -0.184966, -0.187962, -0.188966,
-0.186628, -0.180132, -0.169973, -0.157941, -0.146136,
-0.135988, -0.128011, -0.122107, -0.117915, -0.115041,
-0.113146, -0.111967, -0.111312, -0.111038, -0.111041,
-0.111243, -0.111586, -0.112023, -0.112515, -0.113025,
-0.113519, -0.113962, -0.114317, -0.114542, -0.114588,
-0.114400, -0.113914, -0.113056, -0.111739, -0.109865,
-0.107325, -0.104002, -0.099773, -0.094517, -0.088124,
-0.080511, -0.071637, -0.061518, -0.050245, -0.037988,
-0.024999, -0.011592, 0.001869, 0.015024, 0.027539,
0.039142, 0.049638, 0.058918, 0.066951, 0.073772,
0.079462, 0.084138, 0.087926, 0.090958, 0.093360,
0.095253, 0.096737, 0.097901, 0.098831, 0.099590,
0.100233,
0.166667, 0.154451, 0.141879, 0.128895, 0.115379,
0.101140, 0.085816, 0.068675, 0.048098, 0.020130,
-0.021649, -0.068537, -0.104680, -0.130685, -0.150003,
-0.164908, -0.176783, -0.186505, -0.194649, -0.201615,
-0.207680, -0.213055, -0.217890, -0.222304, -0.226388,
-0.230213, -0.233829, -0.237223, -0.237108, -0.218884,
-0.202314, -0.187162, -0.173247, -0.160403, -0.148488,
-0.137377, -0.126966, -0.117150, -0.107845, -0.098970,
-0.090450, -0.082214, -0.074192, -0.066316, -0.058518,
-0.050724, -0.042858, -0.034835, -0.026557, -0.017912,
-0.008766, 0.001047, 0.011734, 0.023564, 0.036895,
0.052211, 0.070201, 0.091865, 0.118736, 0.153282,
0.199755, 0.266135, 0.297721, 0.292014, 0.286288,
0.280567, -0.468881, -0.467005, -0.465091, -0.463132,
-0.434813, -0.372428, -0.328803, -0.296662, -0.272043,
-0.252642, -0.237013, -0.224209, -0.213588, -0.204696,
-0.197208, -0.190886, -0.185553, -0.181078, -0.177361,
-0.174333, -0.171942, -0.170159, -0.168968, -0.168367,
-0.168370, -0.169000, -0.170284, -0.172250, -0.174897,
-0.178166, -0.181864, -0.185562, -0.188465, -0.189372,
-0.186933, -0.180330, -0.170061, -0.157913, -0.145987,
-0.135713, -0.127604, -0.121562, -0.117225, -0.114200,
-0.112147, -0.110805, -0.109979, -0.109527, -0.109346,
-0.109356, -0.109502, -0.109735, -0.110018, -0.110313,
-0.110588, -0.110809, -0.110937, -0.110934, -0.110751,
-0.110334, -0.109619, -0.108535, -0.106995, -0.104904,
-0.102153, -0.098626, -0.094201, -0.088758, -0.082189,
-0.074411, -0.065384, -0.055124, -0.043722, -0.031349,
-0.018258, -0.004760, 0.008779, 0.022000, 0.034570,
0.046217, 0.056746, 0.066049, 0.074097, 0.080924,
0.086613, 0.091280, 0.095054, 0.098066, 0.100444,
0.102308, 0.103759, 0.104888, 0.105779, 0.106498,
0.107098,
0.166667, 0.154451, 0.141879, 0.128895, 0.115379,
0.101140, 0.085816, 0.068675, 0.048098, 0.020130,
-0.021649, -0.068537, -0.104680, -0.130685, -0.150003,
-0.164908, -0.176783, -0.186505, -0.194649, -0.201615,
-0.207680, -0.213055, -0.217890, -0.222304, -0.226388,
-0.230213, -0.233829, -0.237223, -0.237108, -0.218884,
-0.202314, -0.187162, -0.173247, -0.160403, -0.148488,
-0.137377, -0.126966, -0.117150, -0.107845, -0.098970,
-0.090450, -0.082214, -0.074192, -0.066316, -0.058518,
-0.050724, -0.042858, -0.034835, -0.026557, -0.017912,
-0.008766, 0.001047, 0.011734, 0.023564, 0.036895,
0.052211, 0.070201, 0.091865, 0.118736, 0.153282,
0.199755, 0.266135, 0.297721, 0.292014, 0.286288,
0.280567, -0.468881, -0.467005, -0.465091, -0.463132,
-0.434813, -0.372428, -0.328803, -0.296662, -0.272043,
-0.252642, -0.237013, -0.224209, -0.213588, -0.204696,
-0.197208, -0.190886, -0.185553, -0.181078, -0.177361,
-0.174333, -0.171942, -0.170159, -0.168968, -0.168367,
-0.168370, -0.169000, -0.170284, -0.172250, -0.174897,
-0.178166, -0.181864, -0.185562, -0.188465, -0.189372,
-0.186933, -0.180330, -0.170061, -0.157913, -0.145987,
-0.135713, -0.127604, -0.121562, -0.117225, -0.114200,
-0.112147, -0.110805, -0.109979, -0.109527, -0.109346,
-0.109356, -0.109502, -0.109735, -0.110018, -0.110313,
-0.110588, -0.110809, -0.110937, -0.110934, -0.110751,
-0.110334, -0.109619, -0.108535, -0.106995, -0.104904,
-0.102153, -0.098626, -0.094201, -0.088758, -0.082189,
-0.074411, -0.065384, -0.055124, -0.043722, -0.031349,
-0.018258, -0.004760, 0.008779, 0.022000, 0.034570,
0.046217, 0.056746, 0.066049, 0.074097, 0.080924,
0.086613, 0.091280, 0.095054, 0.098066, 0.100444,
0.102308, 0.103759, 0.104888, 0.105779, 0.106498,
0.107098,

// im
-0.000000, 0.000831, 0.000887, 0.000957, 0.001040,
0.001143, 0.001269, 0.001426, 0.001623, 0.001867,
0.002112, 0.002235, 0.002263, 0.002262, 0.002264,
0.002280, 0.002314, 0.002372, 0.002469, 0.002586,
0.002757, 0.002986, 0.003307, 0.003765, 0.004452,
0.005568, 0.007664, 0.012879, 0.033029, 0.029938,
0.027264, 0.024898, 0.022823, 0.020993, 0.019368,
0.017920, 0.016630, 0.015470, 0.014426, 0.013487,
0.012638, 0.011869, 0.011171, 0.010535, 0.009956,
0.009426, 0.008942, 0.008499, 0.008091, 0.007717,
0.007372, 0.007055, 0.006762, 0.006492, 0.006242,
0.006012, 0.005799, 0.005603, 0.005421, 0.005254,
0.005099, 0.004957, 0.004750, 0.004575, 0.004472,
0.004424, 0.004408, 0.004281, 0.004203, 0.004165,
0.004142, 0.004098, 0.004062, 0.004036, 0.004020,
0.004013, 0.004018, 0.004033, 0.004061, 0.004103,
0.004159, 0.004232, 0.004324, 0.004438, 0.004577,
0.004745, 0.004946, 0.005188, 0.005479, 0.005826,
0.006243, 0.006744, 0.007346, 0.008070, 0.008938,
0.009975, 0.011200, 0.012620, 0.014213, 0.015908,
0.017559, 0.018957, 0.019854, 0.020065, 0.019556,
0.018456, 0.016989, 0.015383, 0.013806, 0.012357,
0.011079, 0.009976, 0.009038, 0.008245, 0.007576,
0.007012, 0.006536, 0.006133, 0.005791, 0.005501,
0.005253, 0.005042, 0.004862, 0.004709, 0.004579,
0.004469, 0.004377, 0.004301, 0.004238, 0.004188,
0.004149, 0.004121, 0.004103, 0.004094, 0.004093,
0.004100, 0.004115, 0.004138, 0.004169, 0.004207,
0.004252, 0.004306, 0.004367, 0.004435, 0.004513,
0.004598, 0.004693, 0.004798, 0.004914, 0.005041,
0.005180, 0.005332, 0.005500, 0.005685, 0.005889,
0.006115, 0.006366, 0.006645, 0.006959, 0.007313,
0.007716,
-0.000000, -0.000831, -0.000887, -0.000957, -0.001040,
-0.001143, -0.001269, -0.001426, -0.001623, -0.001867,
-0.002112, -0.002235, -0.002263, -0.002262, -0.002264,
-0.002280, -0.002314, -0.002372, -0.002469, -0.002586,
-0.002757, -0.002986, -0.003307, -0.003765, -0.004452,
-0.005568, -0.007664, -0.012879, -0.033029, -0.029938,
-0.027264, -0.024898, -0.022823, -0.020993, -0.019368,
-0.017920, -0.016630, -0.015470, -0.014426, -0.013487,
-0.012638, -0.011869, -0.011171, -0.010535, -0.009956,
-0.009426, -0.008942, -0.008499, -0.008091, -0.007717,
-0.007372, -0.007055, -0.006762, -0.006492, -0.006242,
-0.006012, -0.005799, -0.005603, -0.005421, -0.005254,
-0.005099, -0.004957, -0.004750, -0.004575, -0.004472,
-0.004424, -0.004409, -0.004281, -0.004203, -0.004165,
-0.004142, -0.004098, -0.004062, -0.004036, -0.004020,
-0.004013, -0.004018, -0.004033, -0.004061, -0.004103,
-0.004159, -0.004232, -0.004324, -0.004438, -0.004577,
-0.004745, -0.004946, -0.005188, -0.005479, -0.005826,
-0.006243, -0.006744, -0.007346, -0.008070, -0.008938,
-0.009975, -0.011200, -0.012620, -0.014213, -0.015908,
-0.017559, -0.018957, -0.019854, -0.020065, -0.019556,
-0.018456, -0.016989, -0.015383, -0.013806, -0.012357,
-0.011079, -0.009976, -0.009038, -0.008245, -0.007576,
-0.007012, -0.006536, -0.006133, -0.005791, -0.005501,
-0.005253, -0.005042, -0.004862, -0.004709, -0.004579,
-0.004469, -0.004377, -0.004301, -0.004238, -0.004188,
-0.004149, -0.004121, -0.004103, -0.004094, -0.004093,
-0.004100, -0.004115, -0.004138, -0.004169, -0.004207,
-0.004252, -0.004306, -0.004367, -0.004435, -0.004513,
-0.004598, -0.004693, -0.004798, -0.004914, -0.005041,
-0.005180, -0.005332, -0.005500, -0.005685, -0.005889,
-0.006115, -0.006366, -0.006645, -0.006959, -0.007313,
-0.007716,
-0.000000, -0.461133, -0.465862, -0.470208, -0.474143,
-0.477613, -0.480520, -0.482635, -0.483335, -0.480506,
-0.467161, -0.438042, -0.403889, -0.371661, -0.342674,
-0.316809, -0.293685, -0.272898, -0.254118, -0.237025,
-0.221417, -0.207085, -0.193901, -0.181764, -0.170648,
-0.160651, -0.152241, -0.147498, -0.159043, -0.152676,
-0.146989, -0.141858, -0.137238, -0.133066, -0.129286,
-0.125858, -0.122746, -0.119914, -0.117338, -0.114996,
-0.112868, -0.110935, -0.109182, -0.107595, -0.106164,
-0.104878, -0.103728, -0.102706, -0.101804, -0.101016,
-0.100337, -0.099762, -0.099285, -0.098903, -0.098610,
-0.098402, -0.098272, -0.098215, -0.098220, -0.098270,
-0.098339, -0.098377, -0.101975, -0.107932, -0.113864,
-0.119788, -0.125850, -0.122224, -0.118588, -0.114995,
-0.112938, -0.114099, -0.115575, -0.117308, -0.119275,
-0.121466, -0.123882, -0.126527, -0.129411, -0.132545,
-0.135939, -0.139607, -0.143562, -0.147813, -0.152366,
-0.157218, -0.162354, -0.167736, -0.173291, -0.178890,
-0.184314, -0.189207, -0.192994, -0.194767, -0.193108,
-0.185870, -0.169946, -0.141223, -0.095147, -0.028601,
0.056707, 0.151248, 0.239298, 0.306461, 0.346788,
0.362971, 0.361891, 0.350418, 0.333713, 0.315061,
0.296343, 0.278539, 0.262098, 0.247172, 0.233762,
0.221795, 0.211154, 0.201721, 0.193383, 0.186034,
0.179577, 0.173927, 0.169010, 0.164760, 0.161115,
0.158035, 0.155466, 0.153367, 0.151691, 0.150399,
0.149447, 0.148788, 0.148370, 0.148136, 0.148022,
0.147957, 0.147869, 0.147684, 0.147333, 0.146760,
0.145925, 0.144811, 0.143428, 0.141810, 0.140010,
0.138092, 0.136129, 0.134186, 0.132322, 0.130583,
0.129004, 0.127602, 0.126386, 0.125357, 0.124507,
0.123821, 0.123286, 0.122884, 0.122589, 0.122381,
0.122235,
-0.000000, 0.461133, 0.465862, 0.470208, 0.474143,
0.477613, 0.480520, 0.482635, 0.483335, 0.480506,
0.467161, 0.438042, 0.403889, 0.371661, 0.342674,
0.316809, 0.293685, 0.272898, 0.254118, 0.237025,
0.221417, 0.207085, 0.193901, 0.181764, 0.170648,
0.160651, 0.152241, 0.147498, 0.159043, 0.152676,
0.146989, 0.141858, 0.137238, 0.133066, 0.129286,
0.125858, 0.122746, 0.119914, 0.117338, 0.114996,
0.112868, 0.110935, 0.109182, 0.107595, 0.106164,
0.104878, 0.103728, 0.102706, 0.101804, 0.101016,
0.100337, 0.099762, 0.099285, 0.098903, 0.098610,
0.098402, 0.098272, 0.098215, 0.098220, 0.098270,
0.098339, 0.098377, 0.101975, 0.107932, 0.113864,
0.119788, 0.125850, 0.122224, 0.118588, 0.114995,
0.112938, 0.114099, 0.115575, 0.117308, 0.119275,
0.121466, 0.123882, 0.126527, 0.129411, 0.132545,
0.135939, 0.139607, 0.143562, 0.147813, 0.152366,
0.157218, 0.162354, 0.167736, 0.173291, 0.178890,
0.184314, 0.189207, 0.192994, 0.194767, 0.193108,
0.185870, 0.169946, 0.141223, 0.095147, 0.028601,
-0.056707, -0.151248, -0.239298, -0.306461, -0.346788,
-0.362971, -0.361891, -0.350418, -0.333713, -0.315061,
-0.296343, -0.278539, -0.262098, -0.247172, -0.233762,
-0.221795, -0.211154, -0.201721, -0.193383, -0.186034,
-0.179577, -0.173927, -0.169010, -0.164760, -0.161115,
-0.158035, -0.155466, -0.153367, -0.151691, -0.150399,
-0.149447, -0.148788, -0.148370, -0.148136, -0.148022,
-0.147957, -0.147869, -0.147684, -0.147333, -0.146760,
-0.145925, -0.144811, -0.143428, -0.141810, -0.140010,
-0.138092, -0.136129, -0.134186, -0.132322, -0.130583,
-0.129004, -0.127602, -0.126386, -0.125357, -0.124507,
-0.123821, -0.123286, -0.122884, -0.122589, -0.122381,
-0.122235,
-0.000000, -0.461964, -0.466748, -0.471161, -0.475174,
-0.478740, -0.481760, -0.484011, -0.484871, -0.482207,
-0.468936, -0.439679, -0.405265, -0.372753, -0.343473,
-0.317309, -0.293874, -0.272753, -0.253586, -0.236086,
-0.219981, -0.205053, -0.191104, -0.177942, -0.165354,
-0.153040, -0.140362, -0.125122, -0.096304, -0.096037,
-0.095626, -0.095159, -0.094627, -0.094059, -0.093480,
-0.092900, -0.092328, -0.091778, -0.091256, -0.090763,
-0.090306, -0.089888, -0.089512, -0.089181, -0.088896,
-0.088658, -0.088469, -0.088330, -0.088242, -0.088205,
-0.088221, -0.088288, -0.088408, -0.088581, -0.088804,
-0.089078, -0.089399, -0.089764, -0.090164, -0.090586,
-0.091005, -0.091373, -0.095424, -0.101777, -0.107974,
-0.114073, -0.120260, -0.116957, -0.113565, -0.110157,
-0.108270, -0.109643, -0.111326, -0.113262, -0.115429,
-0.117819, -0.120433, -0.123277, -0.126363, -0.129702,
-0.133308, -0.137197, -0.141383, -0.145880, -0.150697,
-0.155835, -0.161285, -0.167016, -0.172962, -0.179003,
-0.184934, -0.190413, -0.194882, -0.197454, -0.196734,
-0.190599, -0.175963, -0.148719, -0.104291, -0.039491,
0.044119, 0.137218, 0.224330, 0.291246, 0.332048,
0.349301, 0.349659, 0.339769, 0.324620, 0.307398,
0.289944, 0.273230, 0.257719, 0.243580, 0.230837,
0.219433, 0.209271, 0.200249, 0.192263, 0.185217,
0.179024, 0.173605, 0.168892, 0.164822, 0.161339,
0.158403, 0.155965, 0.153986, 0.152421, 0.151231,
0.150376, 0.149808, 0.149477, 0.149327, 0.149294,
0.149309, 0.149300, 0.149194, 0.148924, 0.148432,
0.147682, 0.146654, 0.145363, 0.143841, 0.142143,
0.140334, 0.138487, 0.136671, 0.134945, 0.133357,
0.131943, 0.130724, 0.129713, 0.128912, 0.128318,
0.127923, 0.127719, 0.127695, 0.127837, 0.128138,
0.128589,
-0.000000, 0.461964, 0.466748, 0.471161, 0.475174,
0.478740, 0.481760, 0.484011, 0.484871, 0.482207,
0.468936, 0.439679, 0.405265, 0.372753, 0.343473,
0.317309, 0.293874, 0.272753, 0.253586, 0.236086,
0.219981, 0.205053, 0.191104, 0.177942, 0.165354,
0.153040, 0.140362, 0.125122, 0.096304, 0.096037,
0.095626, 0.095159, 0.094627, 0.094059, 0.093480,
0.092900, 0.092328, 0.091778, 0.091256, 0.090763,
0.090306, 0.089888, 0.089512, 0.089181, 0.088896,
0.088658, 0.088469, 0.088330, 0.088242, 0.088205,
0.088221, 0.088288, 0.088408, 0.088581, 0.088804,
0.089078, 0.089399, 0.089764, 0.090164, 0.090586,
0.091005, 0.091373, 0.095424, 0.101777, 0.107974,
0.114073, 0.120259, 0.116957, 0.113565, 0.110157,
0.108270, 0.109643, 0.111326, 0.113262, 0.115429,
0.117819, 0.120433, 0.123277, 0.126363, 0.129702,
0.133308, 0.137197, 0.141383, 0.145880, 0.150697,
0.155835, 0.161285, 0.167016, 0.172962, 0.179003,
0.184934, 0.190413, 0.194882, 0.197454, 0.196734,
0.190599, 0.175963, 0.148719, 0.104291, 0.039491,
-0.044119, -0.137218, -0.224330, -0.291246, -0.332048,
-0.349301, -0.349659, -0.339769, -0.324620, -0.307398,
-0.289944, -0.273230, -0.257719, -0.243580, -0.230837,
-0.219433, -0.209271, -0.200249, -0.192263, -0.185217,
-0.179024, -0.173605, -0.168892, -0.164822, -0.161339,
-0.158403, -0.155965, -0.153986, -0.152421, -0.151231,
-0.150376, -0.149808, -0.149477, -0.149327, -0.149294,
-0.149309, -0.149300, -0.149194, -0.148924, -0.148432,
-0.147682, -0.146654, -0.145363, -0.143841, -0.142143,
-0.140334, -0.138487, -0.136671, -0.134945, -0.133357,
-0.131943, -0.130724, -0.129713, -0.128912, -0.128318,
-0.127923, -0.127719, -0.127695, -0.127837, -0.128138,
-0.128589,

// W_210_161_0db.mat
// re
0.166667, 0.159458, 0.152396, 0.145549, 0.139054,
0.133118, 0.128123, 0.124844, 0.125030, 0.133194,
0.158351, 0.195664, 0.226865, 0.249558, 0.266136,
0.278479, 0.287775, 0.294777, 0.299966, 0.303630,
0.305903, 0.306838, 0.306344, 0.304225, 0.300255,
0.294278, 0.286367, 0.276909, 0.266458, 0.255593,
0.244709, 0.234085, 0.223880, 0.214178, 0.205003,
0.196357, 0.188225, 0.180582, 0.173399, 0.166647,
0.160298, 0.154328, 0.150856, 0.149428, 0.148495,
0.148065, 0.148160, 0.148811, 0.150064, 0.151977,
0.154633, 0.158137, 0.162635, 0.168316, 0.175445,
0.184383, 0.195643, 0.209968, 0.228495, 0.253019,
0.286556, 0.334570, 0.408085, 0.424921, 0.424171,
0.423011, -0.305879, -0.314992, -0.323285, -0.330889,
-0.299718, -0.237555, -0.195602, -0.165518, -0.142985,
-0.125551, -0.111720, -0.100527, -0.091326, -0.083660,
-0.077211, -0.071734, -0.067051, -0.063024, -0.059544,
-0.056525, -0.053900, -0.051614, -0.049620, -0.047883,
-0.046374, -0.045071, -0.043959, -0.043032, -0.042296,
-0.041770, -0.041500, -0.041556, -0.042055, -0.043165,
-0.045115, -0.048182, -0.052646, -0.058703, -0.066343,
-0.075271, -0.084934, -0.094679, -0.103959, -0.112455,
-0.120080, -0.126905, -0.133073, -0.138743, -0.144049,
-0.149093, -0.153947, -0.158652, -0.163228, -0.167679,
-0.171999, -0.176172, -0.180182, -0.184011, -0.187640,
-0.191054, -0.194240, -0.197188, -0.199892, -0.202347,
-0.204549, -0.206492, -0.208173, -0.209585, -0.210716,
-0.211550, -0.212067, -0.212242, -0.212049, -0.211457,
-0.210438, -0.208968, -0.207035, -0.204627, -0.201754,
-0.198442, -0.194727, -0.190670, -0.186336, -0.181799,
-0.177141, -0.172440, -0.167774, -0.163213, -0.158817,
-0.154639, -0.150722, -0.147102, -0.143808, -0.140864,
-0.138294,
0.166667, 0.159458, 0.152396, 0.145549, 0.139054,
0.133118, 0.128123, 0.124844, 0.125030, 0.133194,
0.158351, 0.195664, 0.226865, 0.249558, 0.266136,
0.278479, 0.287775, 0.294777, 0.299966, 0.303630,
0.305903, 0.306838, 0.306344, 0.304225, 0.300255,
0.294278, 0.286367, 0.276909, 0.266458, 0.255593,
0.244709, 0.234085, 0.223880, 0.214178, 0.205003,
0.196357, 0.188225, 0.180582, 0.173399, 0.166647,
0.160298, 0.154328, 0.150856, 0.149428, 0.148495,
0.148065, 0.148160, 0.148811, 0.150064, 0.151977,
0.154633, 0.158137, 0.162635, 0.168316, 0.175445,
0.184383, 0.195643, 0.209968, 0.228495, 0.253019,
0.286556, 0.334570, 0.408085, 0.424921, 0.424171,
0.423011, -0.305879, -0.314992, -0.323285, -0.330889,
-0.299718, -0.237555, -0.195602, -0.165518, -0.142985,
-0.125551, -0.111720, -0.100527, -0.091326, -0.083660,
-0.077211, -0.071734, -0.067051, -0.063024, -0.059544,
-0.056525, -0.053900, -0.051614, -0.049620, -0.047883,
-0.046374, -0.045071, -0.043959, -0.043032, -0.042296,
-0.041770, -0.041500, -0.041556, -0.042055, -0.043165,
-0.045115, -0.048182, -0.052646, -0.058703, -0.066343,
-0.075271, -0.084934, -0.094679, -0.103959, -0.112455,
-0.120080, -0.126905, -0.133073, -0.138743, -0.144049,
-0.149093, -0.153947, -0.158652, -0.163228, -0.167679,
-0.171999, -0.176172, -0.180182, -0.184011, -0.187640,
-0.191054, -0.194240, -0.197188, -0.199892, -0.202347,
-0.204549, -0.206492, -0.208173, -0.209585, -0.210716,
-0.211550, -0.212067, -0.212242, -0.212049, -0.211457,
-0.210438, -0.208968, -0.207035, -0.204627, -0.201754,
-0.198442, -0.194727, -0.190670, -0.186336, -0.181799,
-0.177141, -0.172440, -0.167774, -0.163213, -0.158817,
-0.154639, -0.150722, -0.147102, -0.143808, -0.140864,
-0.138294,
0.166667, 0.151963, 0.136659, 0.120643, 0.103672,
0.085366, 0.065011, 0.041161, 0.010593, -0.034667,
-0.108473, -0.195719, -0.263972, -0.312886, -0.348744,
-0.375813, -0.396681, -0.412951, -0.425625, -0.435314,
-0.442303, -0.446651, -0.448155, -0.446409, -0.440862,
-0.431095, -0.417151, -0.399746, -0.379973, -0.359038,
-0.337767, -0.316772, -0.296411, -0.276886, -0.258266,
-0.240575, -0.223794, -0.207879, -0.192774, -0.178419,
-0.164748, -0.151699, -0.140649, -0.131043, -0.121705,
-0.112555, -0.103515, -0.094502, -0.085422, -0.076173,
-0.066637, -0.056673, -0.046106, -0.034717, -0.022221,
-0.008236, 0.007765, 0.026537, 0.049226, 0.077622,
0.114720, 0.165929, 0.242149, 0.254792, 0.249174,
0.243836, -0.478851, -0.477356, -0.475136, -0.472430,
-0.434617, -0.370559, -0.326601, -0.294467, -0.269869,
-0.250370, -0.234478, -0.221232, -0.209981, -0.200266,
-0.191760, -0.184215, -0.177444, -0.171301, -0.165670,
-0.160457, -0.155587, -0.150996, -0.146633, -0.142457,
-0.138436, -0.134549, -0.130788, -0.127163, -0.123707,
-0.120480, -0.117590, -0.115195, -0.113532, -0.112918,
-0.113742, -0.116416, -0.121265, -0.128349, -0.137274,
-0.147135, -0.156694, -0.164742, -0.170468, -0.173584,
-0.174234, -0.172800, -0.169731, -0.165441, -0.160270,
-0.154482, -0.148277, -0.141806, -0.135187, -0.128515,
-0.121870, -0.115323, -0.108935, -0.102763, -0.096854,
-0.091250, -0.085981, -0.081070, -0.076525, -0.072344,
-0.068507, -0.064982, -0.061722, -0.058666, -0.055737,
-0.052850, -0.049907, -0.046804, -0.043437, -0.039703,
-0.035510, -0.030782, -0.025469, -0.019533, -0.012983,
-0.005855, 0.001793, 0.009854, 0.018225, 0.026787,
0.035414, 0.043991, 0.052413, 0.060595, 0.068469,
0.075991, 0.083137, 0.089900, 0.096293, 0.102341,
0.108086,
0.166667, 0.151963, 0.136659, 0.120643, 0.103672,
0.085366, 0.065011, 0.041161, 0.010593, -0.034667,
-0.108473, -0.195719, -0.263972, -0.312886, -0.348744,
-0.375813, -0.396681, -0.412951, -0.425625, -0.435314,
-0.442303, -0.446651, -0.448155, -0.446409, -0.440862,
-0.431095, -0.417151, -0.399746, -0.379973, -0.359038,
-0.337767, -0.316772, -0.296411, -0.276886, -0.258266,
-0.240575, -0.223794, -0.207879, -0.192774, -0.178419,
-0.164748, -0.151699, -0.140649, -0.131043, -0.121705,
-0.112555, -0.103515, -0.094502, -0.085422, -0.076173,
-0.066637, -0.056673, -0.046106, -0.034717, -0.022221,
-0.008236, 0.007765, 0.026537, 0.049226, 0.077622,
0.114720, 0.165929, 0.242149, 0.254792, 0.249174,
0.243836, -0.478851, -0.477356, -0.475136, -0.472430,
-0.434617, -0.370559, -0.326601, -0.294467, -0.269869,
-0.250370, -0.234478, -0.221232, -0.209981, -0.200266,
-0.191760, -0.184215, -0.177444, -0.171301, -0.165670,
-0.160457, -0.155587, -0.150996, -0.146633, -0.142457,
-0.138436, -0.134549, -0.130788, -0.127163, -0.123707,
-0.120480, -0.117590, -0.115195, -0.113532, -0.112918,
-0.113742, -0.116416, -0.121265, -0.128349, -0.137274,
-0.147135, -0.156694, -0.164742, -0.170468, -0.173584,
-0.174234, -0.172800, -0.169731, -0.165441, -0.160270,
-0.154482, -0.148277, -0.141806, -0.135187, -0.128515,
-0.121870, -0.115323, -0.108935, -0.102763, -0.096854,
-0.091250, -0.085981, -0.081070, -0.076525, -0.072344,
-0.068507, -0.064982, -0.061722, -0.058666, -0.055737,
-0.052850, -0.049907, -0.046804, -0.043437, -0.039703,
-0.035510, -0.030782, -0.025469, -0.019533, -0.012983,
-0.005855, 0.001793, 0.009854, 0.018225, 0.026787,
0.035414, 0.043991, 0.052413, 0.060595, 0.068469,
0.075991, 0.083137, 0.089900, 0.096293, 0.102341,
0.108086,
0.166667, 0.159451, 0.152376, 0.145506, 0.138974,
0.132978, 0.127888, 0.124451, 0.124354, 0.131948,
0.155949, 0.191721, 0.221634, 0.243349, 0.259162,
0.270878, 0.279642, 0.286178, 0.290947, 0.294230,
0.296158, 0.296764, 0.295981, 0.293627, 0.289490,
0.283436, 0.275551, 0.266217, 0.255967, 0.245354,
0.234750, 0.224418, 0.214504, 0.205085, 0.196179,
0.187788, 0.179894, 0.172472, 0.165493, 0.158929,
0.152751, 0.146937, 0.143669, 0.142474, 0.141756,
0.141526, 0.141806, 0.142629, 0.144041, 0.146103,
0.148896, 0.152528, 0.157144, 0.162936, 0.170167,
0.179200, 0.190547, 0.204954, 0.223556, 0.248149,
0.281750, 0.329822, 0.403391, 0.420145, 0.419266,
0.417959, -0.311018, -0.319914, -0.328018, -0.335457,
-0.304189, -0.242007, -0.200041, -0.169948, -0.147410,
-0.129975, -0.116146, -0.104960, -0.095767, -0.088114,
-0.081680, -0.076222, -0.071560, -0.067556, -0.064103,
-0.061113, -0.058518, -0.056263, -0.054302, -0.052598,
-0.051121, -0.049848, -0.048762, -0.047857, -0.047135,
-0.046612, -0.046330, -0.046355, -0.046800, -0.047828,
-0.049667, -0.052595, -0.056901, -0.062802, -0.070314,
-0.079172, -0.088847, -0.098695, -0.108162, -0.116909,
-0.124827, -0.131966, -0.138459, -0.144451, -0.150072,
-0.155421, -0.160567, -0.165551, -0.170392, -0.175093,
-0.179647, -0.184039, -0.188250, -0.192262, -0.196055,
-0.199614, -0.202925, -0.205977, -0.208762, -0.211277,
-0.213517, -0.215477, -0.217153, -0.218538, -0.219623,
-0.220391, -0.220823, -0.220895, -0.220581, -0.219852,
-0.218681, -0.217043, -0.214929, -0.212324, -0.209244,
-0.205712, -0.201767, -0.197472, -0.192892, -0.188105,
-0.183191, -0.178234, -0.173310, -0.168492, -0.163842,
-0.159412, -0.155248, -0.151386, -0.147855, -0.144679,
-0.141884,
0.166667, 0.159451, 0.152376, 0.145506, 0.138974,
0.132978, 0.127888, 0.124451, 0.124354, 0.131948,
0.155949, 0.191721, 0.221634, 0.243349, 0.259162,
0.270878, 0.279642, 0.286178, 0.290947, 0.294230,
0.296158, 0.296764, 0.295981, 0.293627, 0.289490,
0.283436, 0.275551, 0.266217, 0.255967, 0.245354,
0.234750, 0.224418, 0.214504, 0.205085, 0.196179,
0.187788, 0.179894, 0.172472, 0.165493, 0.158929,
0.152751, 0.146937, 0.143669, 0.142474, 0.141756,
0.141526, 0.141806, 0.142629, 0.144041, 0.146103,
0.148896, 0.152528, 0.157144, 0.162936, 0.170167,
0.179200, 0.190547, 0.204954, 0.223556, 0.248149,
0.281750, 0.329822, 0.403391, 0.420145, 0.419266,
0.417959, -0.311018, -0.319914, -0.328018, -0.335457,
-0.304189, -0.242007, -0.200041, -0.169948, -0.147410,
-0.129975, -0.116146, -0.104960, -0.095767, -0.088114,
-0.081680, -0.076222, -0.071560, -0.067556, -0.064103,
-0.061113, -0.058518, -0.056263, -0.054302, -0.052598,
-0.051121, -0.049848, -0.048762, -0.047857, -0.047135,
-0.046612, -0.046330, -0.046355, -0.046800, -0.047828,
-0.049667, -0.052595, -0.056901, -0.062802, -0.070314,
-0.079172, -0.088847, -0.098695, -0.108162, -0.116909,
-0.124827, -0.131966, -0.138459, -0.144451, -0.150072,
-0.155421, -0.160567, -0.165551, -0.170392, -0.175093,
-0.179647, -0.184039, -0.188250, -0.192262, -0.196055,
-0.199614, -0.202925, -0.205977, -0.208762, -0.211277,
-0.213517, -0.215477, -0.217153, -0.218538, -0.219623,
-0.220391, -0.220823, -0.220895, -0.220581, -0.219852,
-0.218681, -0.217043, -0.214929, -0.212324, -0.209244,
-0.205712, -0.201767, -0.197472, -0.192892, -0.188105,
-0.183191, -0.178234, -0.173310, -0.168492, -0.163842,
-0.159412, -0.155248, -0.151386, -0.147855, -0.144679,
-0.141884,

// im
-0.000000, -0.265187, -0.268020, -0.270708, -0.273254,
-0.275654, -0.277903, -0.279969, -0.281723, -0.282552,
-0.279735, -0.270060, -0.257614, -0.246003, -0.236201,
-0.228351, -0.222441, -0.218434, -0.216346, -0.216235,
-0.218338, -0.222880, -0.230196, -0.240565, -0.254071,
-0.270291, -0.288221, -0.306475, -0.323863, -0.339583,
-0.353405, -0.365327, -0.375504, -0.384136, -0.391441,
-0.397608, -0.402806, -0.407176, -0.410840, -0.413899,
-0.416435, -0.418518, -0.405717, -0.383792, -0.363802,
-0.345553, -0.328863, -0.313572, -0.299549, -0.286677,
-0.274848, -0.263969, -0.253962, -0.244757, -0.236292,
-0.228506, -0.221359, -0.214815, -0.208851, -0.203457,
-0.198642, -0.194460, -0.191057, -0.194881, -0.200640,
-0.206746, -0.199286, -0.186936, -0.175502, -0.164777,
-0.158413, -0.157509, -0.156654, -0.155935, -0.155402,
-0.155085, -0.155007, -0.155187, -0.155642, -0.156392,
-0.157457, -0.158861, -0.160632, -0.162800, -0.165404,
-0.168487, -0.172101, -0.176305, -0.181170, -0.186778,
-0.193221, -0.200606, -0.209051, -0.218680, -0.229616,
-0.241964, -0.255770, -0.270985, -0.287346, -0.304263,
-0.320650, -0.334797, -0.344395, -0.346893, -0.340260,
-0.323906, -0.299170, -0.269026, -0.236993, -0.206090,
-0.178264, -0.154387, -0.134553, -0.118417, -0.105452,
-0.095103, -0.086858, -0.080284, -0.075022, -0.070788,
-0.067354, -0.064546, -0.062226, -0.060288, -0.058654,
-0.057262, -0.056069, -0.055042, -0.054160, -0.053408,
-0.052779, -0.052272, -0.051887, -0.051630, -0.051509,
-0.051534, -0.051718, -0.052075, -0.052619, -0.053366,
-0.054332, -0.055530, -0.056976, -0.058683, -0.060662,
-0.062923, -0.065474, -0.068323, -0.071477, -0.074948,
-0.078747, -0.082892, -0.087406, -0.092321, -0.097676,
-0.103523, -0.109927, -0.116966, -0.124738, -0.133367,
-0.142992,
-0.000000, 0.265187, 0.268020, 0.270708, 0.273254,
0.275654, 0.277903, 0.279969, 0.281723, 0.282552,
0.279735, 0.270060, 0.257614, 0.246003, 0.236201,
0.228351, 0.222441, 0.218434, 0.216346, 0.216235,
0.218338, 0.222880, 0.230196, 0.240565, 0.254071,
0.270291, 0.288221, 0.306475, 0.323863, 0.339583,
0.353405, 0.365327, 0.375504, 0.384136, 0.391441,
0.397608, 0.402806, 0.407176, 0.410840, 0.413899,
0.416435, 0.418518, 0.405717, 0.383792, 0.363802,
0.345553, 0.328863, 0.313572, 0.299549, 0.286677,
0.274848, 0.263969, 0.253962, 0.244757, 0.236292,
0.228506, 0.221359, 0.214815, 0.208851, 0.203457,
0.198642, 0.194460, 0.191057, 0.194881, 0.200640,
0.206745, 0.199286, 0.186936, 0.175502, 0.164777,
0.158413, 0.157509, 0.156654, 0.155935, 0.155402,
0.155085, 0.155007, 0.155187, 0.155642, 0.156392,
0.157457, 0.158861, 0.160632, 0.162800, 0.165404,
0.168487, 0.172101, 0.176305, 0.181170, 0.186778,
0.193221, 0.200606, 0.209051, 0.218680, 0.229616,
0.241964, 0.255770, 0.270985, 0.287346, 0.304263,
0.320650, 0.334797, 0.344395, 0.346893, 0.340260,
0.323906, 0.299170, 0.269026, 0.236993, 0.206090,
0.178264, 0.154387, 0.134553, 0.118417, 0.105452,
0.095103, 0.086858, 0.080284, 0.075022, 0.070788,
0.067354, 0.064546, 0.062226, 0.060288, 0.058654,
0.057262, 0.056069, 0.055042, 0.054160, 0.053408,
0.052779, 0.052272, 0.051887, 0.051630, 0.051509,
0.051534, 0.051718, 0.052075, 0.052619, 0.053366,
0.054332, 0.055530, 0.056976, 0.058683, 0.060662,
0.062923, 0.065474, 0.068323, 0.071477, 0.074948,
0.078747, 0.082892, 0.087406, 0.092321, 0.097676,
0.103523, 0.109927, 0.116966, 0.124738, 0.133367,
0.142992,
-0.000000, -0.532919, -0.538313, -0.543195, -0.547513,
-0.551183, -0.554040, -0.555727, -0.555303, -0.549749,
-0.529689, -0.488997, -0.442128, -0.397725, -0.357120,
-0.319965, -0.285608, -0.253403, -0.222720, -0.193014,
-0.163660, -0.134091, -0.103737, -0.072224, -0.039399,
-0.005677, 0.027948, 0.060188, 0.090037, 0.116941,
0.140883, 0.162059, 0.180779, 0.197367, 0.212136,
0.225352, 0.237248, 0.248017, 0.257823, 0.266806,
0.275080, 0.282745, 0.272791, 0.251638, 0.232271,
0.214503, 0.198152, 0.183060, 0.169097, 0.156147,
0.144103, 0.132866, 0.122360, 0.112509, 0.103250,
0.094508, 0.086236, 0.078383, 0.070913, 0.063786,
0.056966, 0.050430, 0.044170, 0.038486, 0.033801,
0.029755, 0.021849, 0.013491, 0.006661, 0.000928,
-0.004378, -0.010072, -0.015878, -0.021812, -0.027900,
-0.034174, -0.040671, -0.047429, -0.054493, -0.061913,
-0.069745, -0.078051, -0.086899, -0.096370, -0.106550,
-0.117541, -0.129454, -0.142417, -0.156573, -0.172078,
-0.189103, -0.207828, -0.228433, -0.251083, -0.275887,
-0.302870, -0.331845, -0.362347, -0.393368, -0.423155,
-0.448937, -0.466804, -0.471932, -0.459519, -0.426446,
-0.373093, -0.304042, -0.226974, -0.150019, -0.079512,
-0.019008, 0.030425, 0.069342, 0.099093, 0.121253,
0.137320, 0.148584, 0.156098, 0.160704, 0.163060,
0.163680, 0.162967, 0.161236, 0.158738, 0.155676,
0.152211, 0.148480, 0.144592, 0.140642, 0.136707,
0.132853, 0.129139, 0.125610, 0.122309, 0.119271,
0.116525, 0.114097, 0.112008, 0.110278, 0.108918,
0.107941, 0.107351, 0.107148, 0.107334, 0.107900,
0.108837, 0.110133, 0.111774, 0.113750, 0.116051,
0.118674, 0.121623, 0.124909, 0.128553, 0.132588,
0.137061, 0.142032, 0.147576, 0.153789, 0.160794,
0.168727,
-0.000000, 0.532919, 0.538313, 0.543195, 0.547513,
0.551183, 0.554040, 0.555727, 0.555303, 0.549749,
0.529689, 0.488997, 0.442128, 0.397725, 0.357120,
0.319965, 0.285608, 0.253403, 0.222720, 0.193014,
0.163660, 0.134091, 0.103737, 0.072224, 0.039399,
0.005677, -0.027948, -0.060188, -0.090037, -0.116941,
-0.140883, -0.162059, -0.180779, -0.197367, -0.212136,
-0.225352, -0.237248, -0.248017, -0.257823, -0.266806,
-0.275080, -0.282745, -0.272791, -0.251638, -0.232271,
-0.214503, -0.198152, -0.183060, -0.169097, -0.156147,
-0.144103, -0.132866, -0.122360, -0.112509, -0.103250,
-0.094508, -0.086236, -0.078383, -0.070913, -0.063786,
-0.056966, -0.050430, -0.044170, -0.038486, -0.033801,
-0.029755, -0.021849, -0.013491, -0.006661, -0.000928,
0.004378, 0.010072, 0.015878, 0.021812, 0.027900,
0.034174, 0.040671, 0.047429, 0.054493, 0.061913,
0.069745, 0.078051, 0.086899, 0.096370, 0.106550,
0.117541, 0.129454, 0.142417, 0.156573, 0.172078,
0.189103, 0.207828, 0.228433, 0.251083, 0.275887,
0.302870, 0.331845, 0.362347, 0.393368, 0.423155,
0.448937, 0.466804, 0.471932, 0.459519, 0.426446,
0.373093, 0.304042, 0.226974, 0.150019, 0.079512,
0.019008, -0.030425, -0.069342, -0.099093, -0.121253,
-0.137320, -0.148584, -0.156098, -0.160704, -0.163060,
-0.163680, -0.162967, -0.161236, -0.158738, -0.155676,
-0.152211, -0.148480, -0.144592, -0.140642, -0.136707,
-0.132853, -0.129139, -0.125610, -0.122309, -0.119271,
-0.116525, -0.114097, -0.112008, -0.110278, -0.108918,
-0.107941, -0.107351, -0.107148, -0.107334, -0.107900,
-0.108837, -0.110133, -0.111774, -0.113750, -0.116051,
-0.118674, -0.121623, -0.124908, -0.128553, -0.132588,
-0.137061, -0.142032, -0.147576, -0.153789, -0.160794,
-0.168727,
-0.000000, -0.267822, -0.270675, -0.273395, -0.275978,
-0.278427, -0.280735, -0.282873, -0.284713, -0.285636,
-0.282873, -0.273133, -0.260552, -0.248801, -0.238869,
-0.230905, -0.224895, -0.220802, -0.218640, -0.218465,
-0.220513, -0.225007, -0.232281, -0.242614, -0.256085,
-0.272272, -0.290169, -0.308389, -0.325742, -0.341428,
-0.355218, -0.367109, -0.377256, -0.385860, -0.393140,
-0.399283, -0.404459, -0.408810, -0.412456, -0.415499,
-0.418022, -0.420092, -0.407278, -0.385339, -0.365337,
-0.347077, -0.330377, -0.315078, -0.301047, -0.288169,
-0.276335, -0.265452, -0.255442, -0.246235, -0.237769,
-0.229983, -0.222836, -0.216294, -0.210333, -0.204942,
-0.200130, -0.195953, -0.192555, -0.196319, -0.202010,
-0.208055, -0.200537, -0.188254, -0.176893, -0.166249,
-0.159939, -0.159041, -0.158189, -0.157472, -0.156938,
-0.156617, -0.156532, -0.156700, -0.157138, -0.157864,
-0.158896, -0.160257, -0.161970, -0.164064, -0.166573,
-0.169535, -0.172993, -0.176999, -0.181612, -0.186898,
-0.192931, -0.199790, -0.207560, -0.216321, -0.226139,
-0.237051, -0.249020, -0.261907, -0.275377, -0.288820,
-0.301241, -0.311192, -0.316808, -0.316072, -0.307396,
-0.290367, -0.266213, -0.237588, -0.207639, -0.179060,
-0.153567, -0.131895, -0.114068, -0.099723, -0.088336,
-0.079367, -0.072330, -0.066809, -0.062469, -0.059043,
-0.056319, -0.054135, -0.052367, -0.050918, -0.049717,
